{"learner":{"attributes":{"scikit_learn":"{\"_estimator_type\": \"regressor\"}"},"feature_names":["momentum_short","momentum_long","rsi","macd","volume_ratio","composite_score","volume_composite_score","trend_score","confidence_score","bb_position","trend_strength","stoch_k","stoch_d","poc_distance","ichimoku_bullish","vwap_bullish","rsi_bearish_div","ema_5_13_bullish","ema_9_21_bullish","ema_50_200_bullish","momentum_ratio","momentum_combined","rsi_oversold","rsi_overbought","rsi_neutral","macd_positive","macd_signal_cross","volume_high","volume_low","volume_surge","composite_strong","composite_weak","composite_very_strong","bb_upper_band","bb_lower_band","bb_middle","price_change_pct","price_change_abs","price_volatility"],"feature_types":["float","float","float","float","float","float","float","float","float","float","float","float","float","float","i","i","i","i","i","i","float","float","int","int","int","int","float","int","int","int","int","int","int","int","int","int","float","float","float"],"gradient_booster":{"model":{"cats":{"enc":[],"feature_segments":[],"sorted_idx":[]},"gbtree_model_param":{"num_parallel_tree":"1","num_trees":"100"},"iteration_indptr":[0,1,2,3,4,5,6,7,8,9,10,11,12,13,14,15,16,17,18,19,20,21,22,23,24,25,26,27,28,29,30,31,32,33,34,35,36,37,38,39,40,41,42,43,44,45,46,47,48,49,50,51,52,53,54,55,56,57,58,59,60,61,62,63,64,65,66,67,68,69,70,71,72,73,74,75,76,77,78,79,80,81,82,83,84,85,86,87,88,89,90,91,92,93,94,95,96,97,98,99,100],"tree_info":[0,0,0,0,0,0,0,0,0,0,0,0,0,0,0,0,0,0,0,0,0,0,0,0,0,0,0,0,0,0,0,0,0,0,0,0,0,0,0,0,0,0,0,0,0,0,0,0,0,0,0,0,0,0,0,0,0,0,0,0,0,0,0,0,0,0,0,0,0,0,0,0,0,0,0,0,0,0,0,0,0,0,0,0,0,0,0,0,0,0,0,0,0,0,0,0,0,0,0,0],"trees":[{"base_weights":[3.8146973E-7,1.705064E1,-1.065665E1,-7.811728E0,2.4242699E1,-1.6838903E1,2.453592E0,-4.4097896E0,8.9451176E-1,4.750121E0,1.2465816E1,-5.4850454E0,-6.1232915E0,3.740734E0,-2.043335E0,-1.974815E0,-3.288048E-1,-5.687237E-3,-1.529089E0,-3.3675767E-2,4.7101308E-2],"categories":[],"categories_nodes":[],"categories_segments":[],"categories_sizes":[],"default_left":[0,0,0,0,0,0,0,0,0,0,0,0,0,0,0,0,0,0,0,0,0],"id":0,"left_children":[1,3,5,7,9,11,13,-1,-1,-1,-1,15,-1,-1,17,-1,-1,19,-1,-1,-1],"loss_changes":[4.7242705E3,1.9774934E3,1.3381292E3,2.668506E2,5.0653955E2,3.341692E2,2.95713E2,0E0,0E0,0E0,0E0,1.2056076E1,0E0,0E0,3.1082102E1,0E0,0E0,8.6973265E-2,0E0,0E0,0E0],"parents":[2147483647,0,0,1,1,2,2,3,3,4,4,5,5,6,6,11,11,14,14,17,17],"right_children":[2,4,6,8,10,12,14,-1,-1,-1,-1,16,-1,-1,18,-1,-1,20,-1,-1,-1],"split_conditions":[8.196502E-1,2.4E0,8.928647E1,-2.3913998E-2,-7.6151125E-2,2.06E-1,3.466762E-2,-4.4097896E0,8.9451176E-1,4.750121E0,1.2465816E1,1.4513788E-3,-6.1232915E0,3.740734E0,1.0162477E-1,-1.974815E0,-3.288048E-1,9.328861E-2,-1.529089E0,-3.3675767E-2,4.7101308E-2],"split_indices":[4,6,11,0,1,8,1,0,0,0,0,0,0,0,0,0,0,0,0,0,0],"split_type":[0,0,0,0,0,0,0,0,0,0,0,0,0,0,0,0,0,0,0,0,0],"sum_hessian":[2.4E1,9E0,1.5E1,2E0,7E0,1E1,5E0,1E0,1E0,6E0,1E0,3E0,7E0,1E0,4E0,2E0,1E0,3E0,1E0,2E0,1E0],"tree_param":{"num_deleted":"0","num_feature":"39","num_nodes":"21","size_leaf_vector":"1"}},{"base_weights":[2.9995278E-1,9.858473E0,-1.087665E1,9.183711E0,3.8484597E0,-3.3094814E0,-1.5808988E1,3.5286615E0,-6.0256524E0,-1.8894521E0,1.778602E0,-5.099904E0,-1.2997255E0,-5.331583E-1,-3.4021285E0,7.603349E-1,4.003601E-2,-2.7948418E-1,-8.980179E-2,-3.300333E-2,-7.407475E-3],"categories":[],"categories_nodes":[],"categories_segments":[],"categories_sizes":[],"default_left":[0,0,0,0,0,0,0,0,0,0,0,0,0,0,0,0,0,0,0,0,0],"id":1,"left_children":[1,3,5,-1,7,9,11,-1,13,-1,15,-1,-1,17,-1,-1,-1,-1,19,-1,-1],"loss_changes":[2.7780217E3,1.6284264E3,3.955664E2,0E0,1.0085694E3,1.0244224E2,2.2005615E1,0E0,1.6910197E2,0E0,3.3922138E0,0E0,0E0,6.2297094E-1,0E0,0E0,0E0,0E0,1.2311488E-3,0E0,0E0],"parents":[2147483647,0,0,1,1,2,2,4,4,5,5,6,6,8,8,10,10,13,13,18,18],"right_children":[2,4,6,-1,8,10,12,-1,14,-1,16,-1,-1,18,-1,-1,-1,-1,20,-1,-1],"split_conditions":[1.0193699E3,1.2476177E1,1.0206748E3,9.183711E0,-7.6151125E-2,4.958395E1,3.581874E-1,3.5286615E0,3.504944E-1,-1.8894521E0,4.4929394E-3,-5.099904E0,-1.2997255E0,3.5929864E-3,-3.4021285E0,7.603349E-1,4.003601E-2,-2.7948418E-1,4.8001368E-2,-3.300333E-2,-7.407475E-3],"split_indices":[38,10,38,0,1,2,0,0,20,0,0,0,0,0,0,0,0,0,0,0,0],"split_type":[0,0,0,0,0,0,0,0,0,0,0,0,0,0,0,0,0,0,0,0,0],"sum_hessian":[2.4E1,1.3E1,1.1E1,2E0,1.1E1,5E0,6E0,6E0,5E0,3E0,2E0,5E0,1E0,3E0,2E0,1E0,1E0,1E0,2E0,1E0,1E0],"tree_param":{"num_deleted":"0","num_feature":"39","num_nodes":"21","size_leaf_vector":"1"}},{"base_weights":[2.7003264E-1,9.218386E0,-2.2793787E0,2.6212914E0,-6.4371414E0,-9.270391E0,7.7442425E-1,-3.5165594E0,-4.619131E0,1.8020672E0,-1.4734471E0,9.082737E-1,-1.5428649E0,-5.3071976E-4,-1.1047668E0,-2.3756161E-1,6.462848E-1,-2.2899438E-2,3.4030724E-2],"categories":[],"categories_nodes":[],"categories_segments":[],"categories_sizes":[],"default_left":[0,0,0,0,0,0,0,0,0,0,0,0,0,0,0,0,0,0,0],"id":2,"left_children":[1,-1,3,-1,5,7,9,11,-1,-1,13,15,-1,17,-1,-1,-1,-1,-1],"loss_changes":[2.0112845E3,0E0,1.1555928E3,0E0,3.749583E2,4.0413208E2,7.9422295E1,6.2240814E1,0E0,0E0,1.6267212E1,8.061107E0,0E0,4.3213688E-2,0E0,0E0,0E0,0E0,0E0],"parents":[2147483647,0,0,2,2,4,4,5,5,6,6,7,7,10,10,11,11,13,13],"right_children":[2,-1,4,-1,6,8,10,12,-1,-1,14,16,-1,18,-1,-1,-1,-1,-1],"split_conditions":[1.0932589E1,9.218386E0,4.5013165E1,2.6212914E0,8.928647E1,-4.7324356E-3,3.466762E-2,-1.2969616E-1,-4.619131E0,1.8020672E0,1.0162477E-1,3.5929864E-3,-1.5428649E0,9.328861E-2,-1.1047668E0,-2.3756161E-1,6.462848E-1,-2.2899438E-2,3.4030724E-2],"split_indices":[10,0,2,0,11,1,1,13,0,0,0,0,0,0,0,0,0,0,0],"split_type":[0,0,0,0,0,0,0,0,0,0,0,0,0,0,0,0,0,0,0],"sum_hessian":[2.4E1,1E0,2.3E1,6E0,1.7E1,1.2E1,5E0,7E0,5E0,1E0,4E0,2E0,5E0,3E0,1E0,1E0,1E0,2E0,1E0],"tree_param":{"num_deleted":"0","num_feature":"39","num_nodes":"19","size_leaf_vector":"1"}},{"base_weights":[4.6081626E-1,7.835628E0,-1.6965463E0,1.947245E0,-4.786268E0,-6.9318337E0,6.6016895E-1,-2.6033585E0,-3.4643488E0,1.5317571E0,-1.25014E0,5.4934216E-1,-3.4984498E0,2.4113655E-3,-9.3905187E-1,-2.0192729E-1,-1.1571485E0,-1.8319512E-2,2.8926088E-2],"categories":[],"categories_nodes":[],"categories_segments":[],"categories_sizes":[],"default_left":[0,0,0,0,0,0,0,0,0,0,0,0,0,0,0,0,0,0,0],"id":3,"left_children":[1,-1,3,-1,5,7,9,11,-1,-1,13,-1,15,17,-1,-1,-1,-1,-1],"loss_changes":[1.4281488E3,0E0,6.381869E2,0E0,2.1491858E2,2.2967969E2,5.7338863E1,3.8160416E1,0E0,0E0,1.1781735E1,0E0,4.498192E0,2.97573E-2,0E0,0E0,0E0,0E0,0E0],"parents":[2147483647,0,0,2,2,4,4,5,5,6,6,7,7,10,10,12,12,13,13],"right_children":[2,-1,4,-1,6,8,10,12,-1,-1,14,-1,16,18,-1,-1,-1,-1,-1],"split_conditions":[1.0932589E1,7.835628E0,4.5013165E1,1.947245E0,8.928647E1,-4.7324356E-3,3.466762E-2,7.6350427E-1,-3.4643488E0,1.5317571E0,1.0162477E-1,5.4934216E-1,4.821388E-3,9.328861E-2,-9.3905187E-1,-2.0192729E-1,-1.1571485E0,-1.8319512E-2,2.8926088E-2],"split_indices":[10,0,2,0,11,1,1,4,0,0,0,0,3,0,0,0,0,0,0],"split_type":[0,0,0,0,0,0,0,0,0,0,0,0,0,0,0,0,0,0,0],"sum_hessian":[2.4E1,1E0,2.3E1,6E0,1.7E1,1.2E1,5E0,7E0,5E0,1E0,4E0,1E0,6E0,3E0,1E0,1E0,5E0,2E0,1E0],"tree_param":{"num_deleted":"0","num_feature":"39","num_nodes":"19","size_leaf_vector":"1"}},{"base_weights":[5.6705517E-1,6.660283E0,-1.2593961E0,1.4465249E0,-3.5543194E0,-5.1810594E0,5.626704E-1,-1.9235674E0,-2.5982618E0,1.3019935E0,-1.0607868E0,4.6694085E-1,-2.6430683E0,4.339695E-3,-7.98194E-1,-1.716382E-1,-8.678612E-1,-1.4655496E-2,2.458706E-2],"categories":[],"categories_nodes":[],"categories_segments":[],"categories_sizes":[],"default_left":[0,0,0,0,0,0,0,0,0,0,0,0,0,0,0,0,0,0,0],"id":4,"left_children":[1,-1,3,-1,5,7,9,11,-1,-1,13,-1,15,17,-1,-1,-1,-1,-1],"loss_changes":[1.0157908E3,0E0,3.5207632E2,0E0,1.23466125E2,1.3070123E2,4.1397575E1,2.4144972E1,0E0,0E0,8.531811E0,0E0,1.9661903E0,2.0517975E-2,0E0,0E0,0E0,0E0,0E0],"parents":[2147483647,0,0,2,2,4,4,5,5,6,6,7,7,10,10,12,12,13,13],"right_children":[2,-1,4,-1,6,8,10,12,-1,-1,14,-1,16,18,-1,-1,-1,-1,-1],"split_conditions":[1.0932589E1,6.660283E0,4.5013165E1,1.4465249E0,8.928647E1,-4.7324356E-3,3.466762E-2,7.6350427E-1,-2.5982618E0,1.3019935E0,1.0162477E-1,4.6694085E-1,4.821388E-3,9.328861E-2,-7.98194E-1,-1.716382E-1,-8.678612E-1,-1.4655496E-2,2.458706E-2],"split_indices":[10,0,2,0,11,1,1,4,0,0,0,0,3,0,0,0,0,0,0],"split_type":[0,0,0,0,0,0,0,0,0,0,0,0,0,0,0,0,0,0,0],"sum_hessian":[2.4E1,1E0,2.3E1,6E0,1.7E1,1.2E1,5E0,7E0,5E0,1E0,4E0,1E0,6E0,3E0,1E0,1E0,5E0,2E0,1E0],"tree_param":{"num_deleted":"0","num_feature":"39","num_nodes":"19","size_leaf_vector":"1"}},{"base_weights":[6.1492765E-1,5.6612406E0,-9.320172E-1,1.0745612E0,-2.6356392E0,-3.7156343E-3,-4.310162E0,-1.0582411E0,1.1066945E0,-1.77877E0,5.5208206E-3,3.9689973E-1,-1.6756144E0,-1.9671537E-2,5.107562E-2,-1.4589244E-1,-5.4486424E-1,2.0851137E-3,2.0898916E-2],"categories":[],"categories_nodes":[],"categories_segments":[],"categories_sizes":[],"default_left":[0,0,0,0,0,0,0,0,0,0,0,0,0,0,0,0,0,0,0],"id":5,"left_children":[1,-1,3,-1,5,7,9,11,-1,-1,13,-1,15,-1,17,-1,-1,-1,-1],"loss_changes":[7.2360864E2,0E0,1.9399951E2,0E0,7.931386E1,3.505618E1,7.6894104E1,1.2507633E1,0E0,0E0,1.6303556E-2,0E0,1.2005615E-1,0E0,1.97634E-3,0E0,0E0,0E0,0E0],"parents":[2147483647,0,0,2,2,4,4,5,5,6,6,7,7,10,10,12,12,14,14],"right_children":[2,-1,4,-1,6,8,10,12,-1,-1,14,-1,16,-1,18,-1,-1,-1,-1],"split_conditions":[1.0932589E1,5.6612406E0,4.5013165E1,1.0745612E0,2.49E0,4.1587733E-2,1.9895707E-1,7.6350427E-1,1.1066945E0,-1.77877E0,4.8001368E-2,3.9689973E-1,4.821388E-3,-1.9671537E-2,9.328861E-2,-1.4589244E-1,-5.4486424E-1,2.0851137E-3,2.0898916E-2],"split_indices":[10,0,2,0,7,0,3,4,0,0,0,0,3,0,0,0,0,0,0],"split_type":[0,0,0,0,0,0,0,0,0,0,0,0,0,0,0,0,0,0,0],"sum_hessian":[2.4E1,1E0,2.3E1,6E0,1.7E1,7E0,1E1,6E0,1E0,7E0,3E0,1E0,5E0,1E0,2E0,1E0,4E0,1E0,1E0],"tree_param":{"num_deleted":"0","num_feature":"39","num_nodes":"19","size_leaf_vector":"1"}},{"base_weights":[6.6137695E-1,4.8120546E0,-6.477475E-1,7.982455E-1,-1.8984259E0,-2.3789961E0,9.4069034E-1,-3.8549147E0,-6.38745E-1,-3.4656444E-1,-5.0122285E0,5.640135E-1,-1.3341265E0,-1.6397427E0,-4.1164914E-1,3.3736467E-1,6.9561007E-4,-4.8099452E-1,1.7724038E-3],"categories":[],"categories_nodes":[],"categories_segments":[],"categories_sizes":[],"default_left":[0,0,0,0,0,0,0,0,0,0,0,0,0,0,0,0,0,0,0],"id":6,"left_children":[1,-1,3,-1,5,7,-1,9,11,-1,13,15,17,-1,-1,-1,-1,-1,-1],"loss_changes":[5.137092E2,0E0,1.04362206E2,0E0,5.1005615E1,4.120166E1,0E0,2.2329407E1,8.279849E0,0E0,2.4063873E0,1.256792E0,2.1738033E0,0E0,0E0,0E0,0E0,0E0,0E0],"parents":[2147483647,0,0,2,2,4,4,5,5,7,7,8,8,10,10,11,11,12,12],"right_children":[2,-1,4,-1,6,8,-1,10,12,-1,14,16,18,-1,-1,-1,-1,-1,-1],"split_conditions":[1.0932589E1,4.8120546E0,4.5013165E1,7.982455E-1,1.0057648E1,9.9149E0,9.4069034E-1,-4.7324356E-3,1.0018685E0,-3.4656444E-1,3.581874E-1,4.4929394E-3,7.1155645E-2,-1.6397427E0,-4.1164914E-1,3.3736467E-1,6.9561007E-4,-4.8099452E-1,1.7724038E-3],"split_indices":[10,0,2,0,20,37,0,1,4,0,0,0,0,0,0,0,0,0,0],"split_type":[0,0,0,0,0,0,0,0,0,0,0,0,0,0,0,0,0,0,0],"sum_hessian":[2.4E1,1E0,2.3E1,6E0,1.7E1,1.6E1,1E0,8E0,8E0,3E0,5E0,3E0,5E0,4E0,1E0,1E0,2E0,4E0,1E0],"tree_param":{"num_deleted":"0","num_feature":"39","num_nodes":"19","size_leaf_vector":"1"}},{"base_weights":[6.234392E-1,4.0902467E0,-4.867638E-1,6.76337E-1,-2.5004137E0,1.7509981E0,-9.555127E-1,-3.7532218E0,3.9019585E-3,2.1350813E-1,7.138264E-1,-1.4333872E0,2.8676006E-1,-1.343747E0,-4.6027052E-1,-1.6825104E-2,4.2591732E-2,3.766325E-1,-1.6568509E-1,-5.161632E-1,-1.7181474E-1,1.5066147E-3,1.7659664E-2],"categories":[],"categories_nodes":[],"categories_segments":[],"categories_sizes":[],"default_left":[0,0,0,0,0,0,0,0,0,0,0,0,0,0,0,0,0,0,0,0,0,0,0],"id":7,"left_children":[1,-1,3,5,7,9,11,13,15,17,-1,19,-1,-1,-1,-1,21,-1,-1,-1,-1,-1,-1],"loss_changes":[3.6774997E2,0E0,5.790099E1,2.9732067E1,2.8251488E1,9.153919E0,7.7639227E0,2.7929611E0,1.1672024E-2,3.884976E0,0E0,4.9750233E-1,0E0,0E0,0E0,0E0,1.5385803E-3,0E0,0E0,0E0,0E0,0E0,0E0],"parents":[2147483647,0,0,2,2,3,3,4,4,5,5,6,6,7,7,8,8,9,9,11,11,16,16],"right_children":[2,-1,4,6,8,10,12,14,16,18,-1,20,-1,-1,-1,-1,22,-1,-1,-1,-1,-1,-1],"split_conditions":[1.0932589E1,4.0902467E0,3.466762E-2,1.01899976E3,1.9895707E-1,3.4044937E-5,4.958395E1,2.245E1,4.8001368E-2,-1.2748222E-1,7.138264E-1,4.872636E1,2.8676006E-1,-1.343747E0,-4.6027052E-1,-1.6825104E-2,9.328861E-2,3.766325E-1,-1.6568509E-1,-5.161632E-1,-1.7181474E-1,1.5066147E-3,1.7659664E-2],"split_indices":[10,0,1,38,3,21,2,6,0,1,0,2,0,0,0,0,0,0,0,0,0,0,0],"split_type":[0,0,0,0,0,0,0,0,0,0,0,0,0,0,0,0,0,0,0,0,0,0,0],"sum_hessian":[2.4E1,1E0,2.3E1,1.5E1,8E0,9E0,6E0,5E0,3E0,3E0,6E0,5E0,1E0,3E0,2E0,1E0,2E0,1E0,2E0,3E0,2E0,1E0,1E0],"tree_param":{"num_deleted":"0","num_feature":"39","num_nodes":"23","size_leaf_vector":"1"}},{"base_weights":[5.488921E-1,3.4767096E0,-3.9399E-1,5.0615793E-1,-1.9504763E0,1.3181759E0,-7.2617614E-1,-2.9279253E0,3.3164024E-3,5.8336544E-1,3.0289012E-1,-1.1180344E0,2.43746E-1,-1.0414041E0,-3.682165E-1,-1.4301396E-2,3.6202747E-2,2.839932E-1,-1.3254815E-1,-4.0002653E-1,-1.3745195E-1,1.2805939E-3,1.5010644E-2],"categories":[],"categories_nodes":[],"categories_segments":[],"categories_sizes":[],"default_left":[0,0,0,0,0,0,0,0,0,0,0,0,0,0,0,0,0,0,0,0,0,0,0],"id":8,"left_children":[1,-1,3,5,7,9,11,13,15,-1,17,19,-1,-1,-1,-1,21,-1,-1,-1,-1,-1,-1],"loss_changes":[2.648047E2,0E0,3.4612877E1,1.6968067E1,1.7197308E1,5.7705154E0,5.128952E0,1.2839622E0,8.433033E-3,0E0,2.815326E0,2.4181652E-1,0E0,0E0,0E0,0E0,1.1116238E-3,0E0,0E0,0E0,0E0,0E0,0E0],"parents":[2147483647,0,0,2,2,3,3,4,4,5,5,6,6,7,7,8,8,10,10,11,11,16,16],"right_children":[2,-1,4,6,8,10,12,14,16,-1,18,20,-1,-1,-1,-1,22,-1,-1,-1,-1,-1,-1],"split_conditions":[1.0932589E1,3.4767096E0,3.466762E-2,1.01899976E3,1.9895707E-1,-7.378619E-1,4.958395E1,2.245E1,4.8001368E-2,5.8336544E-1,-2.758198E-3,4.872636E1,2.43746E-1,-1.0414041E0,-3.682165E-1,-1.4301396E-2,9.328861E-2,2.839932E-1,-1.3254815E-1,-4.0002653E-1,-1.3745195E-1,1.2805939E-3,1.5010644E-2],"split_indices":[10,0,1,38,3,36,2,6,0,0,0,2,0,0,0,0,0,0,0,0,0,0,0],"split_type":[0,0,0,0,0,0,0,0,0,0,0,0,0,0,0,0,0,0,0,0,0,0,0],"sum_hessian":[2.4E1,1E0,2.3E1,1.5E1,8E0,9E0,6E0,5E0,3E0,5E0,4E0,5E0,1E0,3E0,2E0,1E0,2E0,2E0,2E0,3E0,2E0,1E0,1E0],"tree_param":{"num_deleted":"0","num_feature":"39","num_nodes":"23","size_leaf_vector":"1"}},{"base_weights":[4.8463082E-1,2.9552028E0,-3.1606585E-1,3.8187805E-1,-1.5217366E0,9.9620426E-1,-5.502848E-1,-2.2844841E0,2.8190613E-3,1.2045003E0,-1.31769E-1,-8.722035E-1,2.0718414E-1,-8.07088E-1,-2.9457322E-1,-1.2156201E-2,3.0772528E-2,-2.7288724E-2,1.3778034E0,-2.8758785E-1,-6.601353E-2,1.0886192E-3,1.2759019E-2,2.2359255E-1,5.471914E-1],"categories":[],"categories_nodes":[],"categories_segments":[],"categories_sizes":[],"default_left":[0,0,0,0,0,0,0,0,0,0,0,0,0,0,0,0,0,0,0,0,0,0,0,0,0],"id":9,"left_children":[1,-1,3,5,7,9,11,13,15,17,-1,19,-1,-1,-1,-1,21,-1,23,-1,-1,-1,-1,-1,-1],"loss_changes":[1.9059749E2,0E0,2.077689E1,9.7106285E0,1.0472103E1,3.5190058E0,3.3986347E0,5.299492E-1,6.0929055E-3,2.1458979E0,0E0,1.272273E-1,0E0,0E0,0E0,0E0,8.031023E-4,0E0,8.981695E-1,0E0,0E0,0E0,0E0,0E0,0E0],"parents":[2147483647,0,0,2,2,3,3,4,4,5,5,6,6,7,7,8,8,9,9,11,11,16,16,18,18],"right_children":[2,-1,4,6,8,10,12,14,16,18,-1,20,-1,-1,-1,-1,22,-1,24,-1,-1,-1,-1,-1,-1],"split_conditions":[1.0932589E1,2.9552028E0,3.466762E-2,1.01899976E3,1.9895707E-1,2.2790168E-1,4.958395E1,2.245E1,4.8001368E-2,4.547E1,-1.31769E-1,4.9256313E1,2.0718414E-1,-8.07088E-1,-2.9457322E-1,-1.2156201E-2,9.328861E-2,-2.7288724E-2,-1.7356358E-1,-2.8758785E-1,-6.601353E-2,1.0886192E-3,1.2759019E-2,2.2359255E-1,5.471914E-1],"split_indices":[10,0,1,38,3,3,2,6,0,5,0,2,0,0,0,0,0,0,1,0,0,0,0,0,0],"split_type":[0,0,0,0,0,0,0,0,0,0,0,0,0,0,0,0,0,0,0,0,0,0,0,0,0],"sum_hessian":[2.4E1,1E0,2.3E1,1.5E1,8E0,9E0,6E0,5E0,3E0,8E0,1E0,5E0,1E0,3E0,2E0,1E0,2E0,1E0,7E0,4E0,1E0,1E0,1E0,4E0,3E0],"tree_param":{"num_deleted":"0","num_feature":"39","num_nodes":"25","size_leaf_vector":"1"}},{"base_weights":[4.3206286E-1,2.5119221E0,-2.4769065E-1,2.9639605E-1,-1.1874347E0,6.086013E-1,-7.9236984E-1,-1.7827495E0,2.3961067E-3,4.660239E-1,2.9559794E-1,-2.797539E-1,-5.5791095E-2,-6.2549347E-1,-2.3565847E-1,-1.0332871E-2,2.6156744E-2,7.1432686E-1,-3.497421E-1,9.2525483E-4,1.084528E-2,5.051097E-2,2.3317742E-1,-2.3195459E-2,-1.1955557E-1],"categories":[],"categories_nodes":[],"categories_segments":[],"categories_sizes":[],"default_left":[0,0,0,0,0,0,0,0,0,0,0,0,0,0,0,0,0,0,0,0,0,0,0,0,0],"id":10,"left_children":[1,-1,3,5,7,9,11,13,15,-1,17,-1,-1,-1,-1,-1,19,21,23,-1,-1,-1,-1,-1,-1],"loss_changes":[1.3702217E2,0E0,1.2623205E1,5.920931E0,6.3791857E0,3.3852935E0,1.6651106E-1,1.705246E-1,4.402187E-3,0E0,3.222278E0,0E0,0E0,0E0,0E0,0E0,5.8027846E-4,1.0963726E-1,3.562659E-2,0E0,0E0,0E0,0E0,0E0,0E0],"parents":[2147483647,0,0,2,2,3,3,4,4,5,5,6,6,7,7,8,8,10,10,16,16,17,17,18,18],"right_children":[2,-1,4,6,8,10,12,14,16,-1,18,-1,-1,-1,-1,-1,20,22,24,-1,-1,-1,-1,-1,-1],"split_conditions":[1.0932589E1,2.5119221E0,3.466762E-2,1.0206337E3,1.9895707E-1,2.15E0,-7.333333E-3,2.245E1,4.8001368E-2,4.660239E-1,4.5013165E1,-2.797539E-1,-5.5791095E-2,-6.2549347E-1,-2.3565847E-1,-1.0332871E-2,9.328861E-2,-4.665367E-1,4.821388E-3,9.2525483E-4,1.084528E-2,5.051097E-2,2.3317742E-1,-2.3195459E-2,-1.1955557E-1],"split_indices":[10,0,1,38,3,7,0,6,0,0,2,0,0,0,0,0,0,1,3,0,0,0,0,0,0],"split_type":[0,0,0,0,0,0,0,0,0,0,0,0,0,0,0,0,0,0,0,0,0,0,0,0,0],"sum_hessian":[2.4E1,1E0,2.3E1,1.5E1,8E0,1.2E1,3E0,5E0,3E0,2E0,1E1,2E0,1E0,3E0,2E0,1E0,2E0,6E0,4E0,1E0,1E0,1E0,5E0,1E0,3E0],"tree_param":{"num_deleted":"0","num_feature":"39","num_nodes":"25","size_leaf_vector":"1"}},{"base_weights":[3.793889E-1,2.135134E0,-1.97896E-1,1.1009576E0,-4.3587306E-1,6.786223E-2,3.9514157E-1,4.642799E-2,-9.7104704E-1,5.1804185E-1,-3.64445E-1,-1.3883737E0,2.0365715E-3,4.2934317E-2,1.6932133E-1,-1.2990922E-1,-3.8596153E-2,-5.152082E-1,-2.1368809E-1,-8.783055E-3,2.2233328E-2,7.864952E-4,9.218503E-3],"categories":[],"categories_nodes":[],"categories_segments":[],"categories_sizes":[],"default_left":[0,0,0,0,0,0,0,0,0,0,0,0,0,0,0,0,0,0,0,0,0,0,0],"id":11,"left_children":[1,-1,3,5,7,-1,-1,9,11,13,15,17,19,-1,-1,-1,-1,-1,-1,-1,21,-1,-1],"loss_changes":[9.864811E1,0E0,7.8982143E0,4.5847082E-1,5.465498E0,0E0,0E0,2.5140781E0,4.0637655E0,2.3521304E-2,5.7492256E-2,3.3368397E-1,3.1806396E-3,0E0,0E0,0E0,0E0,0E0,0E0,0E0,4.1924533E-4,0E0,0E0],"parents":[2147483647,0,0,2,2,3,3,4,4,7,7,8,8,9,9,10,10,11,11,12,12,20,20],"right_children":[2,-1,4,6,8,-1,-1,10,12,14,16,18,20,-1,-1,-1,-1,-1,-1,-1,22,-1,-1],"split_conditions":[1.0932589E1,2.135134E0,2.27116E2,-4.5446098E-1,-4.7324356E-3,6.786223E-2,3.9514157E-1,7.6350427E-1,1.9895707E-1,-4.665367E-1,-2.2329737E-2,6.433824E-2,4.8001368E-2,4.2934317E-2,1.6932133E-1,-1.2990922E-1,-3.8596153E-2,-5.152082E-1,-2.1368809E-1,-8.783055E-3,9.328861E-2,7.864952E-4,9.218503E-3],"split_indices":[10,0,38,1,1,0,0,4,3,1,1,0,0,0,0,0,0,0,0,0,0,0,0],"split_type":[0,0,0,0,0,0,0,0,0,0,0,0,0,0,0,0,0,0,0,0,0,0,0],"sum_hessian":[2.4E1,1E0,2.3E1,3E0,2E1,1E0,2E0,1.1E1,9E0,5E0,6E0,6E0,3E0,1E0,4E0,4E0,2E0,3E0,3E0,1E0,2E0,1E0,1E0],"tree_param":{"num_deleted":"0","num_feature":"39","num_nodes":"23","size_leaf_vector":"1"}},{"base_weights":[3.42141E-1,1.8148637E0,-1.477319E-1,1.9529575E-1,-7.411442E-1,3.331349E-2,3.9375445E-1,-1.1128706E0,1.7313957E-3,4.135859E-1,-3.511231E-1,-4.4691125E-1,-1.6560832E-1,-7.4655535E-3,1.8898645E-2,3.6494173E-2,1.3137397E-1,-1.5929109E-1,-2.02679E-1,6.686211E-4,7.83577E-3,-1.3926602E-2,-6.73938E-2],"categories":[],"categories_nodes":[],"categories_segments":[],"categories_sizes":[],"default_left":[0,0,0,0,0,0,0,0,0,0,0,0,0,0,0,0,0,0,0,0,0,0,0],"id":12,"left_children":[1,-1,3,5,7,9,-1,11,13,15,17,-1,-1,-1,19,-1,-1,-1,21,-1,-1,-1,-1],"loss_changes":[7.0791275E1,0E0,5.0301056E0,2.8517902E0,2.4872446E0,2.338079E0,0E0,4.4570875E-1,2.2980296E-3,3.545761E-3,1.0596144E-1,0E0,0E0,0E0,3.028866E-4,0E0,0E0,0E0,1.0166466E-2,0E0,0E0,0E0,0E0],"parents":[2147483647,0,0,2,2,3,3,4,4,5,5,7,7,8,8,9,9,10,10,14,14,18,18],"right_children":[2,-1,4,6,8,10,-1,12,14,16,18,-1,-1,-1,20,-1,-1,-1,22,-1,-1,-1,-1],"split_conditions":[1.0932589E1,1.8148637E0,3.466762E-2,4.1587733E-2,1.9895707E-1,8.196502E-1,3.9375445E-1,6.433824E-2,4.8001368E-2,-4.665367E-1,-7.333333E-3,-4.4691125E-1,-1.6560832E-1,-7.4655535E-3,9.328861E-2,3.6494173E-2,1.3137397E-1,-1.5929109E-1,4.821388E-3,6.686211E-4,7.83577E-3,-1.3926602E-2,-6.73938E-2],"split_indices":[10,0,1,0,3,4,0,0,0,1,0,0,0,0,0,0,0,0,3,0,0,0,0],"split_type":[0,0,0,0,0,0,0,0,0,0,0,0,0,0,0,0,0,0,0,0,0,0,0],"sum_hessian":[2.4E1,1E0,2.3E1,1.5E1,8E0,1.4E1,1E0,5E0,3E0,7E0,7E0,2E0,3E0,1E0,2E0,1E0,6E0,2E0,5E0,1E0,1E0,1E0,4E0],"tree_param":{"num_deleted":"0","num_feature":"39","num_nodes":"23","size_leaf_vector":"1"}},{"base_weights":[3.0047426E-1,1.5426339E0,-1.15515366E-1,7.2229564E-1,-2.6959768E-1,6.579076E-2,3.346913E-1,-3.8497412E-1,-1.5475287E-1,7.832344E-2,-5.141578E-1,9.130207E-2,-1.0097957E-1,-1.7827034E-2,-1.7118922E-1,-4.3818285E-3,-5.511046E-2],"categories":[],"categories_nodes":[],"categories_segments":[],"categories_sizes":[],"default_left":[0,0,0,0,0,0,0,0,0,0,0,0,0,0,0,0,0],"id":13,"left_children":[1,-1,3,5,7,-1,-1,-1,9,11,13,-1,15,-1,-1,-1,-1],"loss_changes":[5.094578E1,0E0,3.292934E0,5.46731E-1,2.2460735E0,0E0,0E0,0E0,1.7156461E0,5.575635E-1,1.7153263E-1,0E0,5.4476686E-2,0E0,0E0,0E0,0E0],"parents":[2147483647,0,0,2,2,3,3,4,4,8,8,9,9,10,10,12,12],"right_children":[2,-1,4,6,8,-1,-1,-1,10,12,14,-1,16,-1,-1,-1,-1],"split_conditions":[1.0932589E1,1.5426339E0,2.27116E2,-6.401917E-2,2.2717091E2,6.579076E-2,3.346913E-1,-3.8497412E-1,1.0206337E3,7.6350427E-1,-5.9293766E-2,9.130207E-2,1.195E1,-1.7827034E-2,-1.7118922E-1,-4.3818285E-3,-5.511046E-2],"split_indices":[10,0,38,0,38,0,0,0,38,4,1,0,6,0,0,0,0],"split_type":[0,0,0,0,0,0,0,0,0,0,0,0,0,0,0,0,0],"sum_hessian":[2.4E1,1E0,2.3E1,3E0,2E1,2E0,1E0,1E0,1.9E1,1.2E1,7E0,5E0,7E0,1E0,6E0,4E0,3E0],"tree_param":{"num_deleted":"0","num_feature":"39","num_nodes":"17","size_leaf_vector":"1"}},{"base_weights":[2.663692E-1,1.3112389E0,-8.6765096E-2,-1.7299767E-1,2.844876E-1,-1.2499052E-2,-6.256606E-1,1.1754283E-1,-3.741165E-1,-3.272278E-1,-9.4346695E-2,2.3698214E-1,-3.575107E-2,-1.3271713E-1,-1.5153122E-2,1.7324746E-2,7.63011E-2,-1.8432656E-2,5.695343E-3],"categories":[],"categories_nodes":[],"categories_segments":[],"categories_sizes":[],"default_left":[0,0,0,0,0,0,0,0,0,0,0,0,0,0,0,0,0,0,0],"id":14,"left_children":[1,-1,3,5,-1,7,9,11,13,-1,-1,15,17,-1,-1,-1,-1,-1,-1],"loss_changes":[3.661458E1,0E0,2.3061876E0,1.6631707E0,0E0,8.9043224E-1,5.2532125E-1,2.648028E-1,8.812392E-2,0E0,0E0,1.0196716E-2,1.100997E-2,0E0,0E0,0E0,0E0,0E0,0E0],"parents":[2147483647,0,0,2,2,3,3,5,5,6,6,7,7,8,8,11,11,12,12],"right_children":[2,-1,4,6,-1,8,10,12,14,-1,-1,16,18,-1,-1,-1,-1,-1,-1],"split_conditions":[1.0932589E1,1.3112389E0,1.0057648E1,3.504944E-1,2.844876E-1,1.0206337E3,8.64649E-1,8.196502E-1,-7.333333E-3,-3.272278E-1,-9.4346695E-2,-4.665367E-1,4.8001368E-2,-1.3271713E-1,-1.5153122E-2,1.7324746E-2,7.63011E-2,-1.8432656E-2,5.695343E-3],"split_indices":[10,0,20,20,0,38,4,4,0,0,0,1,0,0,0,0,0,0,0],"split_type":[0,0,0,0,0,0,0,0,0,0,0,0,0,0,0,0,0,0,0],"sum_hessian":[2.4E1,1E0,2.3E1,2.2E1,1E0,1.7E1,5E0,1.3E1,4E0,1E0,4E0,7E0,6E0,3E0,1E0,1E0,6E0,4E0,2E0],"tree_param":{"num_deleted":"0","num_feature":"39","num_nodes":"19","size_leaf_vector":"1"}},{"base_weights":[2.3074509E-1,1.1145533E0,-6.923866E-2,-1.4234018E-1,2.4181445E-1,-1.247064E-2,-5.0822544E-1,8.805769E-2,-2.9145584E-1,-2.7814353E-1,-7.170376E-2,1.7759067E-1,-2.6845386E-2,-1.0285578E-1,-1.2880326E-2,2.4564436E-2,6.559198E-2,-1.6049195E-2,1.9553662E-3],"categories":[],"categories_nodes":[],"categories_segments":[],"categories_sizes":[],"default_left":[0,0,0,0,0,0,0,0,0,0,0,0,0,0,0,0,0,0,0],"id":15,"left_children":[1,-1,3,5,-1,7,9,11,13,-1,-1,15,17,-1,-1,-1,-1,-1,-1],"loss_changes":[2.6389061E1,0E0,1.6503682E0,1.0865611E0,0E0,5.304914E-1,4.5507205E-1,1.4879413E-1,4.9145788E-2,0E0,0E0,1.3527781E-2,6.5730577E-3,0E0,0E0,0E0,0E0,0E0,0E0],"parents":[2147483647,0,0,2,2,3,3,5,5,6,6,7,7,8,8,11,11,12,12],"right_children":[2,-1,4,6,-1,8,10,12,14,-1,-1,16,18,-1,-1,-1,-1,-1,-1],"split_conditions":[1.0932589E1,1.1145533E0,1.0057648E1,3.504944E-1,2.4181445E-1,1.0206337E3,8.64649E-1,8.196502E-1,-7.333333E-3,-2.7814353E-1,-7.170376E-2,-3.3480358E-1,1.7668664E-2,-1.0285578E-1,-1.2880326E-2,2.4564436E-2,6.559198E-2,-1.6049195E-2,1.9553662E-3],"split_indices":[10,0,20,20,0,38,4,4,0,0,0,1,0,0,0,0,0,0,0],"split_type":[0,0,0,0,0,0,0,0,0,0,0,0,0,0,0,0,0,0,0],"sum_hessian":[2.4E1,1E0,2.3E1,2.2E1,1E0,1.7E1,5E0,1.3E1,4E0,1E0,4E0,7E0,6E0,3E0,1E0,3E0,4E0,3E0,3E0],"tree_param":{"num_deleted":"0","num_feature":"39","num_nodes":"19","size_leaf_vector":"1"}},{"base_weights":[2.0019567E-1,9.473706E-1,-5.462132E-2,-1.16573624E-1,2.0554227E-1,-1.0933506E-2,-4.1406503E-1,6.7073345E-2,-2.2716598E-1,-2.3642178E-1,-5.4494705E-2,1.3558304E-1,-2.0805359E-2,-7.9713255E-2,-1.0947991E-2,1.903744E-2,4.9849913E-2,-1.1237413E-2,4.165268E-3],"categories":[],"categories_nodes":[],"categories_segments":[],"categories_sizes":[],"default_left":[0,0,0,0,0,0,0,0,0,0,0,0,0,0,0,0,0,0,0],"id":16,"left_children":[1,-1,3,5,-1,7,9,11,13,-1,-1,15,17,-1,-1,-1,-1,-1,-1],"loss_changes":[1.9014334E1,0E0,1.1797886E0,7.1829444E-1,0E0,3.1885383E-1,3.783995E-1,8.710847E-2,2.7050585E-2,0E0,0E0,7.101953E-3,4.5637977E-3,0E0,0E0,0E0,0E0,0E0,0E0],"parents":[2147483647,0,0,2,2,3,3,5,5,6,6,7,7,8,8,11,11,12,12],"right_children":[2,-1,4,6,-1,8,10,12,14,-1,-1,16,18,-1,-1,-1,-1,-1,-1],"split_conditions":[1.0932589E1,9.473706E-1,1.0057648E1,3.504944E-1,2.0554227E-1,1.0206337E3,8.64649E-1,8.196502E-1,-7.333333E-3,-2.3642178E-1,-5.4494705E-2,-3.3480358E-1,4.8001368E-2,-7.9713255E-2,-1.0947991E-2,1.903744E-2,4.9849913E-2,-1.1237413E-2,4.165268E-3],"split_indices":[10,0,20,20,0,38,4,4,0,0,0,1,0,0,0,0,0,0,0],"split_type":[0,0,0,0,0,0,0,0,0,0,0,0,0,0,0,0,0,0,0],"sum_hessian":[2.4E1,1E0,2.3E1,2.2E1,1E0,1.7E1,5E0,1.3E1,4E0,1E0,4E0,7E0,6E0,3E0,1E0,3E0,4E0,4E0,2E0],"tree_param":{"num_deleted":"0","num_feature":"39","num_nodes":"19","size_leaf_vector":"1"}},{"base_weights":[1.734628E-1,8.052647E-1,-4.299422E-2,-9.550439E-2,1.7471094E-1,-9.2559885E-3,-3.3833218E-1,5.1366877E-2,-1.7714882E-1,-2.0095827E-1,-4.1416287E-2,1.0351909E-1,-1.5573774E-2,-7.312623E-2,-1.5448189E-2,1.4754012E-2,3.7885953E-2,-9.909726E-3,1.7334939E-3],"categories":[],"categories_nodes":[],"categories_segments":[],"categories_sizes":[],"default_left":[0,0,0,0,0,0,0,0,0,0,0,0,0,0,0,0,0,0,0],"id":17,"left_children":[1,-1,3,5,-1,7,9,11,13,-1,-1,15,17,-1,-1,-1,-1,-1,-1],"loss_changes":[1.3702157E1,0E0,8.437301E-1,4.785691E-1,0E0,1.9230619E-1,3.0591E-1,5.048762E-2,2.9294506E-2,0E0,0E0,3.68651E-3,2.8003205E-3,0E0,0E0,0E0,0E0,0E0,0E0],"parents":[2147483647,0,0,2,2,3,3,5,5,6,6,7,7,8,8,11,11,12,12],"right_children":[2,-1,4,6,-1,8,10,12,14,-1,-1,16,18,-1,-1,-1,-1,-1,-1],"split_conditions":[1.0932589E1,8.052647E-1,1.0057648E1,3.504944E-1,1.7471094E-1,1.0206337E3,8.64649E-1,8.196502E-1,-2.3913998E-2,-2.0095827E-1,-4.1416287E-2,-3.3480358E-1,1.7668664E-2,-7.312623E-2,-1.5448189E-2,1.4754012E-2,3.7885953E-2,-9.909726E-3,1.7334939E-3],"split_indices":[10,0,20,20,0,38,4,4,0,0,0,1,0,0,0,0,0,0,0],"split_type":[0,0,0,0,0,0,0,0,0,0,0,0,0,0,0,0,0,0,0],"sum_hessian":[2.4E1,1E0,2.3E1,2.2E1,1E0,1.7E1,5E0,1.3E1,4E0,1E0,4E0,7E0,6E0,2E0,2E0,3E0,4E0,3E0,3E0],"tree_param":{"num_deleted":"0","num_feature":"39","num_nodes":"19","size_leaf_vector":"1"}},{"base_weights":[1.4916384E-1,6.844752E-1,-3.475298E-2,-7.930871E-2,1.4850433E-1,-1.3654403E-2,-3.1293336E-1,7.90434E-2,-7.431507E-2,-1.5879594E-1,7.7641807E-3,1.1434361E-2,2.8793344E-2,-3.6756832E-2,-9.589141E-2,-1.7912865E-3,5.285168E-3,-2.428627E-3,-1.4719105E-2,-6.988335E-3,-3.1232549E-2],"categories":[],"categories_nodes":[],"categories_segments":[],"categories_sizes":[],"default_left":[0,0,0,0,0,0,0,0,0,0,0,0,0,0,0,0,0,0,0,0,0],"id":18,"left_children":[1,-1,3,5,-1,7,9,11,13,-1,15,-1,-1,17,19,-1,-1,-1,-1,-1,-1],"loss_changes":[9.883989E0,0E0,6.0575914E-1,3.485118E-1,0E0,1.1271322E-1,3.5108268E-1,1.8866993E-3,6.1997697E-3,0E0,5.1119045E-4,0E0,0E0,1.7191982E-3,1.7505959E-3,0E0,0E0,0E0,0E0,0E0,0E0],"parents":[2147483647,0,0,2,2,3,3,5,5,6,6,7,7,8,8,10,10,13,13,14,14],"right_children":[2,-1,4,6,-1,8,10,12,14,-1,16,-1,-1,18,20,-1,-1,-1,-1,-1,-1],"split_conditions":[1.0932589E1,6.844752E-1,1.0057648E1,8.16E0,1.4850433E-1,8.196502E-1,6.858712E1,-3.3480358E-1,1.0206265E3,-1.5879594E-1,4.8001368E-2,1.1434361E-2,2.8793344E-2,1.195E1,-5.9293766E-2,-1.7912865E-3,5.285168E-3,-2.428627E-3,-1.4719105E-2,-6.988335E-3,-3.1232549E-2],"split_indices":[10,0,20,7,0,4,2,1,38,0,0,0,0,6,1,0,0,0,0,0,0],"split_type":[0,0,0,0,0,0,0,0,0,0,0,0,0,0,0,0,0,0,0,0,0],"sum_hessian":[2.4E1,1E0,2.3E1,2.2E1,1E0,1.8E1,4E0,7E0,1.1E1,2E0,2E0,3E0,4E0,5E0,6E0,1E0,1E0,2E0,3E0,1E0,5E0],"tree_param":{"num_deleted":"0","num_feature":"39","num_nodes":"21","size_leaf_vector":"1"}},{"base_weights":[1.3091595E-1,5.818039E-1,-2.5241408E-2,-6.292689E-2,1.2622869E-1,-2.842127E-3,-2.3269336E-1,3.0656178E-2,-9.6068956E-2,-1.4699537E-1,-2.4971468E-2,5.697999E-2,-1.3938904E-2,-3.949814E-2,-8.536339E-3,1.947803E-2,5.8332565E-3,-4.840851E-3,-4.4288638E-4],"categories":[],"categories_nodes":[],"categories_segments":[],"categories_sizes":[],"default_left":[0,0,0,0,0,0,0,0,0,0,0,0,0,0,0,0,0,0,0],"id":19,"left_children":[1,-1,3,5,-1,7,9,11,13,-1,-1,15,17,-1,-1,-1,-1,-1,-1],"loss_changes":[7.108945E0,0E0,4.29866E-1,2.3394734E-1,0E0,5.9158042E-2,1.8993548E-1,1.7229013E-2,8.286178E-3,0E0,0E0,1.4221519E-3,1.4048035E-4,0E0,0E0,0E0,0E0,0E0,0E0],"parents":[2147483647,0,0,2,2,3,3,5,5,6,6,7,7,8,8,11,11,12,12],"right_children":[2,-1,4,6,-1,8,10,12,14,-1,-1,16,18,-1,-1,-1,-1,-1,-1],"split_conditions":[1.0932589E1,5.818039E-1,1.0057648E1,3.504944E-1,1.2622869E-1,1.0206337E3,8.64649E-1,8.7588155E-1,-2.3913998E-2,-1.4699537E-1,-2.4971468E-2,1.1298968E-1,4.8001368E-2,-3.949814E-2,-8.536339E-3,1.947803E-2,5.8332565E-3,-4.840851E-3,-4.4288638E-4],"split_indices":[10,0,20,20,0,38,4,4,0,0,0,3,0,0,0,0,0,0,0],"split_type":[0,0,0,0,0,0,0,0,0,0,0,0,0,0,0,0,0,0,0],"sum_hessian":[2.4E1,1E0,2.3E1,2.2E1,1E0,1.7E1,5E0,1.3E1,4E0,1E0,4E0,8E0,5E0,2E0,2E0,6E0,2E0,4E0,1E0],"tree_param":{"num_deleted":"0","num_feature":"39","num_nodes":"19","size_leaf_vector":"1"}},{"base_weights":[1.11963466E-1,4.9453357E-1,-2.0741818E-2,-5.2743454E-2,1.0729437E-1,-7.7909646E-3,-2.1301422E-1,4.5021184E-2,-4.2349815E-2,-1.0838776E-1,6.2688193E-3,5.502428E-3,1.7208226E-2,-2.6061587E-2,-2.0523263E-2,-7.965088E-4,3.6174776E-3,-1.4146805E-3,-9.446035E-3],"categories":[],"categories_nodes":[],"categories_segments":[],"categories_sizes":[],"default_left":[0,0,0,0,0,0,0,0,0,0,0,0,0,0,0,0,0,0,0],"id":20,"left_children":[1,-1,3,5,-1,7,9,11,13,-1,15,-1,-1,17,-1,-1,-1,-1,-1],"loss_changes":[5.131673E0,0E0,3.0948174E-1,1.6404551E-1,0E0,3.6584057E-2,1.648395E-1,1.581654E-3,3.3109654E-3,0E0,1.8700724E-4,0E0,0E0,8.9377584E-4,0E0,0E0,0E0,0E0,0E0],"parents":[2147483647,0,0,2,2,3,3,5,5,6,6,7,7,8,8,10,10,13,13],"right_children":[2,-1,4,6,-1,8,10,12,14,-1,16,-1,-1,18,-1,-1,-1,-1,-1],"split_conditions":[1.0932589E1,4.9453357E-1,1.0057648E1,8.16E0,1.0729437E-1,8.196502E-1,6.858712E1,-3.3480358E-1,1.5787476E0,-1.0838776E-1,4.8001368E-2,5.502428E-3,1.7208226E-2,1.0186451E3,-2.0523263E-2,-7.965088E-4,3.6174776E-3,-1.4146805E-3,-9.446035E-3],"split_indices":[10,0,20,7,0,4,2,1,4,0,0,0,0,38,0,0,0,0,0],"split_type":[0,0,0,0,0,0,0,0,0,0,0,0,0,0,0,0,0,0,0],"sum_hessian":[2.4E1,1E0,2.3E1,2.2E1,1E0,1.8E1,4E0,7E0,1.1E1,2E0,2E0,3E0,4E0,8E0,3E0,1E0,1E0,2E0,6E0],"tree_param":{"num_deleted":"0","num_feature":"39","num_nodes":"19","size_leaf_vector":"1"}},{"base_weights":[9.7877696E-2,4.2035353E-1,-1.4808931E-2,-4.1887634E-2,9.120019E-2,3.5908652E-4,-1.6164653E-1,1.8144166E-2,-4.9510956E-2,-1.08687975E-1,-1.4717561E-2,3.281419E-2,-6.884893E-3,-1.9815445E-2,-4.940033E-3,1.532264E-2,6.0900557E-3,-2.6776316E-3,-5.607605E-4],"categories":[],"categories_nodes":[],"categories_segments":[],"categories_sizes":[],"default_left":[0,0,0,0,0,0,0,0,0,0,0,0,0,0,0,0,0,0,0],"id":21,"left_children":[1,-1,3,5,-1,7,9,11,13,-1,-1,15,17,-1,-1,-1,-1,-1,-1],"loss_changes":[3.692364E0,0E0,2.1992464E-1,1.1642471E-1,0E0,1.6863303E-2,1.1776891E-1,5.3663976E-3,1.645186E-3,0E0,0E0,1.0198541E-3,4.472502E-5,0E0,0E0,0E0,0E0,0E0,0E0],"parents":[2147483647,0,0,2,2,3,3,5,5,6,6,7,7,8,8,11,11,12,12],"right_children":[2,-1,4,6,-1,8,10,12,14,-1,-1,16,18,-1,-1,-1,-1,-1,-1],"split_conditions":[1.0932589E1,4.2035353E-1,1.0057648E1,3.504944E-1,9.120019E-2,1.0206337E3,8.64649E-1,8.7588155E-1,-2.3913998E-2,-1.08687975E-1,-1.4717561E-2,-9.889798E-1,1.7668664E-2,-1.9815445E-2,-4.940033E-3,1.532264E-2,6.0900557E-3,-2.6776316E-3,-5.607605E-4],"split_indices":[10,0,20,20,0,38,4,4,0,0,0,36,0,0,0,0,0,0,0],"split_type":[0,0,0,0,0,0,0,0,0,0,0,0,0,0,0,0,0,0,0],"sum_hessian":[2.4E1,1E0,2.3E1,2.2E1,1E0,1.7E1,5E0,1.3E1,4E0,1E0,4E0,8E0,5E0,2E0,2E0,2E0,6E0,3E0,2E0],"tree_param":{"num_deleted":"0","num_feature":"39","num_nodes":"19","size_leaf_vector":"1"}},{"base_weights":[8.377705E-2,3.5730058E-1,-1.1982397E-2,-3.4972973E-2,7.752013E-2,-1.6714144E-1,-6.7906333E-3,-9.2384726E-2,-1.7555872E-2,1.0053777E-2,-3.9509363E-2,2.6106834E-3,-1.05108265E-2,2.6342165E-2,-9.997777E-3,-5.6307223E-3,-1.8272018E-2,1.22581115E-2,4.4078105E-3,-5.1849363E-3,-1.0881043E-3],"categories":[],"categories_nodes":[],"categories_segments":[],"categories_sizes":[],"default_left":[0,0,0,0,0,0,0,0,0,0,0,0,0,0,0,0,0,0,0,0,0],"id":22,"left_children":[1,-1,3,5,-1,7,9,-1,11,13,15,-1,-1,17,19,-1,-1,-1,-1,-1,-1],"loss_changes":[2.664952E0,0E0,1.582272E-1,8.4535785E-2,0E0,7.884485E-2,1.1419773E-2,0E0,1.6818882E-3,4.835868E-3,1.96335E-3,0E0,0E0,7.5268466E-4,2.622063E-4,0E0,0E0,0E0,0E0,0E0,0E0],"parents":[2147483647,0,0,2,2,3,3,5,5,6,6,8,8,9,9,10,10,13,13,14,14],"right_children":[2,-1,4,6,-1,8,10,-1,12,14,16,-1,-1,18,20,-1,-1,-1,-1,-1,-1],"split_conditions":[1.0932589E1,3.5730058E-1,1.0057648E1,1.9422E0,7.752013E-2,3.32E0,1.0206337E3,-9.2384726E-2,-2.4876028E-2,8.7588155E-1,5.2131988E-2,2.6106834E-3,-1.05108265E-2,2.3662691E-1,-2.2329737E-2,-5.6307223E-3,-1.8272018E-2,1.22581115E-2,4.4078105E-3,-5.1849363E-3,-1.0881043E-3],"split_indices":[10,0,20,37,0,6,38,0,0,4,1,0,0,4,1,0,0,0,0,0,0],"split_type":[0,0,0,0,0,0,0,0,0,0,0,0,0,0,0,0,0,0,0,0,0],"sum_hessian":[2.4E1,1E0,2.3E1,2.2E1,1E0,3E0,1.9E1,1E0,2E0,1.3E1,6E0,1E0,1E0,7E0,6E0,4E0,2E0,2E0,5E0,2E0,4E0],"tree_param":{"num_deleted":"0","num_feature":"39","num_nodes":"21","size_leaf_vector":"1"}},{"base_weights":[7.1484804E-2,3.037056E-1,-9.899331E-3,-2.942891E-2,6.589215E-2,-1.4207017E-1,-5.429212E-3,-7.852707E-2,-1.4922301E-2,2.3960777E-2,-1.682326E-2,2.219081E-3,-8.934117E-3,1.2368084E-3,9.854743E-3,-1.3707353E-2,-8.867337E-3,-8.2647806E-5,-5.6535723E-3],"categories":[],"categories_nodes":[],"categories_segments":[],"categories_sizes":[],"default_left":[0,0,0,0,0,0,0,0,0,0,0,0,0,0,0,0,0,0,0],"id":23,"left_children":[1,-1,3,5,-1,7,9,-1,11,13,15,-1,-1,-1,-1,-1,17,-1,-1],"loss_changes":[1.9243132E0,0E0,1.14051364E-1,6.1405867E-2,0E0,5.6965627E-2,7.1005174E-3,0E0,1.2151471E-3,9.225423E-4,3.039904E-3,0E0,0E0,0E0,0E0,0E0,1.1092799E-3,0E0,0E0],"parents":[2147483647,0,0,2,2,3,3,5,5,6,6,8,8,9,9,10,10,16,16],"right_children":[2,-1,4,6,-1,8,10,-1,12,14,16,-1,-1,-1,-1,-1,18,-1,-1],"split_conditions":[1.0932589E1,3.037056E-1,1.0057648E1,1.9422E0,6.589215E-2,3.32E0,4.5013165E1,-7.852707E-2,-2.4876028E-2,-4.5446098E-1,-9.381653E-4,2.219081E-3,-8.934117E-3,1.2368084E-3,9.854743E-3,-1.3707353E-2,1.0206337E3,-8.2647806E-5,-5.6535723E-3],"split_indices":[10,0,20,37,0,6,2,0,0,1,21,0,0,0,0,0,38,0,0],"split_type":[0,0,0,0,0,0,0,0,0,0,0,0,0,0,0,0,0,0,0],"sum_hessian":[2.4E1,1E0,2.3E1,2.2E1,1E0,3E0,1.9E1,1E0,2E0,5E0,1.4E1,1E0,1E0,2E0,3E0,2E0,1.2E1,7E0,5E0],"tree_param":{"num_deleted":"0","num_feature":"39","num_nodes":"19","size_leaf_vector":"1"}},{"base_weights":[6.1079185E-2,2.5814953E-1,-8.08405E-3,-2.4669826E-2,5.6008317E-2,-1.2076005E-1,-4.2182887E-3,-6.674824E-2,-1.2683988E-2,6.511421E-3,-2.5075095E-2,1.8862189E-3,-7.5940136E-3,1.653863E-2,-5.8784485E-3,-1.8127442E-3,-1.1351681E-2,7.83554E-3,2.6976818E-3,-2.3400881E-3,-2.1476747E-4],"categories":[],"categories_nodes":[],"categories_segments":[],"categories_sizes":[],"default_left":[0,0,0,0,0,0,0,0,0,0,0,0,0,0,0,0,0,0,0,0,0],"id":24,"left_children":[1,-1,3,5,-1,7,9,-1,11,13,15,-1,-1,17,19,-1,-1,-1,-1,-1,-1],"loss_changes":[1.3892169E0,0E0,8.213895E-2,4.4690035E-2,0E0,4.1157957E-2,4.639024E-3,0E0,8.7794627E-4,1.8365228E-3,1.4718636E-3,0E0,0E0,3.4347852E-4,6.3867265E-5,0E0,0E0,0E0,0E0,0E0,0E0],"parents":[2147483647,0,0,2,2,3,3,5,5,6,6,8,8,9,9,10,10,13,13,14,14],"right_children":[2,-1,4,6,-1,8,10,-1,12,14,16,-1,-1,18,20,-1,-1,-1,-1,-1,-1],"split_conditions":[1.0932589E1,2.5814953E-1,1.0057648E1,1.9422E0,5.6008317E-2,3.32E0,1.0206337E3,-6.674824E-2,-2.4876028E-2,8.7588155E-1,3.44E0,1.8862189E-3,-7.5940136E-3,2.3662691E-1,4.1587733E-2,-1.8127442E-3,-1.1351681E-2,7.83554E-3,2.6976818E-3,-2.3400881E-3,-2.1476747E-4],"split_indices":[10,0,20,37,0,6,38,0,0,4,7,0,0,4,0,0,0,0,0,0,0],"split_type":[0,0,0,0,0,0,0,0,0,0,0,0,0,0,0,0,0,0,0,0,0],"sum_hessian":[2.4E1,1E0,2.3E1,2.2E1,1E0,3E0,1.9E1,1E0,2E0,1.3E1,6E0,1E0,1E0,7E0,6E0,3E0,3E0,2E0,5E0,4E0,2E0],"tree_param":{"num_deleted":"0","num_feature":"39","num_nodes":"21","size_leaf_vector":"1"}},{"base_weights":[5.2216105E-2,2.194273E-1,-6.560252E-3,-2.064463E-2,4.7607068E-2,-1.02645926E-1,-3.2121385E-3,-5.6735802E-2,-1.0781676E-2,7.960957E-4,-1.1905289E-2,1.603286E-3,-6.45504E-3,1.2893745E-2,-7.335345E-3,4.499108E-4,4.932543E-3,-1.4004135E-3,-4.134369E-3],"categories":[],"categories_nodes":[],"categories_segments":[],"categories_sizes":[],"default_left":[0,0,0,0,0,0,0,0,0,0,0,0,0,0,0,0,0,0,0],"id":25,"left_children":[1,-1,3,5,-1,7,9,-1,11,13,-1,-1,-1,15,17,-1,-1,-1,-1],"loss_changes":[1.0028329E0,0E0,5.91349E-2,3.2548483E-2,0E0,2.9736236E-2,2.9553715E-3,0E0,6.343345E-4,1.963635E-3,0E0,0E0,0E0,2.9875652E-4,1.4198589E-4,0E0,0E0,0E0,0E0],"parents":[2147483647,0,0,2,2,3,3,5,5,6,6,8,8,9,9,13,13,14,14],"right_children":[2,-1,4,6,-1,8,10,-1,12,14,-1,-1,-1,16,18,-1,-1,-1,-1],"split_conditions":[1.0932589E1,2.194273E-1,1.0057648E1,1.9422E0,4.7607068E-2,3.32E0,3.4941703E-1,-5.6735802E-2,-2.4876028E-2,8.7588155E-1,-1.1905289E-2,1.603286E-3,-6.45504E-3,-4.5446098E-1,1.5787476E0,4.499108E-4,4.932543E-3,-1.4004135E-3,-4.134369E-3],"split_indices":[10,0,20,37,0,6,1,0,0,4,0,0,0,1,4,0,0,0,0],"split_type":[0,0,0,0,0,0,0,0,0,0,0,0,0,0,0,0,0,0,0],"sum_hessian":[2.4E1,1E0,2.3E1,2.2E1,1E0,3E0,1.9E1,1E0,2E0,1.8E1,1E0,1E0,1E0,7E0,1.1E1,2E0,5E0,9E0,2E0],"tree_param":{"num_deleted":"0","num_feature":"39","num_nodes":"19","size_leaf_vector":"1"}},{"base_weights":[4.4286698E-2,1.8651295E-1,-5.677175E-3,-1.765329E-2,4.0466025E-2,-8.724913E-2,-2.8514573E-3,-4.8225407E-2,-9.164616E-3,5.4914615E-4,-1.0119438E-2,1.3627924E-3,-5.48687E-3,1.2044208E-2,-4.4165337E-3,3.599286E-4,5.1499475E-3,-7.189513E-4,-3.3073428E-3],"categories":[],"categories_nodes":[],"categories_segments":[],"categories_sizes":[],"default_left":[0,0,0,0,0,0,0,0,0,0,0,0,0,0,0,0,0,0,0],"id":26,"left_children":[1,-1,3,5,-1,7,9,-1,11,13,-1,-1,-1,15,17,-1,-1,-1,-1],"loss_changes":[7.2478694E-1,0E0,4.278303E-2,2.3444572E-2,0E0,2.1484314E-2,2.1187365E-3,0E0,4.5831702E-4,1.1377289E-3,0E0,0E0,0E0,3.1269423E-4,1.6045509E-4,0E0,0E0,0E0,0E0],"parents":[2147483647,0,0,2,2,3,3,5,5,6,6,8,8,9,9,13,13,14,14],"right_children":[2,-1,4,6,-1,8,10,-1,12,14,-1,-1,-1,16,18,-1,-1,-1,-1],"split_conditions":[1.0932589E1,1.8651295E-1,1.0057648E1,1.9422E0,4.0466025E-2,3.32E0,3.4941703E-1,-4.8225407E-2,-2.4876028E-2,4.5013165E1,-1.0119438E-2,1.3627924E-3,-5.48687E-3,-4.5446098E-1,1.5787476E0,3.599286E-4,5.1499475E-3,-7.189513E-4,-3.3073428E-3],"split_indices":[10,0,20,37,0,6,1,0,0,2,0,0,0,1,4,0,0,0,0],"split_type":[0,0,0,0,0,0,0,0,0,0,0,0,0,0,0,0,0,0,0],"sum_hessian":[2.4E1,1E0,2.3E1,2.2E1,1E0,3E0,1.9E1,1E0,2E0,1.8E1,1E0,1E0,1E0,5E0,1.3E1,2E0,3E0,1.1E1,2E0],"tree_param":{"num_deleted":"0","num_feature":"39","num_nodes":"19","size_leaf_vector":"1"}},{"base_weights":[3.764029E-2,1.5853615E-1,-4.829186E-3,-1.5009048E-2,3.439615E-2,-7.416162E-2,-2.4280818E-3,-4.0991593E-2,-7.789731E-3,4.6215215E-4,-8.60138E-3,1.1583746E-3,-4.663754E-3,7.857016E-3,-4.50627E-3,4.251934E-3,1.0168396E-3,-1.8377305E-3,7.925034E-5],"categories":[],"categories_nodes":[],"categories_segments":[],"categories_sizes":[],"default_left":[0,0,0,0,0,0,0,0,0,0,0,0,0,0,0,0,0,0,0],"id":27,"left_children":[1,-1,3,5,-1,7,9,-1,11,13,-1,-1,-1,15,17,-1,-1,-1,-1],"loss_changes":[5.236668E-1,0E0,3.0912539E-2,1.693645E-2,0E0,1.5522491E-2,1.5302293E-3,0E0,3.3112534E-4,7.334812E-4,0E0,0E0,0E0,1.777006E-4,9.4326795E-5,0E0,0E0,0E0,0E0],"parents":[2147483647,0,0,2,2,3,3,5,5,6,6,8,8,9,9,13,13,14,14],"right_children":[2,-1,4,6,-1,8,10,-1,12,14,-1,-1,-1,16,18,-1,-1,-1,-1],"split_conditions":[1.0932589E1,1.5853615E-1,1.0057648E1,1.9422E0,3.439615E-2,3.32E0,3.4941703E-1,-4.0991593E-2,-2.4876028E-2,8.7588155E-1,-8.60138E-3,1.1583746E-3,-4.663754E-3,2.3662691E-1,1.4661342E1,4.251934E-3,1.0168396E-3,-1.8377305E-3,7.925034E-5],"split_indices":[10,0,20,37,0,6,1,0,0,4,0,0,0,4,36,0,0,0,0],"split_type":[0,0,0,0,0,0,0,0,0,0,0,0,0,0,0,0,0,0,0],"sum_hessian":[2.4E1,1E0,2.3E1,2.2E1,1E0,3E0,1.9E1,1E0,2E0,1.8E1,1E0,1E0,1E0,7E0,1.1E1,2E0,5E0,8E0,3E0],"tree_param":{"num_deleted":"0","num_feature":"39","num_nodes":"19","size_leaf_vector":"1"}},{"base_weights":[3.20823E-2,1.3475591E-1,-4.0131304E-3,-1.2662027E-2,2.9236723E-2,-6.303716E-2,-1.9538987E-3,-3.4842685E-2,-6.621366E-3,5.085481E-4,-7.311058E-3,9.846189E-4,-3.9642337E-3,6.1585633E-3,-3.3005078E-3,3.4015472E-3,7.6265185E-4,-5.047417E-4,-2.2781373E-3],"categories":[],"categories_nodes":[],"categories_segments":[],"categories_sizes":[],"default_left":[0,0,0,0,0,0,0,0,0,0,0,0,0,0,0,0,0,0,0],"id":28,"left_children":[1,-1,3,5,-1,7,9,-1,11,13,-1,-1,-1,15,17,-1,-1,-1,-1],"loss_changes":[3.7819138E-1,0E0,2.2296237E-2,1.2283569E-2,0E0,1.1214847E-2,1.1163721E-3,0E0,2.392419E-4,4.2922967E-4,0E0,0E0,0E0,1.2103669E-4,7.0583876E-5,0E0,0E0,0E0,0E0],"parents":[2147483647,0,0,2,2,3,3,5,5,6,6,8,8,9,9,13,13,14,14],"right_children":[2,-1,4,6,-1,8,10,-1,12,14,-1,-1,-1,16,18,-1,-1,-1,-1],"split_conditions":[1.0932589E1,1.3475591E-1,1.0057648E1,1.9422E0,2.9236723E-2,3.32E0,3.4941703E-1,-3.4842685E-2,-2.4876028E-2,8.7588155E-1,-7.311058E-3,9.846189E-4,-3.9642337E-3,2.3662691E-1,1.5787476E0,3.4015472E-3,7.6265185E-4,-5.047417E-4,-2.2781373E-3],"split_indices":[10,0,20,37,0,6,1,0,0,4,0,0,0,4,4,0,0,0,0],"split_type":[0,0,0,0,0,0,0,0,0,0,0,0,0,0,0,0,0,0,0],"sum_hessian":[2.4E1,1E0,2.3E1,2.2E1,1E0,3E0,1.9E1,1E0,2E0,1.8E1,1E0,1E0,1E0,7E0,1.1E1,2E0,5E0,9E0,2E0],"tree_param":{"num_deleted":"0","num_feature":"39","num_nodes":"19","size_leaf_vector":"1"}},{"base_weights":[2.7267234E-2,1.14542775E-1,-3.414068E-3,-1.0765753E-2,2.4851205E-2,-5.3581588E-2,-1.6642982E-3,-2.9616166E-2,-5.628417E-3,4.2850772E-4,-6.2141423E-3,8.3692523E-4,-3.369713E-3,2.7212377E-3,-1.1218076E-3,2.527926E-4,-1.4591217E-3],"categories":[],"categories_nodes":[],"categories_segments":[],"categories_sizes":[],"default_left":[0,0,0,0,0,0,0,0,0,0,0,0,0,0,0,0,0],"id":29,"left_children":[1,-1,3,5,-1,7,9,-1,11,13,-1,-1,-1,-1,15,-1,-1],"loss_changes":[2.732488E-1,0E0,1.6110042E-2,8.873611E-3,0E0,8.102586E-3,8.062145E-4,0E0,1.7286075E-4,2.6474276E-4,0E0,0E0,0E0,0E0,1.2906261E-4,0E0,0E0],"parents":[2147483647,0,0,2,2,3,3,5,5,6,6,8,8,9,9,14,14],"right_children":[2,-1,4,6,-1,8,10,-1,12,14,-1,-1,-1,-1,16,-1,-1],"split_conditions":[1.0932589E1,1.14542775E-1,1.0057648E1,1.9422E0,2.4851205E-2,3.32E0,3.4941703E-1,-2.9616166E-2,-2.4876028E-2,2.3662691E-1,-6.2141423E-3,8.3692523E-4,-3.369713E-3,2.7212377E-3,1.0206337E3,2.527926E-4,-1.4591217E-3],"split_indices":[10,0,20,37,0,6,1,0,0,4,0,0,0,0,38,0,0],"split_type":[0,0,0,0,0,0,0,0,0,0,0,0,0,0,0,0,0],"sum_hessian":[2.4E1,1E0,2.3E1,2.2E1,1E0,3E0,1.9E1,1E0,2E0,1.8E1,1E0,1E0,1E0,2E0,1.6E1,1.1E1,5E0],"tree_param":{"num_deleted":"0","num_feature":"39","num_nodes":"17","size_leaf_vector":"1"}},{"base_weights":[2.3188975E-2,9.7361185E-2,-2.889592E-3,-9.137982E-3,2.1123506E-2,-4.554392E-2,-1.3998945E-3,-2.517357E-2,-4.7839633E-3,3.7976736E-4,-5.2820207E-3,7.113867E-4,-2.8641701E-3,-2.65522E-3,3.376778E-3,-9.719304E-5,-1.8213273E-3,2.6523757E-3,5.361759E-4],"categories":[],"categories_nodes":[],"categories_segments":[],"categories_sizes":[],"default_left":[0,0,0,0,0,0,0,0,0,0,0,0,0,0,0,0,0,0,0],"id":30,"left_children":[1,-1,3,5,-1,7,9,-1,11,13,-1,-1,-1,15,17,-1,-1,-1,-1],"loss_changes":[1.9740607E-1,0E0,1.16357785E-2,6.415626E-3,0E0,5.8540767E-3,5.835404E-4,0E0,1.2488646E-4,1.8178798E-4,0E0,0E0,0E0,7.766536E-5,7.105764E-5,0E0,0E0,0E0,0E0],"parents":[2147483647,0,0,2,2,3,3,5,5,6,6,8,8,9,9,13,13,14,14],"right_children":[2,-1,4,6,-1,8,10,-1,12,14,-1,-1,-1,16,18,-1,-1,-1,-1],"split_conditions":[1.0932589E1,9.7361185E-2,1.0057648E1,1.9422E0,2.1123506E-2,3.32E0,3.4941703E-1,-2.517357E-2,-2.4876028E-2,2.1254866E1,-5.2820207E-3,7.113867E-4,-2.8641701E-3,3.42E-1,1.4686608E-1,-9.719304E-5,-1.8213273E-3,2.6523757E-3,5.361759E-4],"split_indices":[10,0,20,37,0,6,1,0,0,10,0,0,0,8,4,0,0,0,0],"split_type":[0,0,0,0,0,0,0,0,0,0,0,0,0,0,0,0,0,0,0],"sum_hessian":[2.4E1,1E0,2.3E1,2.2E1,1E0,3E0,1.9E1,1E0,2E0,1.8E1,1E0,1E0,1E0,9E0,9E0,6E0,3E0,1E0,8E0],"tree_param":{"num_deleted":"0","num_feature":"39","num_nodes":"19","size_leaf_vector":"1"}},{"base_weights":[1.9717768E-2,8.275681E-2,-2.4486592E-3,-7.7594686E-3,1.7954994E-2,-3.871226E-2,-1.1809369E-3,-2.139759E-2,-4.0661446E-3,3.321777E-4,-4.4895173E-3,6.0467946E-4,-2.4344446E-3,3.7294058E-3,-1.5226511E-3,-2.2574961E-4,1.7018003E-3,-1.7499056E-4,-1.3378144E-3],"categories":[],"categories_nodes":[],"categories_segments":[],"categories_sizes":[],"default_left":[0,0,0,0,0,0,0,0,0,0,0,0,0,0,0,0,0,0,0],"id":31,"left_children":[1,-1,3,5,-1,7,9,-1,11,13,-1,-1,-1,15,17,-1,-1,-1,-1],"loss_changes":[1.4261723E-1,0E0,8.4049525E-3,4.637633E-3,0E0,4.229642E-3,4.2211014E-4,0E0,9.0225105E-5,1.2540285E-4,0E0,0E0,0E0,6.5235254E-5,3.326083E-5,0E0,0E0,0E0,0E0],"parents":[2147483647,0,0,2,2,3,3,5,5,6,6,8,8,9,9,13,13,14,14],"right_children":[2,-1,4,6,-1,8,10,-1,12,14,-1,-1,-1,16,18,-1,-1,-1,-1],"split_conditions":[1.0932589E1,8.275681E-2,1.0057648E1,1.9422E0,1.7954994E-2,3.32E0,3.4941703E-1,-2.139759E-2,-2.4876028E-2,8.196502E-1,-4.4895173E-3,6.0467946E-4,-2.4344446E-3,-4.5446098E-1,1.5787476E0,-2.2574961E-4,1.7018003E-3,-1.7499056E-4,-1.3378144E-3],"split_indices":[10,0,20,37,0,6,1,0,0,4,0,0,0,1,4,0,0,0,0],"split_type":[0,0,0,0,0,0,0,0,0,0,0,0,0,0,0,0,0,0,0],"sum_hessian":[2.4E1,1E0,2.3E1,2.2E1,1E0,3E0,1.9E1,1E0,2E0,1.8E1,1E0,1E0,1E0,6E0,1.2E1,2E0,4E0,1E1,2E0],"tree_param":{"num_deleted":"0","num_feature":"39","num_nodes":"19","size_leaf_vector":"1"}},{"base_weights":[1.6721055E-2,7.0343405E-2,-2.1220671E-3,-6.6380324E-3,1.526177E-2,-3.2905824E-2,-1.0525722E-3,-1.8188097E-2,-3.4564435E-3,2.3098802E-4,-3.8160325E-3,5.139783E-4,-2.069378E-3,1.9992492E-3,-4.9664197E-4,1.7558312E-4,-8.274079E-4],"categories":[],"categories_nodes":[],"categories_segments":[],"categories_sizes":[],"default_left":[0,0,0,0,0,0,0,0,0,0,0,0,0,0,0,0,0],"id":32,"left_children":[1,-1,3,5,-1,7,9,-1,11,13,-1,-1,-1,-1,15,-1,-1],"loss_changes":[1.030781E-1,0E0,6.081419E-3,3.339871E-3,0E0,3.0559306E-3,3.0245786E-4,0E0,6.519229E-5,9.224817E-5,0E0,0E0,0E0,0E0,4.565363E-5,0E0,0E0],"parents":[2147483647,0,0,2,2,3,3,5,5,6,6,8,8,9,9,14,14],"right_children":[2,-1,4,6,-1,8,10,-1,12,14,-1,-1,-1,-1,16,-1,-1],"split_conditions":[1.0932589E1,7.0343405E-2,1.0057648E1,1.9422E0,1.526177E-2,3.32E0,3.4941703E-1,-1.8188097E-2,-2.4876028E-2,1.4686608E-1,-3.8160325E-3,5.139783E-4,-2.069378E-3,1.9992492E-3,1.0206337E3,1.7558312E-4,-8.274079E-4],"split_indices":[10,0,20,37,0,6,1,0,0,4,0,0,0,0,38,0,0],"split_type":[0,0,0,0,0,0,0,0,0,0,0,0,0,0,0,0,0],"sum_hessian":[2.4E1,1E0,2.3E1,2.2E1,1E0,3E0,1.9E1,1E0,2E0,1.8E1,1E0,1E0,1E0,1E0,1.7E1,1.2E1,5E0],"tree_param":{"num_deleted":"0","num_feature":"39","num_nodes":"17","size_leaf_vector":"1"}},{"base_weights":[1.4240556E-2,5.979195E-2,-1.7749611E-3,-5.6122844E-3,1.29725225E-2,-2.7969833E-2,-8.6016057E-4,-1.5459824E-2,-2.9379476E-3,2.3275302E-4,-3.243828E-3,4.3688045E-4,-1.7589569E-3,-1.6050339E-3,2.0472647E-3,-4.912785E-5,-1.1178018E-3,1.699362E-3,3.0478556E-4],"categories":[],"categories_nodes":[],"categories_segments":[],"categories_sizes":[],"default_left":[0,0,0,0,0,0,0,0,0,0,0,0,0,0,0,0,0,0,0],"id":33,"left_children":[1,-1,3,5,-1,7,9,-1,11,13,-1,-1,-1,15,17,-1,-1,-1,-1],"loss_changes":[7.445192E-2,0E0,4.388532E-3,2.419596E-3,0E0,2.207896E-3,2.200633E-4,0E0,4.710081E-5,6.6644956E-5,0E0,0E0,0E0,2.9958852E-5,3.155052E-5,0E0,0E0,0E0,0E0],"parents":[2147483647,0,0,2,2,3,3,5,5,6,6,8,8,9,9,13,13,14,14],"right_children":[2,-1,4,6,-1,8,10,-1,12,14,-1,-1,-1,16,18,-1,-1,-1,-1],"split_conditions":[1.0932589E1,5.979195E-2,1.0057648E1,1.9422E0,1.29725225E-2,3.32E0,3.4941703E-1,-1.5459824E-2,-2.4876028E-2,2.1254866E1,-3.243828E-3,4.3688045E-4,-1.7589569E-3,1.8730953E-4,1.4686608E-1,-4.912785E-5,-1.1178018E-3,1.699362E-3,3.0478556E-4],"split_indices":[10,0,20,37,0,6,1,0,0,10,0,0,0,21,4,0,0,0,0],"split_type":[0,0,0,0,0,0,0,0,0,0,0,0,0,0,0,0,0,0,0],"sum_hessian":[2.4E1,1E0,2.3E1,2.2E1,1E0,3E0,1.9E1,1E0,2E0,1.8E1,1E0,1E0,1E0,9E0,9E0,6E0,3E0,1E0,8E0],"tree_param":{"num_deleted":"0","num_feature":"39","num_nodes":"19","size_leaf_vector":"1"}},{"base_weights":[1.21114645E-2,5.0823215E-2,-1.5014497E-3,-4.762866E-3,1.1026669E-2,-1.4411622E-4,-2.1361541E-2,1.0068882E-3,-4.712105E-3,-1.3140679E-2,-4.8007965E-3,-6.23569E-5,3.3716988E-3,-3.3931734E-4,-1.6586304E-3,-2.757454E-3,-8.201599E-5,-5.3516106E-4,2.129066E-4,1.5575862E-3,1.2826324E-4],"categories":[],"categories_nodes":[],"categories_segments":[],"categories_sizes":[],"default_left":[0,0,0,0,0,0,0,0,0,0,0,0,0,0,0,0,0,0,0,0,0],"id":34,"left_children":[1,-1,3,5,-1,7,9,11,13,-1,15,17,19,-1,-1,-1,-1,-1,-1,-1,-1],"loss_changes":[5.378689E-2,0E0,3.1695906E-3,1.7602195E-3,0E0,1.04642284E-4,1.6478896E-3,4.0667248E-5,5.4446864E-6,0E0,7.7001445E-5,1.7215032E-5,2.457577E-5,0E0,0E0,0E0,0E0,0E0,0E0,0E0,0E0],"parents":[2147483647,0,0,2,2,3,3,5,5,6,6,7,7,8,8,10,10,11,11,12,12],"right_children":[2,-1,4,6,-1,8,10,12,14,-1,16,18,20,-1,-1,-1,-1,-1,-1,-1,-1],"split_conditions":[1.0932589E1,5.0823215E-2,1.0057648E1,8.16E0,1.1026669E-2,1.5787476E0,1.6780557E-1,6.109E1,4.1587733E-2,-1.3140679E-2,-2.3913998E-2,3.532291E1,3.4341708E-2,-3.3931734E-4,-1.6586304E-3,-2.757454E-3,-8.201599E-5,-5.3516106E-4,2.129066E-4,1.5575862E-3,1.2826324E-4],"split_indices":[10,0,20,7,0,4,1,5,0,0,0,12,3,0,0,0,0,0,0,0,0],"split_type":[0,0,0,0,0,0,0,0,0,0,0,0,0,0,0,0,0,0,0,0,0],"sum_hessian":[2.4E1,1E0,2.3E1,2.2E1,1E0,1.8E1,4E0,1.5E1,3E0,1E0,3E0,1.1E1,4E0,1E0,2E0,1E0,2E0,3E0,8E0,2E0,2E0],"tree_param":{"num_deleted":"0","num_feature":"39","num_nodes":"21","size_leaf_vector":"1"}},{"base_weights":[1.0287207E-2,4.319916E-2,-1.2839262E-3,-4.056456E-3,9.37264E-3,-1.3444599E-4,-1.8148804E-2,7.897282E-4,-3.7975311E-3,-1.1169434E-2,-4.070282E-3,-7.096719E-5,2.6974515E-3,-2.8839114E-4,-1.3267518E-3,-2.34375E-3,-6.5612796E-5,-4.149154E-4,1.5601996E-4,-1.718849E-4,1.0974868E-3],"categories":[],"categories_nodes":[],"categories_segments":[],"categories_sizes":[],"default_left":[0,0,0,0,0,0,0,0,0,0,0,0,0,0,0,0,0,0,0,0,0],"id":35,"left_children":[1,-1,3,5,-1,7,9,11,13,-1,15,17,19,-1,-1,-1,-1,-1,-1,-1,-1],"loss_changes":[3.886428E-2,0E0,2.2910396E-3,1.2687775E-3,0E0,6.732026E-5,1.1917345E-3,2.646293E-5,2.8389077E-6,0E0,5.5945027E-5,1.002511E-5,1.7807637E-5,0E0,0E0,0E0,0E0,0E0,0E0,0E0,0E0],"parents":[2147483647,0,0,2,2,3,3,5,5,6,6,7,7,8,8,10,10,11,11,12,12],"right_children":[2,-1,4,6,-1,8,10,12,14,-1,16,18,20,-1,-1,-1,-1,-1,-1,-1,-1],"split_conditions":[1.0932589E1,4.319916E-2,1.0057648E1,8.16E0,9.37264E-3,1.5787476E0,1.6780557E-1,6.109E1,4.1587733E-2,-1.1169434E-2,-2.3913998E-2,3.532291E1,-4.665367E-1,-2.8839114E-4,-1.3267518E-3,-2.34375E-3,-6.5612796E-5,-4.149154E-4,1.5601996E-4,-1.718849E-4,1.0974868E-3],"split_indices":[10,0,20,7,0,4,1,5,0,0,0,12,1,0,0,0,0,0,0,0,0],"split_type":[0,0,0,0,0,0,0,0,0,0,0,0,0,0,0,0,0,0,0,0,0],"sum_hessian":[2.4E1,1E0,2.3E1,2.2E1,1E0,1.8E1,4E0,1.5E1,3E0,1E0,3E0,1.1E1,4E0,1E0,2E0,1E0,2E0,3E0,8E0,1E0,3E0],"tree_param":{"num_deleted":"0","num_feature":"39","num_nodes":"21","size_leaf_vector":"1"}},{"base_weights":[8.722895E-3,3.6719516E-2,-1.1135155E-3,-3.4711272E-3,7.966734E-3,-1.43856E-4,-1.5420532E-2,5.9449463E-4,-3.0612946E-3,-9.494019E-3,-3.452301E-3,9.08137E-4,3.0753177E-5,-2.4490358E-4,-1.0612488E-3,-1.9924166E-3,-5.2642823E-5,-9.840677E-5,4.3668153E-4],"categories":[],"categories_nodes":[],"categories_segments":[],"categories_sizes":[],"default_left":[0,0,0,0,0,0,0,0,0,0,0,0,0,0,0,0,0,0,0],"id":36,"left_children":[1,-1,3,5,-1,7,9,11,13,-1,15,-1,17,-1,-1,-1,-1,-1,-1],"loss_changes":[2.809026E-2,0E0,1.6577812E-3,9.1223663E-4,0E0,4.2747684E-5,8.617403E-4,2.1848884E-5,1.3883728E-6,0E0,4.0634914E-5,0E0,7.634303E-6,0E0,0E0,0E0,0E0,0E0,0E0],"parents":[2147483647,0,0,2,2,3,3,5,5,6,6,7,7,8,8,10,10,12,12],"right_children":[2,-1,4,6,-1,8,10,12,14,-1,16,-1,18,-1,-1,-1,-1,-1,-1],"split_conditions":[1.0932589E1,3.6719516E-2,1.0057648E1,8.16E0,7.966734E-3,1.5787476E0,1.6780557E-1,1.7432494E-1,4.1587733E-2,-9.494019E-3,-2.3913998E-2,9.08137E-4,6.547E1,-2.4490358E-4,-1.0612488E-3,-1.9924166E-3,-5.2642823E-5,-9.840677E-5,4.3668153E-4],"split_indices":[10,0,20,7,0,4,1,4,0,0,0,0,5,0,0,0,0,0,0],"split_type":[0,0,0,0,0,0,0,0,0,0,0,0,0,0,0,0,0,0,0],"sum_hessian":[2.4E1,1E0,2.3E1,2.2E1,1E0,1.8E1,4E0,1.5E1,3E0,1E0,3E0,2E0,1.3E1,1E0,2E0,1E0,2E0,1.1E1,2E0],"tree_param":{"num_deleted":"0","num_feature":"39","num_nodes":"19","size_leaf_vector":"1"}},{"base_weights":[7.429662E-3,3.1211473E-2,-9.306218E-4,-2.9339113E-3,6.7717554E-3,-1.4630124E-2,-4.4797309E-4,-8.069802E-3,-1.5739402E-3,1.2273906E-4,-1.6937257E-3,1.7978848E-4,-8.8806154E-4,9.09976E-4,-2.0747026E-4,4.2815882E-4,-1.1627394E-4],"categories":[],"categories_nodes":[],"categories_segments":[],"categories_sizes":[],"default_left":[0,0,0,0,0,0,0,0,0,0,0,0,0,0,0,0,0],"id":37,"left_children":[1,-1,3,5,-1,7,9,-1,11,13,-1,-1,-1,-1,15,-1,-1],"loss_changes":[2.0288698E-2,0E0,1.1962319E-3,6.621955E-4,0E0,5.9841847E-4,6.002167E-5,0E0,1.0812073E-5,1.8889808E-5,0E0,0E0,0E0,0E0,5.852694E-6,0E0,0E0],"parents":[2147483647,0,0,2,2,3,3,5,5,6,6,8,8,9,9,14,14],"right_children":[2,-1,4,6,-1,8,10,-1,12,14,-1,-1,-1,-1,16,-1,-1],"split_conditions":[1.0932589E1,3.1211473E-2,1.0057648E1,1.9422E0,6.7717554E-3,3.32E0,3.4941703E-1,-8.069802E-3,-2.4876028E-2,1.4686608E-1,-1.6937257E-3,1.7978848E-4,-8.8806154E-4,9.09976E-4,-9.0808414E-2,4.2815882E-4,-1.1627394E-4],"split_indices":[10,0,20,37,0,6,1,0,0,4,0,0,0,0,0,0,0],"split_type":[0,0,0,0,0,0,0,0,0,0,0,0,0,0,0,0,0],"sum_hessian":[2.4E1,1E0,2.3E1,2.2E1,1E0,3E0,1.9E1,1E0,2E0,1.8E1,1E0,1E0,1E0,1E0,1.7E1,1E0,1.6E1],"tree_param":{"num_deleted":"0","num_feature":"39","num_nodes":"17","size_leaf_vector":"1"}},{"base_weights":[6.3496316E-3,2.6529694E-2,-7.5515965E-4,-2.4564045E-3,5.7560205E-3,-1.2435842E-2,-3.3769663E-4,-6.859589E-3,-1.3375928E-3,1.4967608E-4,-1.4396668E-3,1.528211E-4,-7.547379E-4,6.371338E-4,-2.0749954E-4,-1.5551172E-4,1.9268096E-4],"categories":[],"categories_nodes":[],"categories_segments":[],"categories_sizes":[],"default_left":[0,0,0,0,0,0,0,0,0,0,0,0,0,0,0,0,0],"id":38,"left_children":[1,-1,3,5,-1,7,9,-1,11,13,-1,-1,-1,-1,15,-1,-1],"loss_changes":[1.4646289E-2,0E0,8.6135545E-4,4.8210128E-4,0E0,4.3241022E-4,4.420355E-5,0E0,7.809947E-6,1.3837614E-5,0E0,0E0,0E0,0E0,4.823829E-6,0E0,0E0],"parents":[2147483647,0,0,2,2,3,3,5,5,6,6,8,8,9,9,14,14],"right_children":[2,-1,4,6,-1,8,10,-1,12,14,-1,-1,-1,-1,16,-1,-1],"split_conditions":[1.0932589E1,2.6529694E-2,1.0057648E1,1.9422E0,5.7560205E-3,3.32E0,3.4941703E-1,-6.859589E-3,-2.4876028E-2,2.3662691E-1,-1.4396668E-3,1.528211E-4,-7.547379E-4,6.371338E-4,2.2437435E-2,-1.5551172E-4,1.9268096E-4],"split_indices":[10,0,20,37,0,6,1,0,0,4,0,0,0,0,21,0,0],"split_type":[0,0,0,0,0,0,0,0,0,0,0,0,0,0,0,0,0],"sum_hessian":[2.4E1,1E0,2.3E1,2.2E1,1E0,3E0,1.9E1,1E0,2E0,1.8E1,1E0,1E0,1E0,2E0,1.6E1,1.2E1,4E0],"tree_param":{"num_deleted":"0","num_feature":"39","num_nodes":"17","size_leaf_vector":"1"}},{"base_weights":[5.4074805E-3,2.2550583E-2,-6.3125876E-4,-2.07686E-3,4.8926356E-3,-1.0570515E-2,-2.7428597E-4,-5.830765E-3,-1.1367649E-3,1.4073253E-4,-1.2239456E-3,1.2989715E-4,-6.414414E-4,6.779096E-4,-1.025266E-4,-1.9518995E-4,9.162509E-5],"categories":[],"categories_nodes":[],"categories_segments":[],"categories_sizes":[],"default_left":[0,0,0,0,0,0,0,0,0,0,0,0,0,0,0,0,0],"id":39,"left_children":[1,-1,3,5,-1,7,9,-1,11,13,-1,-1,-1,-1,15,-1,-1],"loss_changes":[1.0579183E-2,0E0,6.215962E-4,3.4924084E-4,0E0,3.1244056E-4,3.2161493E-5,0E0,5.641525E-6,1.0025377E-5,0E0,0E0,0E0,0E0,4.2234515E-6,0E0,0E0],"parents":[2147483647,0,0,2,2,3,3,5,5,6,6,8,8,9,9,14,14],"right_children":[2,-1,4,6,-1,8,10,-1,12,14,-1,-1,-1,-1,16,-1,-1],"split_conditions":[1.0932589E1,2.2550583E-2,1.0057648E1,1.9422E0,4.8926356E-3,3.32E0,3.4941703E-1,-5.830765E-3,-2.4876028E-2,1.4686608E-1,-1.2239456E-3,1.2989715E-4,-6.414414E-4,6.779096E-4,9.85333E0,-1.9518995E-4,9.162509E-5],"split_indices":[10,0,20,37,0,6,1,0,0,4,0,0,0,0,37,0,0],"split_type":[0,0,0,0,0,0,0,0,0,0,0,0,0,0,0,0,0],"sum_hessian":[2.4E1,1E0,2.3E1,2.2E1,1E0,3E0,1.9E1,1E0,2E0,1.8E1,1E0,1E0,1E0,1E0,1.7E1,7E0,1E1],"tree_param":{"num_deleted":"0","num_feature":"39","num_nodes":"17","size_leaf_vector":"1"}},{"base_weights":[4.6030236E-3,1.916771E-2,-5.295475E-4,-1.757995E-3,4.1587115E-3,-2.610056E-6,-8.076859E-3,4.312992E-4,-5.212784E-4,-4.9564363E-3,-1.8353462E-3,-1.9436753E-4,1.2634947E-3,-1.040268E-3,-4.0626528E-5,-1.8081322E-4,2.8780103E-4,5.4531754E-4,1.18017204E-4],"categories":[],"categories_nodes":[],"categories_segments":[],"categories_sizes":[],"default_left":[0,0,0,0,0,0,0,0,0,0,0,0,0,0,0,0,0,0,0],"id":40,"left_children":[1,-1,3,5,-1,7,9,11,-1,-1,13,15,17,-1,-1,-1,-1,-1,-1],"loss_changes":[7.641502E-3,0E0,4.4868316E-4,2.5509577E-4,0E0,1.5053115E-5,2.332126E-4,8.576415E-6,0E0,0E0,1.0628976E-5,5.289275E-6,2.6605903E-6,0E0,0E0,0E0,0E0,0E0,0E0],"parents":[2147483647,0,0,2,2,3,3,5,5,6,6,7,7,10,10,11,11,12,12],"right_children":[2,-1,4,6,-1,8,10,12,-1,-1,14,16,18,-1,-1,-1,-1,-1,-1],"split_conditions":[1.0932589E1,1.916771E-2,1.0057648E1,8.16E0,4.1587115E-3,1.5787476E0,1.6780557E-1,5.0301567E1,-5.212784E-4,-4.9564363E-3,-2.3913998E-2,5E0,1.1515931E0,-1.040268E-3,-4.0626528E-5,-1.8081322E-4,2.8780103E-4,5.4531754E-4,1.18017204E-4],"split_indices":[10,0,20,7,0,4,1,11,0,0,0,7,4,0,0,0,0,0,0],"split_type":[0,0,0,0,0,0,0,0,0,0,0,0,0,0,0,0,0,0,0],"sum_hessian":[2.4E1,1E0,2.3E1,2.2E1,1E0,1.8E1,4E0,1.5E1,3E0,1E0,3E0,9E0,6E0,1E0,2E0,7E0,2E0,3E0,3E0],"tree_param":{"num_deleted":"0","num_feature":"39","num_nodes":"19","size_leaf_vector":"1"}},{"base_weights":[3.923662E-3,1.6292954E-2,-4.3867246E-4,-1.4823646E-3,3.534937E-3,-7.6885074E-3,-1.6701777E-4,-4.2131427E-3,-8.888046E-4,1.3438694E-4,-8.8405615E-4,6.724298E-5,-4.6720507E-4,4.944255E-4,-4.1267667E-5,2.7811827E-4,-4.582835E-5],"categories":[],"categories_nodes":[],"categories_segments":[],"categories_sizes":[],"default_left":[0,0,0,0,0,0,0,0,0,0,0,0,0,0,0,0,0],"id":41,"left_children":[1,-1,3,5,-1,7,9,-1,11,13,-1,-1,-1,-1,15,-1,-1],"loss_changes":[5.5188593E-3,0E0,3.236059E-4,1.8647018E-4,0E0,1.6037442E-4,1.7153132E-5,0E0,2.5812387E-6,5.119885E-6,0E0,0E0,0E0,0E0,2.084941E-6,0E0,0E0],"parents":[2147483647,0,0,2,2,3,3,5,5,6,6,8,8,9,9,14,14],"right_children":[2,-1,4,6,-1,8,10,-1,12,14,-1,-1,-1,-1,16,-1,-1],"split_conditions":[1.0932589E1,1.6292954E-2,1.0057648E1,1.9422E0,3.534937E-3,3.32E0,3.4941703E-1,-4.2131427E-3,-2.4876028E-2,1.4686608E-1,-8.8405615E-4,6.724298E-5,-4.6720507E-4,4.944255E-4,-9.0808414E-2,2.7811827E-4,-4.582835E-5],"split_indices":[10,0,20,37,0,6,1,0,0,4,0,0,0,0,0,0,0],"split_type":[0,0,0,0,0,0,0,0,0,0,0,0,0,0,0,0,0],"sum_hessian":[2.4E1,1E0,2.3E1,2.2E1,1E0,3E0,1.9E1,1E0,2E0,1.8E1,1E0,1E0,1E0,1E0,1.7E1,1E0,1.6E1],"tree_param":{"num_deleted":"0","num_feature":"39","num_nodes":"17","size_leaf_vector":"1"}},{"base_weights":[3.3486765E-3,1.3848496E-2,-3.5859973E-4,-1.2451237E-3,3.0047179E-3,-6.535638E-3,-1.2476467E-4,-3.5814287E-3,-7.554541E-4,1.3228442E-4,-7.513047E-4,5.715564E-5,-3.9711E-4,3.0192028E-4,-9.451248E-5,4.5546145E-5,-2.0004273E-4],"categories":[],"categories_nodes":[],"categories_segments":[],"categories_sizes":[],"default_left":[0,0,0,0,0,0,0,0,0,0,0,0,0,0,0,0,0],"id":42,"left_children":[1,-1,3,5,-1,7,9,-1,11,13,-1,-1,-1,-1,15,-1,-1],"loss_changes":[3.984542E-3,0E0,2.3320095E-4,1.3551192E-4,0E0,1.15890085E-4,1.2564685E-5,0E0,1.8648251E-6,3.861809E-6,0E0,0E0,0E0,0E0,2.3568437E-6,0E0,0E0],"parents":[2147483647,0,0,2,2,3,3,5,5,6,6,8,8,9,9,14,14],"right_children":[2,-1,4,6,-1,8,10,-1,12,14,-1,-1,-1,-1,16,-1,-1],"split_conditions":[1.0932589E1,1.3848496E-2,1.0057648E1,1.9422E0,3.0047179E-3,3.32E0,3.4941703E-1,-3.5814287E-3,-2.4876028E-2,-9.854794E-1,-7.513047E-4,5.715564E-5,-3.9711E-4,3.0192028E-4,1.0206337E3,4.5546145E-5,-2.0004273E-4],"split_indices":[10,0,20,37,0,6,1,0,0,36,0,0,0,0,38,0,0],"split_type":[0,0,0,0,0,0,0,0,0,0,0,0,0,0,0,0,0],"sum_hessian":[2.4E1,1E0,2.3E1,2.2E1,1E0,3E0,1.9E1,1E0,2E0,1.8E1,1E0,1E0,1E0,3E0,1.5E1,1.1E1,4E0],"tree_param":{"num_deleted":"0","num_feature":"39","num_nodes":"17","size_leaf_vector":"1"}},{"base_weights":[2.8370158E-3,1.1771393E-2,-3.146066E-4,-1.0685852E-3,2.5540353E-3,1.579416E-5,-4.97551E-3,2.8602278E-4,-3.207207E-4,-3.0441287E-3,-1.1458397E-3,-1.4692204E-4,8.63655E-4,-6.3858036E-4,-3.2615662E-5,6.6596884E-5,-2.2673608E-4,3.8117808E-4,7.224083E-5],"categories":[],"categories_nodes":[],"categories_segments":[],"categories_sizes":[],"default_left":[0,0,0,0,0,0,0,0,0,0,0,0,0,0,0,0,0,0,0],"id":43,"left_children":[1,-1,3,5,-1,7,9,11,-1,-1,13,15,17,-1,-1,-1,-1,-1,-1],"loss_changes":[2.8803966E-3,0E0,1.6884533E-4,9.7520126E-5,0E0,5.8758383E-6,8.7400374E-5,4.1282165E-6,0E0,0E0,3.84555E-6,2.4139501E-6,1.4682751E-6,0E0,0E0,0E0,0E0,0E0,0E0],"parents":[2147483647,0,0,2,2,3,3,5,5,6,6,7,7,10,10,11,11,12,12],"right_children":[2,-1,4,6,-1,8,10,12,-1,-1,14,16,18,-1,-1,-1,-1,-1,-1],"split_conditions":[1.0932589E1,1.1771393E-2,1.0057648E1,8.16E0,2.5540353E-3,1.5787476E0,1.6780557E-1,5.0301567E1,-3.207207E-4,-3.0441287E-3,-2.3913998E-2,8.196502E-1,1.1515931E0,-6.3858036E-4,-3.2615662E-5,6.6596884E-5,-2.2673608E-4,3.8117808E-4,7.224083E-5],"split_indices":[10,0,20,7,0,4,1,11,0,0,0,4,4,0,0,0,0,0,0],"split_type":[0,0,0,0,0,0,0,0,0,0,0,0,0,0,0,0,0,0,0],"sum_hessian":[2.4E1,1E0,2.3E1,2.2E1,1E0,1.8E1,4E0,1.5E1,3E0,1E0,3E0,9E0,6E0,1E0,2E0,6E0,3E0,3E0,3E0],"tree_param":{"num_deleted":"0","num_feature":"39","num_nodes":"19","size_leaf_vector":"1"}},{"base_weights":[2.4088984E-3,1.000557E-2,-2.7005564E-4,-9.1105636E-4,2.1709444E-3,-4.7307536E-3,-1.015641E-4,-2.5875093E-3,-1.6729534E-4,8.362451E-5,-5.430222E-4,3.177969E-4,-2.9432238E-5,2.1957904E-4,-3.5181893E-5],"categories":[],"categories_nodes":[],"categories_segments":[],"categories_sizes":[],"default_left":[0,0,0,0,0,0,0,0,0,0,0,0,0,0,0],"id":44,"left_children":[1,-1,3,5,-1,7,9,-1,-1,11,-1,-1,13,-1,-1],"loss_changes":[2.0813788E-3,0E0,1.2207353E-4,7.063587E-5,0E0,6.019511E-5,6.4792976E-6,0E0,0E0,2.1270548E-6,0E0,0E0,1.289651E-6,0E0,0E0],"parents":[2147483647,0,0,2,2,3,3,5,5,6,6,9,9,12,12],"right_children":[2,-1,4,6,-1,8,10,-1,-1,12,-1,-1,14,-1,-1],"split_conditions":[1.0932589E1,1.000557E-2,1.0057648E1,1.9422E0,2.1709444E-3,3.32E0,3.4941703E-1,-2.5875093E-3,-1.6729534E-4,1.4686608E-1,-5.430222E-4,3.177969E-4,-9.0808414E-2,2.1957904E-4,-3.5181893E-5],"split_indices":[10,0,20,37,0,6,1,0,0,4,0,0,0,0,0],"split_type":[0,0,0,0,0,0,0,0,0,0,0,0,0,0,0],"sum_hessian":[2.4E1,1E0,2.3E1,2.2E1,1E0,3E0,1.9E1,1E0,2E0,1.8E1,1E0,1E0,1.7E1,1E0,1.6E1],"tree_param":{"num_deleted":"0","num_feature":"39","num_nodes":"15","size_leaf_vector":"1"}},{"base_weights":[2.0611167E-3,8.505249E-3,-2.1557261E-4,-7.598115E-4,1.8452883E-3,2.416498E-5,-3.5869598E-3,3.478875E-4,-4.644394E-4,-2.1995546E-3,-8.177757E-4,6.054491E-4,-4.013658E-5,-2.7580262E-4,6.608963E-5,-4.6176912E-4,-1.9264222E-5,-6.4824526E-5,2.2610383E-4],"categories":[],"categories_nodes":[],"categories_segments":[],"categories_sizes":[],"default_left":[0,0,0,0,0,0,0,0,0,0,0,0,0,0,0,0,0,0,0],"id":45,"left_children":[1,-1,3,5,-1,7,9,11,13,-1,15,17,-1,-1,-1,-1,-1,-1,-1],"loss_changes":[1.5024494E-3,0E0,8.783153E-5,5.106429E-5,0E0,3.166845E-6,4.5855617E-5,1.5697374E-6,2.6944435E-6,0E0,2.075802E-6,1.137063E-6,0E0,0E0,0E0,0E0,0E0,0E0,0E0],"parents":[2147483647,0,0,2,2,3,3,5,5,6,6,7,7,8,8,10,10,11,11],"right_children":[2,-1,4,6,-1,8,10,12,14,-1,16,18,-1,-1,-1,-1,-1,-1,-1],"split_conditions":[1.0932589E1,8.505249E-3,1.0057648E1,8.16E0,1.8452883E-3,1.0206265E3,1.6780557E-1,1E0,9.85333E0,-2.1995546E-3,-2.3913998E-2,-4.5446098E-1,-4.013658E-5,-2.7580262E-4,6.608963E-5,-4.6176912E-4,-1.9264222E-5,-6.4824526E-5,2.2610383E-4],"split_indices":[10,0,20,7,0,38,1,15,37,0,0,1,0,0,0,0,0,0,0],"split_type":[0,0,0,0,0,0,0,0,0,0,0,0,0,0,0,0,0,0,0],"sum_hessian":[2.4E1,1E0,2.3E1,2.2E1,1E0,1.8E1,4E0,1.1E1,7E0,1E0,3E0,7E0,4E0,4E0,3E0,1E0,2E0,1E0,6E0],"tree_param":{"num_deleted":"0","num_feature":"39","num_nodes":"19","size_leaf_vector":"1"}},{"base_weights":[1.7461627E-3,7.229233E-3,-1.8920076E-4,-6.5206E-4,1.5684844E-3,-3.437493E-3,-6.23704E-5,-1.8693925E-3,-1.287356E-4,7.207759E-5,-3.9253235E-4,2.362118E-4,-3.4211841E-6],"categories":[],"categories_nodes":[],"categories_segments":[],"categories_sizes":[],"default_left":[0,0,0,0,0,0,0,0,0,0,0,0,0],"id":46,"left_children":[1,-1,3,5,-1,7,9,-1,-1,11,-1,-1,-1],"loss_changes":[1.0860055E-3,0E0,6.358991E-5,3.756404E-5,0E0,3.0945394E-5,3.4449436E-6,0E0,0E0,1.143544E-6,0E0,0E0,0E0],"parents":[2147483647,0,0,2,2,3,3,5,5,6,6,9,9],"right_children":[2,-1,4,6,-1,8,10,-1,-1,12,-1,-1,-1],"split_conditions":[1.0932589E1,7.229233E-3,1.0057648E1,1.9422E0,1.5684844E-3,3.32E0,3.4941703E-1,-1.8693925E-3,-1.287356E-4,1.4686608E-1,-3.9253235E-4,2.362118E-4,-3.4211841E-6],"split_indices":[10,0,20,37,0,6,1,0,0,4,0,0,0],"split_type":[0,0,0,0,0,0,0,0,0,0,0,0,0],"sum_hessian":[2.4E1,1E0,2.3E1,2.2E1,1E0,3E0,1.9E1,1E0,2E0,1.8E1,1E0,1E0,1.7E1],"tree_param":{"num_deleted":"0","num_feature":"39","num_nodes":"13","size_leaf_vector":"1"}},{"base_weights":[1.487951E-3,6.144333E-3,-1.5681017E-4,-5.500734E-4,1.3332367E-3,-2.9060617E-3,-5.137209E-5,-1.5890122E-3,-1.0308326E-4,1.8892526E-5,-3.335953E-4],"categories":[],"categories_nodes":[],"categories_segments":[],"categories_sizes":[],"default_left":[0,0,0,0,0,0,0,0,0,0,0],"id":47,"left_children":[1,-1,3,5,-1,7,9,-1,-1,-1,-1],"loss_changes":[7.841919E-4,0E0,4.586966E-5,2.6874204E-5,0E0,2.2683638E-5,2.4955875E-6,0E0,0E0,0E0,0E0],"parents":[2147483647,0,0,2,2,3,3,5,5,6,6],"right_children":[2,-1,4,6,-1,8,10,-1,-1,-1,-1],"split_conditions":[1.0932589E1,6.144333E-3,1.0057648E1,1.9422E0,1.3332367E-3,3.32E0,3.4941703E-1,-1.5890122E-3,-1.0308326E-4,1.8892526E-5,-3.335953E-4],"split_indices":[10,0,20,37,0,6,1,0,0,0,0],"split_type":[0,0,0,0,0,0,0,0,0,0,0],"sum_hessian":[2.4E1,1E0,2.3E1,2.2E1,1E0,3E0,1.9E1,1E0,2E0,1.8E1,1E0],"tree_param":{"num_deleted":"0","num_feature":"39","num_nodes":"11","size_leaf_vector":"1"}},{"base_weights":[1.2604056E-3,5.223084E-3,-1.3793395E-4,-4.7240968E-4,1.1332512E-3,1.1282398E-5,-2.2159577E-3,1.5621058E-4,-1.7137529E-4,-1.3504028E-3,-5.1927567E-4,-9.374286E-5,1.4729134E-4,-2.5177002E-4,6.608963E-5,-8.889051E-5,1.4329852E-4],"categories":[],"categories_nodes":[],"categories_segments":[],"categories_sizes":[],"default_left":[0,0,0,0,0,0,0,0,0,0,0,0,0,0,0,0,0],"id":48,"left_children":[1,-1,3,5,-1,7,9,11,-1,-1,13,15,-1,-1,-1,-1,-1],"loss_changes":[5.6697667E-4,0E0,3.3215387E-5,1.942183E-5,0E0,1.6933197E-6,1.705042E-5,1.3848178E-6,0E0,0E0,1.1314123E-6,1.2989625E-6,0E0,0E0,0E0,0E0,0E0],"parents":[2147483647,0,0,2,2,3,3,5,5,6,6,7,7,10,10,11,11],"right_children":[2,-1,4,6,-1,8,10,12,-1,-1,14,16,-1,-1,-1,-1,-1],"split_conditions":[1.0932589E1,5.223084E-3,1.0057648E1,8.16E0,1.1332512E-3,1.5787476E0,1.6780557E-1,5.0301567E1,-1.7137529E-4,-1.3504028E-3,4.8001368E-2,5E0,1.4729134E-4,-2.5177002E-4,6.608963E-5,-8.889051E-5,1.4329852E-4],"split_indices":[10,0,20,7,0,4,1,11,0,0,0,7,0,0,0,0,0],"split_type":[0,0,0,0,0,0,0,0,0,0,0,0,0,0,0,0,0],"sum_hessian":[2.4E1,1E0,2.3E1,2.2E1,1E0,1.8E1,4E0,1.5E1,3E0,1E0,3E0,9E0,6E0,2E0,1E0,7E0,2E0],"tree_param":{"num_deleted":"0","num_feature":"39","num_nodes":"17","size_leaf_vector":"1"}},{"base_weights":[1.0760466E-3,4.4391635E-3,-1.1221902E-4,-3.9629664E-4,9.632349E-4,-2.1121688E-3,-3.3307362E-5,-1.1478425E-3,-7.9639256E-5,-3.4847524E-4,6.175325E-5,1.2552739E-5,-2.0072937E-4],"categories":[],"categories_nodes":[],"categories_segments":[],"categories_sizes":[],"default_left":[0,0,0,0,0,0,0,0,0,0,0,0,0],"id":49,"left_children":[1,-1,3,5,-1,7,9,-1,-1,11,-1,-1,-1],"loss_changes":[4.0927023E-4,0E0,2.3928194E-5,1.42550425E-5,0E0,1.1645101E-5,1.5791891E-6,0E0,0E0,1.154299E-6,0E0,0E0,0E0],"parents":[2147483647,0,0,2,2,3,3,5,5,6,6,9,9],"right_children":[2,-1,4,6,-1,8,10,-1,-1,12,-1,-1,-1],"split_conditions":[1.0932589E1,4.4391635E-3,1.0057648E1,1.9422E0,9.632349E-4,3.32E0,9.9149E0,-1.1478425E-3,-7.9639256E-5,1.0206265E3,6.175325E-5,1.2552739E-5,-2.0072937E-4],"split_indices":[10,0,20,37,0,6,37,0,0,38,0,0,0],"split_type":[0,0,0,0,0,0,0,0,0,0,0,0,0],"sum_hessian":[2.4E1,1E0,2.3E1,2.2E1,1E0,3E0,1.9E1,1E0,2E0,8E0,1.1E1,4E0,4E0],"tree_param":{"num_deleted":"0","num_feature":"39","num_nodes":"13","size_leaf_vector":"1"}},{"base_weights":[9.1544405E-4,3.7731172E-3,-9.450053E-5,-3.3592904E-4,8.1875327E-4,1.7784332E-5,-1.612854E-3,5.0237857E-5,-1.0032654E-4,-9.756089E-4,-1.1701584E-4],"categories":[],"categories_nodes":[],"categories_segments":[],"categories_sizes":[],"default_left":[0,0,0,0,0,0,0,0,0,0,0],"id":50,"left_children":[1,-1,3,5,-1,7,9,-1,-1,-1,-1],"loss_changes":[2.956281E-4,0E0,1.7278002E-5,1.0416988E-5,0E0,1.0576158E-6,8.753465E-6,0E0,0E0,0E0,0E0],"parents":[2147483647,0,0,2,2,3,3,5,5,6,6],"right_children":[2,-1,4,6,-1,8,10,-1,-1,-1,-1],"split_conditions":[1.0932589E1,3.7731172E-3,1.0057648E1,8.16E0,8.1875327E-4,1.4099072E0,1.6780557E-1,5.0237857E-5,-1.0032654E-4,-9.756089E-4,-1.1701584E-4],"split_indices":[10,0,20,7,0,4,1,0,0,0,0],"split_type":[0,0,0,0,0,0,0,0,0,0,0],"sum_hessian":[2.4E1,1E0,2.3E1,2.2E1,1E0,1.8E1,4E0,1.3E1,5E0,1E0,3E0],"tree_param":{"num_deleted":"0","num_feature":"39","num_nodes":"11","size_leaf_vector":"1"}},{"base_weights":[7.786652E-4,3.2066347E-3,-7.962223E-5,-2.848069E-4,6.9594383E-4,5.323345E-6,-1.3775409E-3,-1.0201559E-4,-8.291245E-4],"categories":[],"categories_nodes":[],"categories_segments":[],"categories_sizes":[],"default_left":[0,0,0,0,0,0,0,0,0],"id":51,"left_children":[1,-1,3,5,-1,-1,7,-1,-1],"loss_changes":[2.1349428E-4,0E0,1.2476554E-5,7.6284323E-6,0E0,0E0,6.2510553E-6,0E0,0E0],"parents":[2147483647,0,0,2,2,3,3,6,6],"right_children":[2,-1,4,6,-1,-1,8,-1,-1],"split_conditions":[1.0932589E1,3.2066347E-3,1.0057648E1,3.94561E1,6.9594383E-4,5.323345E-6,-2.3913998E-2,-1.0201559E-4,-8.291245E-4],"split_indices":[10,0,20,10,0,0,0,0,0],"split_type":[0,0,0,0,0,0,0,0,0],"sum_hessian":[2.4E1,1E0,2.3E1,2.2E1,1E0,1.8E1,4E0,3E0,1E0],"tree_param":{"num_deleted":"0","num_feature":"39","num_nodes":"9","size_leaf_vector":"1"}},{"base_weights":[6.6445826E-4,2.7259828E-3,-6.507341E-5,-2.3937748E-4,5.9158803E-4,4.9220753E-6,-1.1634827E-3,-5.9165957E-4,9.918213E-6],"categories":[],"categories_nodes":[],"categories_segments":[],"categories_sizes":[],"default_left":[0,0,0,0,0,0,0,0,0],"id":52,"left_children":[1,-1,3,5,-1,-1,7,-1,-1],"loss_changes":[1.5419694E-4,0E0,8.99356E-6,5.455638E-6,0E0,0E0,4.9035198E-6,0E0,0E0],"parents":[2147483647,0,0,2,2,3,3,6,6],"right_children":[2,-1,4,6,-1,-1,8,-1,-1],"split_conditions":[1.0932589E1,2.7259828E-3,1.0057648E1,8.16E0,5.9158803E-4,4.9220753E-6,6.858712E1,-5.9165957E-4,9.918213E-6],"split_indices":[10,0,20,7,0,0,2,0,0],"split_type":[0,0,0,0,0,0,0,0,0],"sum_hessian":[2.4E1,1E0,2.3E1,2.2E1,1E0,1.8E1,4E0,2E0,2E0],"tree_param":{"num_deleted":"0","num_feature":"39","num_nodes":"9","size_leaf_vector":"1"}},{"base_weights":[5.7494716E-4,2.3174286E-3,-4.4826844E-5,-1.9252214E-4,5.028248E-4,-1.1521429E-3,2.7084309E-6,-6.1626435E-4,-5.001426E-5],"categories":[],"categories_nodes":[],"categories_segments":[],"categories_sizes":[],"default_left":[0,0,0,0,0,0,0,0,0],"id":53,"left_children":[1,-1,3,5,-1,7,-1,-1,-1],"loss_changes":[1.11128014E-4,0E0,6.422769E-6,4.4588733E-6,0E0,3.213242E-6,0E0,0E0,0E0],"parents":[2147483647,0,0,2,2,3,3,5,5],"right_children":[2,-1,4,6,-1,8,-1,-1,-1],"split_conditions":[1.0932589E1,2.3174286E-3,1.0057648E1,1.9422E0,5.028248E-4,3.32E0,2.7084309E-6,-6.1626435E-4,-5.001426E-5],"split_indices":[10,0,20,37,0,6,0,0,0],"split_type":[0,0,0,0,0,0,0,0,0],"sum_hessian":[2.4E1,1E0,2.3E1,2.2E1,1E0,3E0,1.9E1,1E0,2E0],"tree_param":{"num_deleted":"0","num_feature":"39","num_nodes":"9","size_leaf_vector":"1"}},{"base_weights":[4.885732E-4,1.9695284E-3,-3.8160757E-5,-1.6369393E-4,4.2736533E-4,1.6500999E-5,-7.9250336E-4,-5.235672E-4,-7.587433E-5],"categories":[],"categories_nodes":[],"categories_segments":[],"categories_sizes":[],"default_left":[0,0,0,0,0,0,0,0,0],"id":54,"left_children":[1,-1,3,5,-1,-1,7,-1,-1],"loss_changes":[8.026827E-5,0E0,4.640042E-6,3.2065248E-6,0E0,0E0,2.6430725E-6,0E0,0E0],"parents":[2147483647,0,0,2,2,3,3,6,6],"right_children":[2,-1,4,6,-1,-1,8,-1,-1],"split_conditions":[1.0932589E1,1.9695284E-3,1.0057648E1,3.504944E-1,4.2736533E-4,1.6500999E-5,8.64649E-1,-5.235672E-4,-7.587433E-5],"split_indices":[10,0,20,20,0,0,4,0,0],"split_type":[0,0,0,0,0,0,0,0,0],"sum_hessian":[2.4E1,1E0,2.3E1,2.2E1,1E0,1.7E1,5E0,1E0,4E0],"tree_param":{"num_deleted":"0","num_feature":"39","num_nodes":"9","size_leaf_vector":"1"}},{"base_weights":[4.1468922E-4,1.6742707E-3,-3.310723E-5,-1.3984476E-4,3.632784E-4,4.0449333E-5,-5.104065E-4,-3.3087732E-4,-2.9672896E-5],"categories":[],"categories_nodes":[],"categories_segments":[],"categories_sizes":[],"default_left":[0,0,0,0,0,0,0,0,0],"id":55,"left_children":[1,-1,3,5,-1,-1,7,-1,-1],"loss_changes":[5.802006E-5,0E0,3.3561876E-6,2.4098592E-6,0E0,0E0,2.3291022E-6,0E0,0E0],"parents":[2147483647,0,0,2,2,3,3,6,6],"right_children":[2,-1,4,6,-1,-1,8,-1,-1],"split_conditions":[1.0932589E1,1.6742707E-3,1.0057648E1,-4.7324356E-3,3.632784E-4,4.0449333E-5,2.12467E0,-3.3087732E-4,-2.9672896E-5],"split_indices":[10,0,20,1,0,0,37,0,0],"split_type":[0,0,0,0,0,0,0,0,0],"sum_hessian":[2.4E1,1E0,2.3E1,2.2E1,1E0,1.3E1,9E0,3E0,6E0],"tree_param":{"num_deleted":"0","num_feature":"39","num_nodes":"9","size_leaf_vector":"1"}},{"base_weights":[3.59242E-4,1.4236451E-3,-2.1246537E-5,-4.4831503E-4,2.2030741E-4,-5.2457985E-5,-3.9539338E-4,2.7360173E-4,1.690503E-5],"categories":[],"categories_nodes":[],"categories_segments":[],"categories_sizes":[],"default_left":[0,0,0,0,0,0,0,0,0],"id":56,"left_children":[1,-1,3,5,7,-1,-1,-1,-1],"loss_changes":[4.182369E-5,0E0,2.5746092E-6,1.909862E-6,1.7631521E-6,0E0,0E0,0E0,0E0],"parents":[2147483647,0,0,2,2,3,3,4,4],"right_children":[2,-1,4,6,8,-1,-1,-1,-1],"split_conditions":[1.0932589E1,1.4236451E-3,3.32E0,3.3E0,2.27116E2,-5.2457985E-5,-3.9539338E-4,2.7360173E-4,1.690503E-5],"split_indices":[10,0,6,6,38,0,0,0,0],"split_type":[0,0,0,0,0,0,0,0,0],"sum_hessian":[2.4E1,1E0,2.3E1,8E0,1.5E1,7E0,1E0,2E0,1.3E1],"tree_param":{"num_deleted":"0","num_feature":"39","num_nodes":"9","size_leaf_vector":"1"}},{"base_weights":[3.0247628E-4,1.2096405E-3,-2.09318E-5,-9.9441946E-5,2.6772023E-4,3.6733534E-5,-3.526319E-4,-3.358841E-4,-4.9191716E-5],"categories":[],"categories_nodes":[],"categories_segments":[],"categories_sizes":[],"default_left":[0,0,0,0,0,0,0,0,0],"id":57,"left_children":[1,-1,3,5,-1,-1,7,-1,-1],"loss_changes":[3.0239442E-5,0E0,1.8096829E-6,1.3353083E-6,0E0,0E0,1.4080969E-6,0E0,0E0],"parents":[2147483647,0,0,2,2,3,3,6,6],"right_children":[2,-1,4,6,-1,-1,8,-1,-1],"split_conditions":[1.0932589E1,1.2096405E-3,1.0057648E1,1E0,2.6772023E-4,3.6733534E-5,1.5504109E-2,-3.358841E-4,-4.9191716E-5],"split_indices":[10,0,20,15,0,0,3,0,0],"split_type":[0,0,0,0,0,0,0,0,0],"sum_hessian":[2.4E1,1E0,2.3E1,2.2E1,1E0,1.2E1,1E1,1E0,9E0],"tree_param":{"num_deleted":"0","num_feature":"39","num_nodes":"9","size_leaf_vector":"1"}},{"base_weights":[2.5675577E-4,1.0276795E-3,-1.8012594E-5,-9.771584E-5,4.6859495E-5],"categories":[],"categories_nodes":[],"categories_segments":[],"categories_sizes":[],"default_left":[0,0,0,0,0],"id":58,"left_children":[1,-1,3,-1,-1],"loss_changes":[2.1829144E-5,0E0,1.3374181E-6,0E0,0E0],"parents":[2147483647,0,0,2,2],"right_children":[2,-1,4,-1,-1],"split_conditions":[1.0932589E1,1.0276795E-3,3.32E0,-9.771584E-5,4.6859495E-5],"split_indices":[10,0,6,0,0],"split_type":[0,0,0,0,0],"sum_hessian":[2.4E1,1E0,2.3E1,8E0,1.5E1],"tree_param":{"num_deleted":"0","num_feature":"39","num_nodes":"5","size_leaf_vector":"1"}},{"base_weights":[2.1889067E-4,8.7318424E-4,-1.4540058E-5,-7.910988E-5,2.2058487E-4,-8.678138E-5,4.1293202E-5],"categories":[],"categories_nodes":[],"categories_segments":[],"categories_sizes":[],"default_left":[0,0,0,0,0,0,0],"id":59,"left_children":[1,-1,3,5,-1,-1,-1],"loss_changes":[1.5750593E-5,0E0,1.2201505E-6,1.0875424E-6,0E0,0E0,0E0],"parents":[2147483647,0,0,2,2,3,3],"right_children":[2,-1,4,6,-1,-1,-1],"split_conditions":[1.0932589E1,8.7318424E-4,1.0057648E1,9.9149E0,2.2058487E-4,-8.678138E-5,4.1293202E-5],"split_indices":[10,0,20,37,0,0,0],"split_type":[0,0,0,0,0,0,0],"sum_hessian":[2.4E1,1E0,2.3E1,2.2E1,1E0,1.1E1,1.1E1],"tree_param":{"num_deleted":"0","num_feature":"39","num_nodes":"7","size_leaf_vector":"1"}},{"base_weights":[1.9511003E-4,7.427216E-4,-9.2157774E-7],"categories":[],"categories_nodes":[],"categories_segments":[],"categories_sizes":[],"default_left":[0,0,0],"id":60,"left_children":[1,-1,-1],"loss_changes":[1.1307091E-5,0E0,0E0],"parents":[2147483647,0,0],"right_children":[2,-1,-1],"split_conditions":[1.0932589E1,7.427216E-4,-9.2157774E-7],"split_indices":[10,0,0],"split_type":[0,0,0],"sum_hessian":[2.4E1,1E0,2.3E1],"tree_param":{"num_deleted":"0","num_feature":"39","num_nodes":"3","size_leaf_vector":"1"}},{"base_weights":[1.6580464E-4,6.317139E-4,-8.2887505E-7],"categories":[],"categories_nodes":[],"categories_segments":[],"categories_sizes":[],"default_left":[0,0,0],"id":61,"left_children":[1,-1,-1],"loss_changes":[8.180957E-6,0E0,0E0],"parents":[2147483647,0,0],"right_children":[2,-1,-1],"split_conditions":[1.0932589E1,6.317139E-4,-8.2887505E-7],"split_indices":[10,0,0],"split_type":[0,0,0],"sum_hessian":[2.4E1,1E0,2.3E1],"tree_param":{"num_deleted":"0","num_feature":"39","num_nodes":"3","size_leaf_vector":"1"}},{"base_weights":[1.4075116E-4,5.3672795E-4,-7.4258804E-7],"categories":[],"categories_nodes":[],"categories_segments":[],"categories_sizes":[],"default_left":[0,0,0],"id":62,"left_children":[1,-1,-1],"loss_changes":[5.9065824E-6,0E0,0E0],"parents":[2147483647,0,0],"right_children":[2,-1,-1],"split_conditions":[1.0932589E1,5.3672795E-4,-7.4258804E-7],"split_indices":[10,0,0],"split_type":[0,0,0],"sum_hessian":[2.4E1,1E0,2.3E1],"tree_param":{"num_deleted":"0","num_feature":"39","num_nodes":"3","size_leaf_vector":"1"}},{"base_weights":[1.1964257E-4,4.5661928E-4,-6.6330074E-7],"categories":[],"categories_nodes":[],"categories_segments":[],"categories_sizes":[],"default_left":[0,0,0],"id":63,"left_children":[1,-1,-1],"loss_changes":[4.275618E-6,0E0,0E0],"parents":[2147483647,0,0],"right_children":[2,-1,-1],"split_conditions":[1.0932589E1,4.5661928E-4,-6.6330074E-7],"split_indices":[10,0,0],"split_type":[0,0,0],"sum_hessian":[2.4E1,1E0,2.3E1],"tree_param":{"num_deleted":"0","num_feature":"39","num_nodes":"3","size_leaf_vector":"1"}},{"base_weights":[1.0154841E-4,7.326032E-4,-9.284544E-5,4.170947E-5,3.839493E-4,-2.1038056E-4,4.114945E-6],"categories":[],"categories_nodes":[],"categories_segments":[],"categories_sizes":[],"default_left":[0,0,0,0,0,0,0],"id":64,"left_children":[1,3,5,-1,-1,-1,-1],"loss_changes":[3.134848E-6,1.770976E-6,1.3063136E-6,0E0,0E0,0E0,0E0],"parents":[2147483647,0,0,1,1,2,2],"right_children":[2,4,6,-1,-1,-1,-1],"split_conditions":[3.2683553E-3,-2.4876028E-2,1.9422E0,4.170947E-5,3.839493E-4,-2.1038056E-4,4.114945E-6],"split_indices":[3,0,37,0,0,0,0],"split_type":[0,0,0,0,0,0,0],"sum_hessian":[2.4E1,5E0,1.9E1,3E0,2E0,2E0,1.7E1],"tree_param":{"num_deleted":"0","num_feature":"39","num_nodes":"7","size_leaf_vector":"1"}},{"base_weights":[8.006314E-5,3.3073427E-4,-2.5414568E-6],"categories":[],"categories_nodes":[],"categories_segments":[],"categories_sizes":[],"default_left":[0,0,0],"id":65,"left_children":[1,-1,-1],"loss_changes":[2.2722506E-6,0E0,0E0],"parents":[2147483647,0,0],"right_children":[2,-1,-1],"split_conditions":[1.0932589E1,3.3073427E-4,-2.5414568E-6],"split_indices":[10,0,0],"split_type":[0,0,0],"sum_hessian":[2.4E1,1E0,2.3E1],"tree_param":{"num_deleted":"0","num_feature":"39","num_nodes":"3","size_leaf_vector":"1"}},{"base_weights":[6.9516165E-5,1.5940741E-4,-2.1753662E-5],"categories":[],"categories_nodes":[],"categories_segments":[],"categories_sizes":[],"default_left":[0,0,0],"id":66,"left_children":[1,-1,-1],"loss_changes":[1.6783961E-6,0E0,0E0],"parents":[2147483647,0,0],"right_children":[2,-1,-1],"split_conditions":[3.2683553E-3,1.5940741E-4,-2.1753662E-5],"split_indices":[3,0,0],"split_type":[0,0,0],"sum_hessian":[2.4E1,5E0,1.9E1],"tree_param":{"num_deleted":"0","num_feature":"39","num_nodes":"3","size_leaf_vector":"1"}},{"base_weights":[5.4216678E-5,-6.752276E-5,2.5541676E-4,1.9632341E-4,1.5250762E-5],"categories":[],"categories_nodes":[],"categories_segments":[],"categories_sizes":[],"default_left":[0,0,0,0,0],"id":67,"left_children":[1,-1,3,-1,-1],"loss_changes":[1.4623299E-6,0E0,1.1911324E-6,0E0,0E0],"parents":[2147483647,0,0,2,2],"right_children":[2,-1,4,-1,-1],"split_conditions":[5.0301567E1,-6.752276E-5,1.4801858E1,1.9632341E-4,1.5250762E-5],"split_indices":[11,0,10,0,0],"split_type":[0,0,0,0,0],"sum_hessian":[2.4E1,1E1,1.4E1,4E0,1E1],"tree_param":{"num_deleted":"0","num_feature":"39","num_nodes":"5","size_leaf_vector":"1"}},{"base_weights":[4.3803695E-5,2.2773743E-4,-5.289464E-6],"categories":[],"categories_nodes":[],"categories_segments":[],"categories_sizes":[],"default_left":[0,0,0],"id":68,"left_children":[1,-1,-1],"loss_changes":[1.1120326E-6,0E0,0E0],"parents":[2147483647,0,0],"right_children":[2,-1,-1],"split_conditions":[1.0932589E1,2.2773743E-4,-5.289464E-6],"split_indices":[10,0,0],"split_type":[0,0,0],"sum_hessian":[2.4E1,1E0,2.3E1],"tree_param":{"num_deleted":"0","num_feature":"39","num_nodes":"3","size_leaf_vector":"1"}},{"base_weights":[3.9179533E-5],"categories":[],"categories_nodes":[],"categories_segments":[],"categories_sizes":[],"default_left":[0],"id":69,"left_children":[-1],"loss_changes":[0E0],"parents":[2147483647],"right_children":[-1],"split_conditions":[1.175386E-5],"split_indices":[0],"split_type":[0],"sum_hessian":[2.4E1],"tree_param":{"num_deleted":"0","num_feature":"39","num_nodes":"1","size_leaf_vector":"1"}},{"base_weights":[2.7947885E-5],"categories":[],"categories_nodes":[],"categories_segments":[],"categories_sizes":[],"default_left":[0],"id":70,"left_children":[-1],"loss_changes":[0E0],"parents":[2147483647],"right_children":[-1],"split_conditions":[8.384366E-6],"split_indices":[0],"split_type":[0],"sum_hessian":[2.4E1],"tree_param":{"num_deleted":"0","num_feature":"39","num_nodes":"1","size_leaf_vector":"1"}},{"base_weights":[2.0365382E-5],"categories":[],"categories_nodes":[],"categories_segments":[],"categories_sizes":[],"default_left":[0],"id":71,"left_children":[-1],"loss_changes":[0E0],"parents":[2147483647],"right_children":[-1],"split_conditions":[6.109615E-6],"split_indices":[0],"split_type":[0],"sum_hessian":[2.4E1],"tree_param":{"num_deleted":"0","num_feature":"39","num_nodes":"1","size_leaf_vector":"1"}},{"base_weights":[1.4072312E-5],"categories":[],"categories_nodes":[],"categories_segments":[],"categories_sizes":[],"default_left":[0],"id":72,"left_children":[-1],"loss_changes":[0E0],"parents":[2147483647],"right_children":[-1],"split_conditions":[4.221694E-6],"split_indices":[0],"split_type":[0],"sum_hessian":[2.4E1],"tree_param":{"num_deleted":"0","num_feature":"39","num_nodes":"1","size_leaf_vector":"1"}},{"base_weights":[1.01404175E-5],"categories":[],"categories_nodes":[],"categories_segments":[],"categories_sizes":[],"default_left":[0],"id":73,"left_children":[-1],"loss_changes":[0E0],"parents":[2147483647],"right_children":[-1],"split_conditions":[3.0421254E-6],"split_indices":[0],"split_type":[0],"sum_hessian":[2.4E1],"tree_param":{"num_deleted":"0","num_feature":"39","num_nodes":"1","size_leaf_vector":"1"}},{"base_weights":[6.892974E-6],"categories":[],"categories_nodes":[],"categories_segments":[],"categories_sizes":[],"default_left":[0],"id":74,"left_children":[-1],"loss_changes":[0E0],"parents":[2147483647],"right_children":[-1],"split_conditions":[2.0678922E-6],"split_indices":[0],"split_type":[0],"sum_hessian":[2.4E1],"tree_param":{"num_deleted":"0","num_feature":"39","num_nodes":"1","size_leaf_vector":"1"}},{"base_weights":[4.4887925E-6],"categories":[],"categories_nodes":[],"categories_segments":[],"categories_sizes":[],"default_left":[0],"id":75,"left_children":[-1],"loss_changes":[0E0],"parents":[2147483647],"right_children":[-1],"split_conditions":[1.3466378E-6],"split_indices":[0],"split_type":[0],"sum_hessian":[2.4E1],"tree_param":{"num_deleted":"0","num_feature":"39","num_nodes":"1","size_leaf_vector":"1"}},{"base_weights":[3.535868E-6],"categories":[],"categories_nodes":[],"categories_segments":[],"categories_sizes":[],"default_left":[0],"id":76,"left_children":[-1],"loss_changes":[0E0],"parents":[2147483647],"right_children":[-1],"split_conditions":[1.0607605E-6],"split_indices":[0],"split_type":[0],"sum_hessian":[2.4E1],"tree_param":{"num_deleted":"0","num_feature":"39","num_nodes":"1","size_leaf_vector":"1"}},{"base_weights":[2.6701857E-6],"categories":[],"categories_nodes":[],"categories_segments":[],"categories_sizes":[],"default_left":[0],"id":77,"left_children":[-1],"loss_changes":[0E0],"parents":[2147483647],"right_children":[-1],"split_conditions":[8.0105576E-7],"split_indices":[0],"split_type":[0],"sum_hessian":[2.4E1],"tree_param":{"num_deleted":"0","num_feature":"39","num_nodes":"1","size_leaf_vector":"1"}},{"base_weights":[2.4022534E-6],"categories":[],"categories_nodes":[],"categories_segments":[],"categories_sizes":[],"default_left":[0],"id":78,"left_children":[-1],"loss_changes":[0E0],"parents":[2147483647],"right_children":[-1],"split_conditions":[7.2067604E-7],"split_indices":[0],"split_type":[0],"sum_hessian":[2.4E1],"tree_param":{"num_deleted":"0","num_feature":"39","num_nodes":"1","size_leaf_vector":"1"}},{"base_weights":[2.1538651E-6],"categories":[],"categories_nodes":[],"categories_segments":[],"categories_sizes":[],"default_left":[0],"id":79,"left_children":[-1],"loss_changes":[0E0],"parents":[2147483647],"right_children":[-1],"split_conditions":[6.4615955E-7],"split_indices":[0],"split_type":[0],"sum_hessian":[2.4E1],"tree_param":{"num_deleted":"0","num_feature":"39","num_nodes":"1","size_leaf_vector":"1"}},{"base_weights":[1.9412394E-6],"categories":[],"categories_nodes":[],"categories_segments":[],"categories_sizes":[],"default_left":[0],"id":80,"left_children":[-1],"loss_changes":[0E0],"parents":[2147483647],"right_children":[-1],"split_conditions":[5.8237185E-7],"split_indices":[0],"split_type":[0],"sum_hessian":[2.4E1],"tree_param":{"num_deleted":"0","num_feature":"39","num_nodes":"1","size_leaf_vector":"1"}},{"base_weights":[1.7432543E-6],"categories":[],"categories_nodes":[],"categories_segments":[],"categories_sizes":[],"default_left":[0],"id":81,"left_children":[-1],"loss_changes":[0E0],"parents":[2147483647],"right_children":[-1],"split_conditions":[5.2297634E-7],"split_indices":[0],"split_type":[0],"sum_hessian":[2.4E1],"tree_param":{"num_deleted":"0","num_feature":"39","num_nodes":"1","size_leaf_vector":"1"}},{"base_weights":[1.5595562E-6],"categories":[],"categories_nodes":[],"categories_segments":[],"categories_sizes":[],"default_left":[0],"id":82,"left_children":[-1],"loss_changes":[0E0],"parents":[2147483647],"right_children":[-1],"split_conditions":[4.6786687E-7],"split_indices":[0],"split_type":[0],"sum_hessian":[2.4E1],"tree_param":{"num_deleted":"0","num_feature":"39","num_nodes":"1","size_leaf_vector":"1"}},{"base_weights":[1.4279509E-6],"categories":[],"categories_nodes":[],"categories_segments":[],"categories_sizes":[],"default_left":[0],"id":83,"left_children":[-1],"loss_changes":[0E0],"parents":[2147483647],"right_children":[-1],"split_conditions":[4.2838528E-7],"split_indices":[0],"split_type":[0],"sum_hessian":[2.4E1],"tree_param":{"num_deleted":"0","num_feature":"39","num_nodes":"1","size_leaf_vector":"1"}},{"base_weights":[1.3066566E-6],"categories":[],"categories_nodes":[],"categories_segments":[],"categories_sizes":[],"default_left":[0],"id":84,"left_children":[-1],"loss_changes":[0E0],"parents":[2147483647],"right_children":[-1],"split_conditions":[3.91997E-7],"split_indices":[0],"split_type":[0],"sum_hessian":[2.4E1],"tree_param":{"num_deleted":"0","num_feature":"39","num_nodes":"1","size_leaf_vector":"1"}},{"base_weights":[1.1930434E-6],"categories":[],"categories_nodes":[],"categories_segments":[],"categories_sizes":[],"default_left":[0],"id":85,"left_children":[-1],"loss_changes":[0E0],"parents":[2147483647],"right_children":[-1],"split_conditions":[3.5791305E-7],"split_indices":[0],"split_type":[0],"sum_hessian":[2.4E1],"tree_param":{"num_deleted":"0","num_feature":"39","num_nodes":"1","size_leaf_vector":"1"}},{"base_weights":[1.0881159E-6],"categories":[],"categories_nodes":[],"categories_segments":[],"categories_sizes":[],"default_left":[0],"id":86,"left_children":[-1],"loss_changes":[0E0],"parents":[2147483647],"right_children":[-1],"split_conditions":[3.264348E-7],"split_indices":[0],"split_type":[0],"sum_hessian":[2.4E1],"tree_param":{"num_deleted":"0","num_feature":"39","num_nodes":"1","size_leaf_vector":"1"}},{"base_weights":[9.916682E-7],"categories":[],"categories_nodes":[],"categories_segments":[],"categories_sizes":[],"default_left":[0],"id":87,"left_children":[-1],"loss_changes":[0E0],"parents":[2147483647],"right_children":[-1],"split_conditions":[2.975005E-7],"split_indices":[0],"split_type":[0],"sum_hessian":[2.4E1],"tree_param":{"num_deleted":"0","num_feature":"39","num_nodes":"1","size_leaf_vector":"1"}},{"base_weights":[9.0111104E-7],"categories":[],"categories_nodes":[],"categories_segments":[],"categories_sizes":[],"default_left":[0],"id":88,"left_children":[-1],"loss_changes":[0E0],"parents":[2147483647],"right_children":[-1],"split_conditions":[2.7033332E-7],"split_indices":[0],"split_type":[0],"sum_hessian":[2.4E1],"tree_param":{"num_deleted":"0","num_feature":"39","num_nodes":"1","size_leaf_vector":"1"}},{"base_weights":[8.1630424E-7],"categories":[],"categories_nodes":[],"categories_segments":[],"categories_sizes":[],"default_left":[0],"id":89,"left_children":[-1],"loss_changes":[0E0],"parents":[2147483647],"right_children":[-1],"split_conditions":[2.4489128E-7],"split_indices":[0],"split_type":[0],"sum_hessian":[2.4E1],"tree_param":{"num_deleted":"0","num_feature":"39","num_nodes":"1","size_leaf_vector":"1"}},{"base_weights":[7.394928E-7],"categories":[],"categories_nodes":[],"categories_segments":[],"categories_sizes":[],"default_left":[0],"id":90,"left_children":[-1],"loss_changes":[0E0],"parents":[2147483647],"right_children":[-1],"split_conditions":[2.2184786E-7],"split_indices":[0],"split_type":[0],"sum_hessian":[2.4E1],"tree_param":{"num_deleted":"0","num_feature":"39","num_nodes":"1","size_leaf_vector":"1"}},{"base_weights":[6.859831E-7],"categories":[],"categories_nodes":[],"categories_segments":[],"categories_sizes":[],"default_left":[0],"id":91,"left_children":[-1],"loss_changes":[0E0],"parents":[2147483647],"right_children":[-1],"split_conditions":[2.0579493E-7],"split_indices":[0],"split_type":[0],"sum_hessian":[2.4E1],"tree_param":{"num_deleted":"0","num_feature":"39","num_nodes":"1","size_leaf_vector":"1"}},{"base_weights":[6.37332E-7],"categories":[],"categories_nodes":[],"categories_segments":[],"categories_sizes":[],"default_left":[0],"id":92,"left_children":[-1],"loss_changes":[0E0],"parents":[2147483647],"right_children":[-1],"split_conditions":[1.911996E-7],"split_indices":[0],"split_type":[0],"sum_hessian":[2.4E1],"tree_param":{"num_deleted":"0","num_feature":"39","num_nodes":"1","size_leaf_vector":"1"}},{"base_weights":[5.922333E-7],"categories":[],"categories_nodes":[],"categories_segments":[],"categories_sizes":[],"default_left":[0],"id":93,"left_children":[-1],"loss_changes":[0E0],"parents":[2147483647],"right_children":[-1],"split_conditions":[1.7766999E-7],"split_indices":[0],"split_type":[0],"sum_hessian":[2.4E1],"tree_param":{"num_deleted":"0","num_feature":"39","num_nodes":"1","size_leaf_vector":"1"}},{"base_weights":[5.4941046E-7],"categories":[],"categories_nodes":[],"categories_segments":[],"categories_sizes":[],"default_left":[0],"id":94,"left_children":[-1],"loss_changes":[0E0],"parents":[2147483647],"right_children":[-1],"split_conditions":[1.6482315E-7],"split_indices":[0],"split_type":[0],"sum_hessian":[2.4E1],"tree_param":{"num_deleted":"0","num_feature":"39","num_nodes":"1","size_leaf_vector":"1"}},{"base_weights":[5.088054E-7],"categories":[],"categories_nodes":[],"categories_segments":[],"categories_sizes":[],"default_left":[0],"id":95,"left_children":[-1],"loss_changes":[0E0],"parents":[2147483647],"right_children":[-1],"split_conditions":[1.5264162E-7],"split_indices":[0],"split_type":[0],"sum_hessian":[2.4E1],"tree_param":{"num_deleted":"0","num_feature":"39","num_nodes":"1","size_leaf_vector":"1"}},{"base_weights":[4.715612E-7],"categories":[],"categories_nodes":[],"categories_segments":[],"categories_sizes":[],"default_left":[0],"id":96,"left_children":[-1],"loss_changes":[0E0],"parents":[2147483647],"right_children":[-1],"split_conditions":[1.4146836E-7],"split_indices":[0],"split_type":[0],"sum_hessian":[2.4E1],"tree_param":{"num_deleted":"0","num_feature":"39","num_nodes":"1","size_leaf_vector":"1"}},{"base_weights":[4.387868E-7],"categories":[],"categories_nodes":[],"categories_segments":[],"categories_sizes":[],"default_left":[0],"id":97,"left_children":[-1],"loss_changes":[0E0],"parents":[2147483647],"right_children":[-1],"split_conditions":[1.3163604E-7],"split_indices":[0],"split_type":[0],"sum_hessian":[2.4E1],"tree_param":{"num_deleted":"0","num_feature":"39","num_nodes":"1","size_leaf_vector":"1"}},{"base_weights":[4.0799148E-7],"categories":[],"categories_nodes":[],"categories_segments":[],"categories_sizes":[],"default_left":[0],"id":98,"left_children":[-1],"loss_changes":[0E0],"parents":[2147483647],"right_children":[-1],"split_conditions":[1.2239745E-7],"split_indices":[0],"split_type":[0],"sum_hessian":[2.4E1],"tree_param":{"num_deleted":"0","num_feature":"39","num_nodes":"1","size_leaf_vector":"1"}},{"base_weights":[3.791257E-7],"categories":[],"categories_nodes":[],"categories_segments":[],"categories_sizes":[],"default_left":[0],"id":99,"left_children":[-1],"loss_changes":[0E0],"parents":[2147483647],"right_children":[-1],"split_conditions":[1.1373772E-7],"split_indices":[0],"split_type":[0],"sum_hessian":[2.4E1],"tree_param":{"num_deleted":"0","num_feature":"39","num_nodes":"1","size_leaf_vector":"1"}}]},"name":"gbtree"},"learner_model_param":{"base_score":"[-1.8677534E1]","boost_from_average":"1","num_class":"0","num_feature":"39","num_target":"1"},"objective":{"name":"reg:squarederror","reg_loss_param":{"scale_pos_weight":"1"}}},"version":[3,1,1]}