{"learner":{"attributes":{"scikit_learn":"{\"_estimator_type\": \"regressor\"}"},"feature_names":["momentum_short","momentum_long","rsi","macd","volume_ratio","composite_score","volume_composite_score","trend_score","confidence_score","bb_position","trend_strength","stoch_k","stoch_d","poc_distance","ichimoku_bullish","vwap_bullish","rsi_bearish_div","ema_5_13_bullish","ema_9_21_bullish","ema_50_200_bullish","momentum_ratio","momentum_combined","rsi_oversold","rsi_overbought","rsi_neutral","macd_positive","macd_signal_cross","volume_high","volume_low","volume_surge","composite_strong","composite_weak","composite_very_strong","bb_upper_band","bb_lower_band","bb_middle","price_change_pct","price_change_abs","price_volatility"],"feature_types":["float","float","float","float","float","float","float","float","float","float","float","float","float","float","i","i","i","i","i","i","float","float","int","int","int","int","float","int","int","int","int","int","int","int","int","int","float","float","float"],"gradient_booster":{"model":{"cats":{"enc":[],"feature_segments":[],"sorted_idx":[]},"gbtree_model_param":{"num_parallel_tree":"1","num_trees":"100"},"iteration_indptr":[0,1,2,3,4,5,6,7,8,9,10,11,12,13,14,15,16,17,18,19,20,21,22,23,24,25,26,27,28,29,30,31,32,33,34,35,36,37,38,39,40,41,42,43,44,45,46,47,48,49,50,51,52,53,54,55,56,57,58,59,60,61,62,63,64,65,66,67,68,69,70,71,72,73,74,75,76,77,78,79,80,81,82,83,84,85,86,87,88,89,90,91,92,93,94,95,96,97,98,99,100],"tree_info":[0,0,0,0,0,0,0,0,0,0,0,0,0,0,0,0,0,0,0,0,0,0,0,0,0,0,0,0,0,0,0,0,0,0,0,0,0,0,0,0,0,0,0,0,0,0,0,0,0,0,0,0,0,0,0,0,0,0,0,0,0,0,0,0,0,0,0,0,0,0,0,0,0,0,0,0,0,0,0,0,0,0,0,0,0,0,0,0,0,0,0,0,0,0,0,0,0,0,0,0],"trees":[{"base_weights":[-3.8146973E-7,1.7073496E1,-1.0670936E1,-7.838131E0,2.428117E1,-1.6862217E1,2.4582376E0,-4.412484E0,8.85325E-1,4.765936E0,1.2456628E1,-5.45925E0,-6.136778E0,3.7435591E0,-2.0415268E0,-1.9728652E0,-3.1625235E-1,-8.054256E-3,-1.5263126E0,-2.8498078E-2,3.7914563E-2],"categories":[],"categories_nodes":[],"categories_segments":[],"categories_sizes":[],"default_left":[0,0,0,0,0,0,0,0,0,0,0,0,0,0,0,0,0,0,0,0,0],"id":0,"left_children":[1,3,5,7,9,11,13,-1,-1,-1,-1,15,-1,-1,17,-1,-1,19,-1,-1,-1],"loss_changes":[4.7369443E3,1.9858682E3,1.3420339E3,2.6577588E2,4.9822217E2,3.39094E2,2.96009E2,0E0,0E0,0E0,0E0,1.274881E1,0E0,0E0,3.0930655E1,0E0,0E0,5.8756616E-2,0E0,0E0,0E0],"parents":[2147483647,0,0,1,1,2,2,3,3,4,4,5,5,6,6,11,11,14,14,17,17],"right_children":[2,4,6,8,10,12,14,-1,-1,-1,-1,16,-1,-1,18,-1,-1,20,-1,-1,-1],"split_conditions":[8.196502E-1,2.4E0,8.928647E1,-2.3913998E-2,-7.6151125E-2,2.06E-1,3.466762E-2,-4.412484E0,8.85325E-1,4.765936E0,1.2456628E1,1.4513788E-3,-6.136778E0,3.7435591E0,1.0162477E-1,-1.9728652E0,-3.1625235E-1,9.328861E-2,-1.5263126E0,-2.8498078E-2,3.7914563E-2],"split_indices":[4,6,11,0,1,8,1,0,0,0,0,0,0,0,0,0,0,0,0,0,0],"split_type":[0,0,0,0,0,0,0,0,0,0,0,0,0,0,0,0,0,0,0,0,0],"sum_hessian":[2.4E1,9E0,1.5E1,2E0,7E0,1E1,5E0,1E0,1E0,6E0,1E0,3E0,7E0,1E0,4E0,2E0,1E0,3E0,1E0,2E0,1E0],"tree_param":{"num_deleted":"0","num_feature":"39","num_nodes":"21","size_leaf_vector":"1"}},{"base_weights":[2.9984692E-1,9.876695E0,-1.0898129E1,2.2345959E1,4.6644264E-1,-3.3321934E0,-1.5826343E1,3.8092916E0,1.0588134E1,3.025115E0,-6.0228133E0,-1.891864E0,1.7438971E0,-5.106765E0,-1.2973658E0,-5.050206E-1,-3.41168E0,7.5252634E-1,3.2227423E-2,-2.6881456E-1,-2.2798538E-2],"categories":[],"categories_nodes":[],"categories_segments":[],"categories_sizes":[],"default_left":[0,0,0,0,0,0,0,0,0,0,0,0,0,0,0,0,0,0,0,0,0],"id":1,"left_children":[1,3,5,7,9,11,13,-1,-1,-1,15,-1,17,-1,-1,19,-1,-1,-1,-1,-1],"loss_changes":[2.7886707E3,1.6323215E3,3.9470203E2,3.0140063E2,6.2241284E2,1.01575745E2,2.2694824E1,0E0,0E0,0E0,1.713598E2,0E0,3.4839E0,0E0,0E0,6.029484E-1,0E0,0E0,0E0,0E0,0E0],"parents":[2147483647,0,0,1,1,2,2,3,3,4,4,5,5,6,6,10,10,12,12,15,15],"right_children":[2,4,6,8,10,12,14,-1,-1,-1,16,-1,18,-1,-1,20,-1,-1,-1,-1,-1],"split_conditions":[1.01937146E3,3.6712603E-3,1.02067633E3,3.466762E-2,-1.2748222E-1,4.958395E1,3.581874E-1,3.8092916E0,1.0588134E1,3.025115E0,3.504944E-1,-1.891864E0,4.4929394E-3,-5.106765E0,-1.2973658E0,3.5929864E-3,-3.41168E0,7.5252634E-1,3.2227423E-2,-2.6881456E-1,-2.2798538E-2],"split_indices":[38,3,38,1,1,2,0,0,0,0,20,0,0,0,0,0,0,0,0,0,0],"split_type":[0,0,0,0,0,0,0,0,0,0,0,0,0,0,0,0,0,0,0,0,0],"sum_hessian":[2.4E1,1.3E1,1.1E1,5E0,8E0,5E0,6E0,4E0,1E0,3E0,5E0,3E0,2E0,5E0,1E0,3E0,2E0,1E0,1E0,1E0,2E0],"tree_param":{"num_deleted":"0","num_feature":"39","num_nodes":"21","size_leaf_vector":"1"}},{"base_weights":[4.5821327E-1,8.999913E0,-2.0226703E0,2.6617002E0,-6.147246E0,-9.284856E0,1.6754507E0,-3.527536E0,-4.624142E0,2.6106315E0,-1.470301E0,9.136772E-1,-1.548066E0,5.865097E-5,-1.102761E0,-2.2849245E-1,6.3964725E-1,-1.8238831E-2,2.7393438E-2],"categories":[],"categories_nodes":[],"categories_segments":[],"categories_sizes":[],"default_left":[0,0,0,0,0,0,0,0,0,0,0,0,0,0,0,0,0,0,0],"id":2,"left_children":[1,-1,3,-1,5,7,9,11,-1,-1,13,15,-1,17,-1,-1,-1,-1,-1],"loss_changes":[1.8929049E3,0E0,1.1330348E3,0E0,4.5735858E2,4.043495E2,1.4541937E2,6.2723557E1,0E0,0E0,1.6215115E1,7.747967E0,0E0,2.7764048E-2,0E0,0E0,0E0,0E0,0E0],"parents":[2147483647,0,0,2,2,4,4,5,5,6,6,7,7,10,10,11,11,13,13],"right_children":[2,-1,4,-1,6,8,10,12,-1,-1,14,16,-1,18,-1,-1,-1,-1,-1],"split_conditions":[1.0932589E1,8.999913E0,4.5013165E1,2.6617002E0,8.928647E1,-4.7324356E-3,3.466762E-2,-1.2969616E-1,-4.624142E0,2.6106315E0,1.0162477E-1,3.5929864E-3,-1.548066E0,9.328861E-2,-1.102761E0,-2.2849245E-1,6.3964725E-1,-1.8238831E-2,2.7393438E-2],"split_indices":[10,0,2,0,11,1,1,13,0,0,0,0,0,0,0,0,0,0,0],"split_type":[0,0,0,0,0,0,0,0,0,0,0,0,0,0,0,0,0,0,0],"sum_hessian":[2.4E1,1E0,2.3E1,6E0,1.7E1,1.2E1,5E0,7E0,5E0,1E0,4E0,2E0,5E0,3E0,1E0,1E0,1E0,2E0,1E0],"tree_param":{"num_deleted":"0","num_feature":"39","num_nodes":"19","size_leaf_vector":"1"}},{"base_weights":[6.174525E-1,7.6499267E0,-1.4817998E0,1.9772629E0,-4.5388517E0,-5.6760535E0,2.2190366E0,-8.361084E0,-2.3603504E0,-2.5494623E0,-1.0841984E1,-7.022953E-2,-1.5616332E0,-8.9030594E-1,-1.9421855E-1,-3.5281756E0,-9.37347E-1,-6.0830444E-1,2.1803914E-1],"categories":[],"categories_nodes":[],"categories_segments":[],"categories_sizes":[],"default_left":[0,0,0,0,0,0,0,0,0,0,0,0,0,0,0,0,0,0,0],"id":3,"left_children":[1,-1,3,-1,5,7,-1,9,11,13,15,17,-1,-1,-1,-1,-1,-1,-1],"loss_changes":[1.3436411E3,0E0,6.222012E2,0E0,2.863027E2,1.3161194E2,0E0,1.0212128E2,5.8274895E1,1.2606945E0,5.789917E0,1.0834559E1,0E0,0E0,0E0,0E0,0E0,0E0,0E0],"parents":[2147483647,0,0,2,2,4,4,5,5,7,7,8,8,9,9,10,10,11,11],"right_children":[2,-1,4,-1,6,8,-1,10,12,14,16,18,-1,-1,-1,-1,-1,-1,-1],"split_conditions":[1.0932589E1,7.6499267E0,4.5013165E1,1.9772629E0,1.0057648E1,1.00381E1,2.2190366E0,-4.7324356E-3,1.4099072E0,1.4513788E-3,3.581874E-1,-5.9293766E-2,-1.5616332E0,-8.9030594E-1,-1.9421855E-1,-3.5281756E0,-9.37347E-1,-6.0830444E-1,2.1803914E-1],"split_indices":[10,0,2,0,20,37,0,1,4,0,0,1,0,0,0,0,0,0,0],"split_type":[0,0,0,0,0,0,0,0,0,0,0,0,0,0,0,0,0,0,0],"sum_hessian":[2.4E1,1E0,2.3E1,6E0,1.7E1,1.6E1,1E0,8E0,8E0,3E0,5E0,5E0,3E0,2E0,1E0,4E0,1E0,1E0,4E0],"tree_param":{"num_deleted":"0","num_feature":"39","num_nodes":"19","size_leaf_vector":"1"}},{"base_weights":[6.0598814E-1,6.5024376E0,-1.174995E0,1.4868944E0,-6.684635E0,1.4129695E0,-1.2401981E0,-7.810143E-1,-2.2833471E0,1.8861812E0,-2.7751691E0,-1.7772855E0,-1.0290955E0,-4.919153E-1,-4.8359875E-2],"categories":[],"categories_nodes":[],"categories_segments":[],"categories_sizes":[],"default_left":[0,0,0,0,0,0,0,0,0,0,0,0,0,0,0],"id":4,"left_children":[1,-1,3,5,7,-1,9,-1,-1,-1,11,-1,13,-1,-1],"loss_changes":[9.635473E2,0E0,3.6192462E2,1.552615E2,1.0436218E1,0E0,1.3299269E2,0E0,0E0,0E0,4.3390633E1,0E0,3.445373E0,0E0,0E0],"parents":[2147483647,0,0,2,2,3,3,4,4,6,6,10,10,12,12],"right_children":[2,-1,4,6,8,-1,10,-1,-1,-1,12,-1,14,-1,-1],"split_conditions":[1.0932589E1,6.5024376E0,1.0206353E3,8.196502E-1,-4.3397713E-2,1.4129695E0,3.2555917E-3,-7.810143E-1,-2.2833471E0,1.8861812E0,4.4313725E1,-1.7772855E0,4.1587733E-2,-4.919153E-1,-4.8359875E-2],"split_indices":[10,0,38,4,1,0,3,0,0,0,11,0,0,0,0],"split_type":[0,0,0,0,0,0,0,0,0,0,0,0,0,0,0],"sum_hessian":[2.4E1,1E0,2.3E1,1.6E1,7E0,7E0,9E0,2E0,5E0,1E0,8E0,2E0,6E0,3E0,3E0],"tree_param":{"num_deleted":"0","num_feature":"39","num_nodes":"15","size_leaf_vector":"1"}},{"base_weights":[6.009784E-1,5.527072E0,-9.092786E-1,1.0985667E0,-5.0622897E0,3.9348605E0,-8.062174E-1,-6.248116E-1,-5.708367E0,-9.129868E-2,1.407634E0,-4.121433E0,9.521675E-1,-1.8733151E0,-4.5424291E-1,-4.9305326E-1,-1.7332798E0,7.743057E-1,-5.4134715E-1,-3.31053E-1,-3.7478685E-2],"categories":[],"categories_nodes":[],"categories_segments":[],"categories_sizes":[],"default_left":[0,0,0,0,0,0,0,0,0,0,0,0,0,0,0,0,0,0,0,0,0],"id":5,"left_children":[1,-1,3,5,7,9,11,-1,13,-1,-1,15,17,-1,-1,-1,-1,-1,19,-1,-1],"loss_changes":[6.896696E2,0E0,2.0568774E2,9.501531E1,3.5114746E0,2.3898918E1,6.8047966E1,0E0,4.034149E0,0E0,0E0,6.919861E0,2.0858936E1,0E0,0E0,0E0,0E0,0E0,1.0326136E0,0E0,0E0],"parents":[2147483647,0,0,2,2,3,3,4,4,5,5,6,6,8,8,11,11,12,12,18,18],"right_children":[2,-1,4,6,8,10,12,-1,14,-1,-1,16,18,-1,-1,-1,-1,-1,20,-1,-1],"split_conditions":[1.0932589E1,5.527072E0,1.0206353E3,8.654973E-3,-4.3397713E-2,4.547E1,2.0786341E-2,-6.248116E-1,3.581874E-1,-9.129868E-2,1.407634E0,1.7668664E-2,4.033779E-2,-1.8733151E0,-4.5424291E-1,-4.9305326E-1,-1.7332798E0,7.743057E-1,4.1587733E-2,-3.31053E-1,-3.7478685E-2],"split_indices":[10,0,38,3,1,5,3,0,0,0,0,0,0,0,0,0,0,0,0,0,0],"split_type":[0,0,0,0,0,0,0,0,0,0,0,0,0,0,0,0,0,0,0,0,0],"sum_hessian":[2.4E1,1E0,2.3E1,1.6E1,7E0,6E0,1E1,2E0,5E0,1E0,5E0,3E0,7E0,4E0,1E0,2E0,1E0,3E0,4E0,1E0,3E0],"tree_param":{"num_deleted":"0","num_feature":"39","num_nodes":"21","size_leaf_vector":"1"}},{"base_weights":[5.03504E-1,4.698011E0,-7.8051966E-1,7.393366E-1,-3.9126494E0,2.9424503E0,-7.2985727E-1,-3.0618498E-1,-1.2539984E0,-7.760382E-2,1.0557256E0,-3.4415865E0,7.172395E-1,-3.9444277E-1,-1.4732878E0,2.0002897E0,-4.5264855E-1,6.781804E-1,1.829032E-1,-2.8139478E-1,-2.9045822E-2],"categories":[],"categories_nodes":[],"categories_segments":[],"categories_sizes":[],"default_left":[0,0,0,0,0,0,0,0,0,0,0,0,0,0,0,0,0,0,0,0,0],"id":6,"left_children":[1,-1,3,5,7,9,11,-1,-1,-1,-1,13,15,-1,-1,17,19,-1,-1,-1,-1],"loss_changes":[4.987566E2,0E0,1.1714206E2,5.7173195E1,1.9191895E0,1.383149E1,4.5633923E1,0E0,0E0,0E0,0E0,6.0431404E0,1.291363E1,0E0,0E0,6.9732666E-2,7.72665E-1,0E0,0E0,0E0,0E0],"parents":[2147483647,0,0,2,2,3,3,4,4,5,5,6,6,11,11,12,12,15,15,16,16],"right_children":[2,-1,4,6,8,10,12,-1,-1,-1,-1,14,16,-1,-1,18,20,-1,-1,-1,-1],"split_conditions":[1.0932589E1,4.698011E0,1.0206353E3,8.654973E-3,-5.9293766E-2,4.547E1,2.0786341E-2,-3.0618498E-1,-1.2539984E0,-7.760382E-2,1.0557256E0,1.7668664E-2,4.033779E-2,-3.9444277E-1,-1.4732878E0,-1.2748222E-1,4.1587733E-2,6.781804E-1,1.829032E-1,-2.8139478E-1,-2.9045822E-2],"split_indices":[10,0,38,3,1,5,3,0,0,0,0,0,0,0,0,1,0,0,0,0,0],"split_type":[0,0,0,0,0,0,0,0,0,0,0,0,0,0,0,0,0,0,0,0,0],"sum_hessian":[2.4E1,1E0,2.3E1,1.6E1,7E0,6E0,1E1,1E0,6E0,1E0,5E0,3E0,7E0,2E0,1E0,3E0,4E0,2E0,1E0,1E0,3E0],"tree_param":{"num_deleted":"0","num_feature":"39","num_nodes":"21","size_leaf_vector":"1"}},{"base_weights":[4.644073E-1,3.9933095E0,-6.25495E-1,6.398743E-1,-2.805541E0,1.9227002E0,-1.2841448E0,-1.4177809E0,-3.2403755E-1,2.313508E0,-2.3918553E-1,-5.012733E-1,1.554677E-1,-7.503557E-2,-1.9800682E-1,3.0521894E-1,2.843702E0,-3.5221864E-2,7.8114513E-3,2.033117E-1,-6.596318E-2,5.016058E-1,1.1545819E0],"categories":[],"categories_nodes":[],"categories_segments":[],"categories_sizes":[],"default_left":[0,0,0,0,0,0,0,0,0,0,0,0,0,0,0,0,0,0,0,0,0,0,0],"id":7,"left_children":[1,-1,3,5,7,9,11,-1,13,15,-1,-1,-1,17,-1,19,21,-1,-1,-1,-1,-1,-1],"loss_changes":[3.583651E2,0E0,6.800071E1,4.195993E1,4.1357826E1,1.2474442E1,5.745577E0,0E0,3.6877978E-1,8.7150955E0,0E0,0E0,0E0,2.018728E-2,0E0,7.357861E-1,1.8070564E0,0E0,0E0,0E0,0E0,0E0,0E0],"parents":[2147483647,0,0,2,2,3,3,4,4,5,5,6,6,8,8,9,9,13,13,15,15,16,16],"right_children":[2,-1,4,6,8,10,12,-1,14,16,-1,-1,-1,18,-1,20,22,-1,-1,-1,-1,-1,-1],"split_conditions":[1.0932589E1,3.9933095E0,3.466762E-2,1.01900134E3,6.858712E1,2.2790168E-1,4.958395E1,-1.4177809E0,1.0162477E-1,1.9817E0,-2.3918553E-1,-5.012733E-1,1.554677E-1,9.328861E-2,-1.9800682E-1,-2.4876028E-2,-2.758198E-3,-3.5221864E-2,7.8114513E-3,2.033117E-1,-6.596318E-2,5.016058E-1,1.1545819E0],"split_indices":[10,0,1,38,2,3,2,0,0,37,0,0,0,0,0,0,0,0,0,0,0,0,0],"split_type":[0,0,0,0,0,0,0,0,0,0,0,0,0,0,0,0,0,0,0,0,0,0,0],"sum_hessian":[2.4E1,1E0,2.3E1,1.5E1,8E0,9E0,6E0,4E0,4E0,8E0,1E0,5E0,1E0,3E0,1E0,2E0,6E0,2E0,1E0,1E0,1E0,4E0,2E0],"tree_param":{"num_deleted":"0","num_feature":"39","num_nodes":"23","size_leaf_vector":"1"}},{"base_weights":[4.6743172E-1,3.394313E0,-4.5595667E-1,2.5031831E0,-9.978902E-1,2.942315E-1,1.0605627E0,4.0378174E-1,-1.6285523E0,-1.0558661E0,-1.1847397E0,-3.5985503E-1,-1.7998995E0,3.860836E-2,-2.3293008E-1,-6.146092E-1,-2.3558103E-1],"categories":[],"categories_nodes":[],"categories_segments":[],"categories_sizes":[],"default_left":[0,0,0,0,0,0,0,0,0,0,0,0,0,0,0,0,0],"id":8,"left_children":[1,-1,3,5,7,-1,-1,-1,9,11,-1,13,15,-1,-1,-1,-1],"loss_changes":[2.5555743E2,0E0,4.098567E1,2.81744E0,3.323338E1,0E0,0E0,0E0,1.8422634E1,7.1201305E0,0E0,1.9315962E0,1.5828133E-1,0E0,0E0,0E0,0E0],"parents":[2147483647,0,0,2,2,3,3,4,4,8,8,9,9,11,11,12,12],"right_children":[2,-1,4,6,8,-1,-1,-1,10,12,-1,14,16,-1,-1,-1,-1],"split_conditions":[1.0932589E1,3.394313E0,2.2711601E2,-6.401917E-2,-1.2748222E-1,2.942315E-1,1.0605627E0,4.0378174E-1,3.94561E1,1.0206353E3,-1.1847397E0,1.125E1,2.0241156E-1,3.860836E-2,-2.3293008E-1,-6.146092E-1,-2.3558103E-1],"split_indices":[10,0,38,0,1,0,0,0,10,38,0,6,13,0,0,0,0],"split_type":[0,0,0,0,0,0,0,0,0,0,0,0,0,0,0,0,0],"sum_hessian":[2.4E1,1E0,2.3E1,3E0,2E1,2E0,1E0,4E0,1.6E1,1.4E1,2E0,8E0,6E0,4E0,4E0,4E0,2E0],"tree_param":{"num_deleted":"0","num_feature":"39","num_nodes":"17","size_leaf_vector":"1"}},{"base_weights":[4.441473E-1,2.8851662E0,-3.3878157E-1,4.6680596E-1,-1.7332948E0,9.726934E-2,9.0147835E-1,-2.8719718E0,-2.4795875E-1,3.116548E-1,-8.564694E-1,-2.3317796E-1,-9.604005E-1,-1.1258126E-1,-3.7993748E-2,-3.434968E-1,-3.286661E-1,-1.7945766E-2,8.4857945E-4,-1.2331257E-1,-2.1129228E-2],"categories":[],"categories_nodes":[],"categories_segments":[],"categories_sizes":[],"default_left":[0,0,0,0,0,0,0,0,0,0,0,0,0,0,0,0,0,0,0,0,0],"id":9,"left_children":[1,-1,3,5,7,9,-1,11,13,-1,15,-1,-1,-1,17,19,-1,-1,-1,-1,-1],"loss_changes":[1.8280472E2,0E0,2.7770771E1,1.4714575E1,1.4509733E1,1.4360064E1,0E0,9.6133804E-1,1.1939749E-1,0E0,6.048298E-1,0E0,0E0,0E0,2.8421055E-3,4.4827074E-2,0E0,0E0,0E0,0E0,0E0],"parents":[2147483647,0,0,2,2,3,3,4,4,5,5,7,7,8,8,10,10,14,14,15,15],"right_children":[2,-1,4,6,8,10,-1,12,14,-1,16,-1,-1,-1,18,20,-1,-1,-1,-1,-1],"split_conditions":[1.0932589E1,2.8851662E0,3.466762E-2,4.1587733E-2,6.858712E1,8.196502E-1,9.0147835E-1,5.2131988E-2,1.9938537E0,3.116548E-1,2.06E-1,-2.3317796E-1,-9.604005E-1,-1.1258126E-1,9.328861E-2,1.4513788E-3,-3.286661E-1,-1.7945766E-2,8.4857945E-4,-1.2331257E-1,-2.1129228E-2],"split_indices":[10,0,1,0,2,4,0,1,3,0,8,0,0,0,0,0,0,0,0,0,0],"split_type":[0,0,0,0,0,0,0,0,0,0,0,0,0,0,0,0,0,0,0,0,0],"sum_hessian":[2.4E1,1E0,2.3E1,1.5E1,8E0,1.4E1,1E0,4E0,4E0,7E0,7E0,1E0,3E0,2E0,2E0,3E0,4E0,1E0,1E0,2E0,1E0],"tree_param":{"num_deleted":"0","num_feature":"39","num_nodes":"21","size_leaf_vector":"1"}},{"base_weights":[4.029804E-1,2.4523911E0,-2.614485E-1,1.7097298E0,-6.244611E-1,5.3595196E-2,6.4816177E-1,9.303353E-2,-1.4230086E0,7.331115E-1,-4.6889523E-1,-2.2054253E0,-1.9950676E-1,6.549945E-2,2.3772037E-1,-1.7959787E-2,-1.5812674E-1,-7.1467257E-1,-1.9820137E-1,-5.5914402E-2,-1.1608143E-1,-2.2846604E-2,7.2126393E-4],"categories":[],"categories_nodes":[],"categories_segments":[],"categories_sizes":[],"default_left":[0,0,0,0,0,0,0,0,0,0,0,0,0,0,0,0,0,0,0,0,0,0,0],"id":10,"left_children":[1,-1,3,5,7,-1,-1,9,11,13,15,17,19,-1,-1,-1,-1,-1,-1,21,-1,-1,-1],"loss_changes":[1.3123007E2,0E0,1.824116E1,2.374918E0,1.2164411E1,0E0,0E0,4.659891E0,9.132885E0,1.0121107E-2,1.3506627E-1,6.495094E-2,1.12933114E-1,0E0,0E0,0E0,0E0,0E0,0E0,4.904789E-3,0E0,0E0,0E0],"parents":[2147483647,0,0,2,2,3,3,4,4,7,7,8,8,9,9,10,10,11,11,12,12,19,19],"right_children":[2,-1,4,6,8,-1,-1,10,12,14,16,18,20,-1,-1,-1,-1,-1,-1,22,-1,-1,-1],"split_conditions":[1.0932589E1,2.4523911E0,2.2711601E2,-4.5446098E-1,-4.7324356E-3,5.3595196E-2,6.4816177E-1,7.7432317E-1,6.858712E1,-2.4876028E-2,4.821388E-3,2.245E1,1.0162477E-1,6.549945E-2,2.3772037E-1,-1.7959787E-2,-1.5812674E-1,-7.1467257E-1,-1.9820137E-1,9.328861E-2,-1.1608143E-1,-2.2846604E-2,7.2126393E-4],"split_indices":[10,0,38,1,1,0,0,4,2,0,3,6,0,0,0,0,0,0,0,0,0,0,0],"split_type":[0,0,0,0,0,0,0,0,0,0,0,0,0,0,0,0,0,0,0,0,0,0,0],"sum_hessian":[2.4E1,1E0,2.3E1,3E0,2E1,1E0,2E0,1.1E1,9E0,5E0,6E0,5E0,4E0,1E0,4E0,1E0,5E0,4E0,1E0,3E0,1E0,2E0,1E0],"tree_param":{"num_deleted":"0","num_feature":"39","num_nodes":"23","size_leaf_vector":"1"}},{"base_weights":[3.712941E-1,2.0845323E0,-1.9227202E-1,-3.9455408E-1,6.690323E-1,5.882963E-1,-7.760481E-1,6.748697E-2,2.0659228E-1,-4.710027E-1,-6.127777E-1,-1.8479614E-1,-8.695132E-1,6.270409E-4,-1.11630134E-1,-7.670975E-2,-2.8234085E-1],"categories":[],"categories_nodes":[],"categories_segments":[],"categories_sizes":[],"default_left":[0,0,0,0,0,0,0,0,0,0,0,0,0,0,0,0,0],"id":11,"left_children":[1,-1,3,5,-1,7,9,-1,-1,11,-1,13,15,-1,-1,-1,-1],"loss_changes":[9.400242E1,0E0,1.2639992E1,9.080432E0,0E0,1.0030007E-1,5.6059427E0,0E0,0E0,1.5501621E0,0E0,3.5082385E-1,2.313137E-2,0E0,0E0,0E0,0E0],"parents":[2147483647,0,0,2,2,3,3,5,5,6,6,9,9,11,11,12,12],"right_children":[2,-1,4,6,-1,8,10,-1,-1,12,-1,14,16,-1,-1,-1,-1],"split_conditions":[1.0932589E1,2.0845323E0,1.0057648E1,4.5013165E1,6.690323E-1,3.6794888E1,3.94561E1,6.748697E-2,2.0659228E-1,1.02067633E3,-6.127777E-1,1.195E1,-5.9293766E-2,6.270409E-4,-1.11630134E-1,-7.670975E-2,-2.8234085E-1],"split_indices":[10,0,20,2,0,2,10,0,0,38,0,6,1,0,0,0,0],"split_type":[0,0,0,0,0,0,0,0,0,0,0,0,0,0,0,0,0],"sum_hessian":[2.4E1,1E0,2.3E1,2.2E1,1E0,6E0,1.6E1,2E0,4E0,1.4E1,2E0,9E0,5E0,5E0,4E0,1E0,4E0],"tree_param":{"num_deleted":"0","num_feature":"39","num_nodes":"17","size_leaf_vector":"1"}},{"base_weights":[3.3769813E-1,1.7718521E0,-1.4041227E-1,-3.1135118E-1,5.686774E-1,4.509616E-1,-6.069299E-1,5.3989574E-2,1.5701012E-1,-3.610391E-1,-4.902222E-1,-1.404581E-1,-6.685009E-1,4.7016147E-4,-8.483906E-2,-2.4006473E-1,-8.101426E-2],"categories":[],"categories_nodes":[],"categories_segments":[],"categories_sizes":[],"default_left":[0,0,0,0,0,0,0,0,0,0,0,0,0,0,0,0,0],"id":12,"left_children":[1,-1,3,5,-1,7,9,-1,-1,11,-1,13,15,-1,-1,-1,-1],"loss_changes":[6.7387955E1,0E0,8.942969E0,5.4561415E0,0E0,4.3163538E-2,3.7036443E0,0E0,0E0,9.234072E-1,0E0,2.0260027E-1,9.8796844E-2,0E0,0E0,0E0,0E0],"parents":[2147483647,0,0,2,2,3,3,5,5,6,6,9,9,11,11,12,12],"right_children":[2,-1,4,6,-1,8,10,-1,-1,12,-1,14,16,-1,-1,-1,-1],"split_conditions":[1.0932589E1,1.7718521E0,1.0057648E1,4.5013165E1,5.686774E-1,3.6794888E1,3.94561E1,5.3989574E-2,1.5701012E-1,1.02067633E3,-4.902222E-1,1.195E1,2.0241156E-1,4.7016147E-4,-8.483906E-2,-2.4006473E-1,-8.101426E-2],"split_indices":[10,0,20,2,0,2,10,0,0,38,0,6,13,0,0,0,0],"split_type":[0,0,0,0,0,0,0,0,0,0,0,0,0,0,0,0,0],"sum_hessian":[2.4E1,1E0,2.3E1,2.2E1,1E0,6E0,1.6E1,2E0,4E0,1.4E1,2E0,9E0,5E0,5E0,4E0,3E0,2E0],"tree_param":{"num_deleted":"0","num_feature":"39","num_nodes":"17","size_leaf_vector":"1"}},{"base_weights":[3.0262315E-1,1.5060745E0,-1.0312157E-1,-2.4771404E-1,4.8337582E-1,-1.4726592E-2,-9.0539074E-1,3.4581593E-1,-2.2381584E-1,-4.0979767E-1,-1.00077584E-1,5.3863186E-2,1.2769018E-1,-6.9820724E-2,-1.5430528E-1,2.948904E-2,-3.9569013E-2],"categories":[],"categories_nodes":[],"categories_segments":[],"categories_sizes":[],"default_left":[0,0,0,0,0,0,0,0,0,0,0,0,0,0,0,0,0],"id":13,"left_children":[1,-1,3,5,-1,7,9,11,13,-1,-1,-1,-1,15,-1,-1,-1],"loss_changes":[4.8371487E1,0E0,6.3483844E0,3.5109668E0,0E0,1.4343392E0,1.1245441E0,1.6480446E-2,5.0097936E-1,0E0,0E0,0E0,0E0,1.0688956E-1,0E0,0E0,0E0],"parents":[2147483647,0,0,2,2,3,3,5,5,6,6,7,7,8,8,13,13],"right_children":[2,-1,4,6,-1,8,10,12,14,-1,-1,-1,-1,16,-1,-1,-1],"split_conditions":[1.0932589E1,1.5060745E0,1.0057648E1,3.504944E-1,4.8337582E-1,4.5013165E1,2.245E1,-3.3480358E-1,1.02067633E3,-4.0979767E-1,-1.00077584E-1,5.3863186E-2,1.2769018E-1,8.7588155E-1,-1.5430528E-1,2.948904E-2,-3.9569013E-2],"split_indices":[10,0,20,20,0,2,6,1,38,0,0,0,0,4,0,0,0],"split_type":[0,0,0,0,0,0,0,0,0,0,0,0,0,0,0,0,0],"sum_hessian":[2.4E1,1E0,2.3E1,2.2E1,1E0,1.7E1,5E0,6E0,1.1E1,2E0,3E0,3E0,3E0,8E0,3E0,2E0,6E0],"tree_param":{"num_deleted":"0","num_feature":"39","num_nodes":"17","size_leaf_vector":"1"}},{"base_weights":[2.7170616E-1,1.2801636E0,-7.257375E-2,-1.9482172E-1,4.1086945E-1,-9.35468E-3,-7.1875256E-1,2.6800734E-1,-1.7036963E-1,-3.8373587E-1,-3.5085526E-1,4.7422383E-2,1.08567834E-1,-1.3951188E-1,-6.4931676E-2,-1.16993524E-1,-2.9154398E-2,3.9361954E-2,-3.0390995E-2],"categories":[],"categories_nodes":[],"categories_segments":[],"categories_sizes":[],"default_left":[0,0,0,0,0,0,0,0,0,0,0,0,0,0,0,0,0,0,0],"id":14,"left_children":[1,-1,3,5,-1,7,9,11,13,-1,15,-1,-1,-1,17,-1,-1,-1,-1],"loss_changes":[3.4698994E1,0E0,4.497985E0,2.22823E0,0E0,8.4953004E-1,7.8815913E-1,1.504153E-2,3.426369E-1,0E0,1.1723995E-2,0E0,0E0,0E0,8.4630325E-2,0E0,0E0,0E0,0E0],"parents":[2147483647,0,0,2,2,3,3,5,5,6,6,7,7,8,8,10,10,14,14],"right_children":[2,-1,4,6,-1,8,10,12,14,-1,16,-1,-1,-1,18,-1,-1,-1,-1],"split_conditions":[1.0932589E1,1.2801636E0,1.0057648E1,3.504944E-1,4.1086945E-1,4.5013165E1,8.64649E-1,4.160811E1,-2.3913998E-2,-3.8373587E-1,3.581874E-1,4.7422383E-2,1.08567834E-1,-1.3951188E-1,7.7432317E-1,-1.16993524E-1,-2.9154398E-2,3.9361954E-2,-3.0390995E-2],"split_indices":[10,0,20,20,0,2,4,2,0,0,0,0,0,0,4,0,0,0,0],"split_type":[0,0,0,0,0,0,0,0,0,0,0,0,0,0,0,0,0,0,0],"sum_hessian":[2.4E1,1E0,2.3E1,2.2E1,1E0,1.7E1,5E0,6E0,1.1E1,1E0,4E0,4E0,2E0,2E0,9E0,3E0,1E0,1E0,8E0],"tree_param":{"num_deleted":"0","num_feature":"39","num_nodes":"19","size_leaf_vector":"1"}},{"base_weights":[2.3765834E-1,1.0881392E0,-5.470011E-2,-1.5830708E-1,3.49239E-1,-5.1342044E-3,-5.9144115E-1,2.0988943E-1,-1.301368E-1,-3.261755E-1,-2.7482873E-1,2.2934547E-2,7.439283E-2,-1.1160965E-1,-4.455452E-2,-9.067011E-2,-2.4781324E-2,3.3457663E-2,-2.2286542E-2],"categories":[],"categories_nodes":[],"categories_segments":[],"categories_sizes":[],"default_left":[0,0,0,0,0,0,0,0,0,0,0,0,0,0,0,0,0,0,0],"id":15,"left_children":[1,-1,3,5,-1,7,9,11,13,-1,15,-1,-1,-1,17,-1,-1,-1,-1],"loss_changes":[2.4971924E1,0E0,3.2149928E0,1.5228841E0,0E0,5.1112765E-1,6.430707E-1,1.6618848E-2,2.3184781E-1,0E0,1.3736784E-3,0E0,0E0,0E0,5.469384E-2,0E0,0E0,0E0,0E0],"parents":[2147483647,0,0,2,2,3,3,5,5,6,6,7,7,8,8,10,10,14,14],"right_children":[2,-1,4,6,-1,8,10,12,14,-1,16,-1,-1,-1,18,-1,-1,-1,-1],"split_conditions":[1.0932589E1,1.0881392E0,1.0057648E1,3.504944E-1,3.49239E-1,4.5013165E1,8.64649E-1,3.6794888E1,-2.3913998E-2,-3.261755E-1,3.581874E-1,2.2934547E-2,7.439283E-2,-1.1160965E-1,7.7432317E-1,-9.067011E-2,-2.4781324E-2,3.3457663E-2,-2.2286542E-2],"split_indices":[10,0,20,20,0,2,4,2,0,0,0,0,0,0,4,0,0,0,0],"split_type":[0,0,0,0,0,0,0,0,0,0,0,0,0,0,0,0,0,0,0],"sum_hessian":[2.4E1,1E0,2.3E1,2.2E1,1E0,1.7E1,5E0,6E0,1.1E1,1E0,4E0,2E0,4E0,2E0,9E0,3E0,1E0,1E0,8E0],"tree_param":{"num_deleted":"0","num_feature":"39","num_nodes":"19","size_leaf_vector":"1"}},{"base_weights":[2.0606685E-1,9.249184E-1,-4.22688E-2,-1.3015097E-1,2.9685318E-1,-3.7665504E-3,-4.876124E-1,6.4784795E-2,-2.5989246E-1,-2.7724916E-1,-2.1546936E-1,1.6442236E-1,-4.295087E-2,-8.9287564E-2,-2.2004128E-2,-8.054695E-2,-2.718773E-2,2.436172E-2,6.820127E-2,-3.9881516E-2,-3.3312934E-3],"categories":[],"categories_nodes":[],"categories_segments":[],"categories_sizes":[],"default_left":[0,0,0,0,0,0,0,0,0,0,0,0,0,0,0,0,0,0,0,0,0],"id":16,"left_children":[1,-1,3,5,-1,7,9,11,13,-1,15,17,19,-1,-1,-1,-1,-1,-1,-1,-1],"loss_changes":[1.7991823E1,0E0,2.304986E0,1.0372472E0,0E0,3.3287707E-1,5.136975E-1,1.6807987E-1,6.325543E-3,0E0,8.764237E-3,2.3423627E-2,2.145015E-2,0E0,0E0,0E0,0E0,0E0,0E0,0E0,0E0],"parents":[2147483647,0,0,2,2,3,3,5,5,6,6,7,7,8,8,10,10,11,11,12,12],"right_children":[2,-1,4,6,-1,8,10,12,14,-1,16,18,20,-1,-1,-1,-1,-1,-1,-1,-1],"split_conditions":[1.0932589E1,9.249184E-1,1.0057648E1,3.504944E-1,2.9685318E-1,1.02067633E3,8.64649E-1,8.196502E-1,-2.3913998E-2,-2.7724916E-1,1.8702618E0,4.160811E1,-1.19778074E-1,-8.9287564E-2,-2.2004128E-2,-8.054695E-2,-2.718773E-2,2.436172E-2,6.820127E-2,-3.9881516E-2,-3.3312934E-3],"split_indices":[10,0,20,20,0,38,4,4,0,0,4,2,1,0,0,0,0,0,0,0,0],"split_type":[0,0,0,0,0,0,0,0,0,0,0,0,0,0,0,0,0,0,0,0,0],"sum_hessian":[2.4E1,1E0,2.3E1,2.2E1,1E0,1.7E1,5E0,1.4E1,3E0,1E0,4E0,7E0,7E0,2E0,1E0,2E0,2E0,4E0,3E0,1E0,6E0],"tree_param":{"num_deleted":"0","num_feature":"39","num_nodes":"21","size_leaf_vector":"1"}},{"base_weights":[1.7524074E-1,7.8618056E-1,-3.5841037E-2,-1.1053708E-1,2.523252E-1,-6.0775643E-3,-4.0549278E-1,4.8639793E-2,-2.0974827E-1,-2.0030099E-1,-3.224602E-2,1.2666604E-1,-3.5466433E-2,-7.1430214E-2,-1.8703653E-2,2.3258682E-2,7.059387E-2,-3.3899117E-2,-2.474458E-3],"categories":[],"categories_nodes":[],"categories_segments":[],"categories_sizes":[],"default_left":[0,0,0,0,0,0,0,0,0,0,0,0,0,0,0,0,0,0,0],"id":17,"left_children":[1,-1,3,5,-1,7,9,11,13,-1,-1,15,17,-1,-1,-1,-1,-1,-1],"loss_changes":[1.2998204E1,0E0,1.6650391E0,7.0618695E-1,0E0,2.1079993E-1,3.970167E-1,1.029298E-1,1.8723905E-3,0E0,0E0,2.4465188E-2,1.5949955E-2,0E0,0E0,0E0,0E0,0E0,0E0],"parents":[2147483647,0,0,2,2,3,3,5,5,6,6,7,7,8,8,11,11,12,12],"right_children":[2,-1,4,6,-1,8,10,12,14,-1,-1,16,18,-1,-1,-1,-1,-1,-1],"split_conditions":[1.0932589E1,7.8618056E-1,1.0057648E1,3.504944E-1,2.523252E-1,1.02067633E3,2.245E1,8.196502E-1,-2.3913998E-2,-2.0030099E-1,-3.224602E-2,4.4929394E-3,-1.19778074E-1,-7.1430214E-2,-1.8703653E-2,2.3258682E-2,7.059387E-2,-3.3899117E-2,-2.474458E-3],"split_indices":[10,0,20,20,0,38,6,4,0,0,0,0,1,0,0,0,0,0,0],"split_type":[0,0,0,0,0,0,0,0,0,0,0,0,0,0,0,0,0,0,0],"sum_hessian":[2.4E1,1E0,2.3E1,2.2E1,1E0,1.7E1,5E0,1.4E1,3E0,2E0,3E0,7E0,7E0,2E0,1E0,6E0,1E0,1E0,6E0],"tree_param":{"num_deleted":"0","num_feature":"39","num_nodes":"19","size_leaf_vector":"1"}},{"base_weights":[1.5360044E-1,6.682532E-1,-2.5625417E-2,-8.890665E-2,2.1447645E-1,-6.0687447E-3,-3.226026E-1,3.7879452E-2,-5.0807193E-2,-2.0561658E-1,-1.12967685E-1,9.2796355E-2,-3.8139343E-2,-4.118271E-2,-1.5301133E-2,6.000479E-2,1.6317574E-2,-2.8814508E-2,-3.7439347E-3],"categories":[],"categories_nodes":[],"categories_segments":[],"categories_sizes":[],"default_left":[0,0,0,0,0,0,0,0,0,0,0,0,0,0,0,0,0,0,0],"id":18,"left_children":[1,-1,3,5,-1,7,9,11,-1,-1,13,15,17,-1,-1,-1,-1,-1,-1],"loss_changes":[9.349538E0,0E0,1.1882665E0,4.432965E-1,0E0,1.3558744E-1,3.7888885E-1,6.615995E-2,0E0,0E0,5.2951276E-4,2.618014E-2,9.2027765E-3,0E0,0E0,0E0,0E0,0E0,0E0],"parents":[2147483647,0,0,2,2,3,3,5,5,6,6,7,7,10,10,11,11,12,12],"right_children":[2,-1,4,6,-1,8,10,12,-1,-1,14,16,18,-1,-1,-1,-1,-1,-1],"split_conditions":[1.0932589E1,6.682532E-1,1.0057648E1,3.504944E-1,2.1447645E-1,1.02067633E3,8.64649E-1,8.7588155E-1,-5.0807193E-2,-2.0561658E-1,1.8702618E0,1.4686608E-1,-1.19778074E-1,-4.118271E-2,-1.5301133E-2,6.000479E-2,1.6317574E-2,-2.8814508E-2,-3.7439347E-3],"split_indices":[10,0,20,20,0,38,4,4,0,0,4,4,1,0,0,0,0,0,0],"split_type":[0,0,0,0,0,0,0,0,0,0,0,0,0,0,0,0,0,0,0],"sum_hessian":[2.4E1,1E0,2.3E1,2.2E1,1E0,1.7E1,5E0,1.4E1,3E0,1E0,4E0,8E0,6E0,2E0,2E0,1E0,7E0,1E0,5E0],"tree_param":{"num_deleted":"0","num_feature":"39","num_nodes":"19","size_leaf_vector":"1"}},{"base_weights":[1.320639E-1,5.680149E-1,-2.0215368E-2,-7.393631E-2,1.8230496E-1,-1.1106612E-2,-2.9790193E-1,8.065911E-2,-7.1358204E-2,-1.5019493E-1,4.146576E-3,4.3606527E-2,5.100407E-2,-8.983612E-3,-9.115156E-2,-4.840851E-4,2.3500444E-3,-8.892797E-4,1.5558711E-2,-8.507539E-3,2.0782473E-3,-9.666968E-3,-3.457356E-2],"categories":[],"categories_nodes":[],"categories_segments":[],"categories_sizes":[],"default_left":[0,0,0,0,0,0,0,0,0,0,0,0,0,0,0,0,0,0,0,0,0,0,0],"id":19,"left_children":[1,-1,3,5,-1,7,9,11,13,-1,15,17,-1,19,21,-1,-1,-1,-1,-1,-1,-1,-1],"loss_changes":[6.7435846E0,0E0,8.544811E-1,3.2034028E-1,0E0,1.1080726E-1,3.0827433E-1,1.90728E-2,1.39963515E-2,0E0,7.635208E-5,2.845102E-3,0E0,1.4295536E-3,9.0646E-3,0E0,0E0,0E0,0E0,0E0,0E0,0E0,0E0],"parents":[2147483647,0,0,2,2,3,3,5,5,6,6,7,7,8,8,10,10,11,11,13,13,14,14],"right_children":[2,-1,4,6,-1,8,10,12,14,-1,16,18,-1,20,22,-1,-1,-1,-1,-1,-1,-1,-1],"split_conditions":[1.0932589E1,5.680149E-1,1.0057648E1,8.16E0,1.8230496E-1,8.196502E-1,6.858712E1,4.4929394E-3,1.0186467E3,-1.5019493E-1,4.8001368E-2,3.222619E1,5.100407E-2,-2.2329737E-2,2.18E0,-4.840851E-4,2.3500444E-3,-8.892797E-4,1.5558711E-2,-8.507539E-3,2.0782473E-3,-9.666968E-3,-3.457356E-2],"split_indices":[10,0,20,7,0,4,2,0,38,0,0,2,0,1,7,0,0,0,0,0,0,0,0],"split_type":[0,0,0,0,0,0,0,0,0,0,0,0,0,0,0,0,0,0,0,0,0,0,0],"sum_hessian":[2.4E1,1E0,2.3E1,2.2E1,1E0,1.8E1,4E0,7E0,1.1E1,2E0,2E0,6E0,1E0,3E0,8E0,1E0,1E0,1E0,5E0,1E0,2E0,3E0,5E0],"tree_param":{"num_deleted":"0","num_feature":"39","num_nodes":"23","size_leaf_vector":"1"}},{"base_weights":[1.1712433E-1,4.8281252E-1,-1.2110077E-2,-5.755232E-2,1.5495923E-1,1.7169549E-3,-2.2576809E-1,9.8146714E-2,-2.4112111E-2,-1.5224476E-1,-6.7928694E-2,1.03563825E-2,4.3353457E-2,-3.153E-2,-3.5678223E-3,-2.6031494E-2,-7.932854E-3,2.6617208E-3,-1.4397812E-2],"categories":[],"categories_nodes":[],"categories_segments":[],"categories_sizes":[],"default_left":[0,0,0,0,0,0,0,0,0,0,0,0,0,0,0,0,0,0,0],"id":20,"left_children":[1,-1,3,5,-1,7,9,11,13,-1,15,-1,-1,-1,17,-1,-1,-1,-1],"loss_changes":[4.8407426E0,0E0,6.062705E-1,2.2969823E-1,0E0,4.7198955E-2,2.323212E-1,6.8112016E-3,2.4582598E-2,0E0,1.6140882E-3,0E0,0E0,0E0,7.6103327E-3,0E0,0E0,0E0,0E0],"parents":[2147483647,0,0,2,2,3,3,5,5,6,6,7,7,8,8,10,10,14,14],"right_children":[2,-1,4,6,-1,8,10,12,14,-1,16,-1,-1,-1,18,-1,-1,-1,-1],"split_conditions":[1.0932589E1,4.8281252E-1,1.0057648E1,3.504944E-1,1.5495923E-1,2.3779461E-1,8.64649E-1,-1.2991108E-2,-3.421424E-4,-1.5224476E-1,1.8702618E0,1.03563825E-2,4.3353457E-2,-3.153E-2,1.02067633E3,-2.6031494E-2,-7.932854E-3,2.6617208E-3,-1.4397812E-2],"split_indices":[10,0,20,20,0,4,4,0,21,0,4,0,0,0,38,0,0,0,0],"split_type":[0,0,0,0,0,0,0,0,0,0,0,0,0,0,0,0,0,0,0],"sum_hessian":[2.4E1,1E0,2.3E1,2.2E1,1E0,1.7E1,5E0,3E0,1.4E1,1E0,4E0,2E0,1E0,2E0,1.2E1,2E0,2E0,1E1,2E0],"tree_param":{"num_deleted":"0","num_feature":"39","num_nodes":"19","size_leaf_vector":"1"}},{"base_weights":[1.0046696E-1,4.1039088E-1,-9.344374E-3,-4.792901E-2,1.3171536E-1,1.7814703E-3,-1.890723E-1,3.685044E-2,-1.256489E-2,-1.2940808E-1,-5.434265E-2,-2.5224306E-2,2.5759945E-3,-2.0825196E-2,-6.3461307E-3,7.786378E-3,-6.3373805E-3],"categories":[],"categories_nodes":[],"categories_segments":[],"categories_sizes":[],"default_left":[0,0,0,0,0,0,0,0,0,0,0,0,0,0,0,0,0],"id":21,"left_children":[1,-1,3,5,-1,7,9,-1,11,-1,13,-1,15,-1,-1,-1,-1],"loss_changes":[3.4924366E0,0E0,4.3627158E-1,1.6171175E-1,0E0,3.280355E-2,1.7241895E-1,0E0,1.8624486E-2,0E0,1.033118E-3,0E0,8.85958E-3,0E0,0E0,0E0,0E0],"parents":[2147483647,0,0,2,2,3,3,5,5,6,6,8,8,10,10,12,12],"right_children":[2,-1,4,6,-1,8,10,-1,12,-1,14,-1,16,-1,-1,-1,-1],"split_conditions":[1.0932589E1,4.1039088E-1,1.0057648E1,3.504944E-1,1.3171536E-1,1.4686608E-1,8.64649E-1,3.685044E-2,-3.421424E-4,-1.2940808E-1,1.8702618E0,-2.5224306E-2,8.7588155E-1,-2.0825196E-2,-6.3461307E-3,7.786378E-3,-6.3373805E-3],"split_indices":[10,0,20,20,0,4,4,0,21,0,4,0,4,0,0,0,0],"split_type":[0,0,0,0,0,0,0,0,0,0,0,0,0,0,0,0,0],"sum_hessian":[2.4E1,1E0,2.3E1,2.2E1,1E0,1.7E1,5E0,1E0,1.6E1,1E0,4E0,2E0,1.4E1,2E0,2E0,7E0,7E0],"tree_param":{"num_deleted":"0","num_feature":"39","num_nodes":"17","size_leaf_vector":"1"}},{"base_weights":[8.627087E-2,3.4883195E-1,-7.032273E-3,-3.9789632E-2,1.1195806E-1,1.973341E-3,-1.5844695E-1,3.1322874E-2,-1.0194059E-2,-1.0999661E-1,-4.3474197E-2,4.218157E-3,-5.8088303E-2,-1.5039826E-2,-2.5259973E-3,-7.1076965E-3,5.3254743E-3,-2.0757295E-2,-3.717041E-3],"categories":[],"categories_nodes":[],"categories_segments":[],"categories_sizes":[],"default_left":[0,0,0,0,0,0,0,0,0,0,0,0,0,0,0,0,0,0,0],"id":22,"left_children":[1,-1,3,5,-1,7,9,-1,11,-1,13,15,17,-1,-1,-1,-1,-1,-1],"loss_changes":[2.519203E0,0E0,3.1377384E-1,1.1428876E-1,0E0,2.3499247E-2,1.276897E-1,0E0,1.1979483E-2,0E0,7.449351E-4,5.708717E-3,1.1722026E-3,0E0,0E0,0E0,0E0,0E0,0E0],"parents":[2147483647,0,0,2,2,3,3,5,5,6,6,8,8,10,10,11,11,12,12],"right_children":[2,-1,4,6,-1,8,10,-1,12,-1,14,16,18,-1,-1,-1,-1,-1,-1],"split_conditions":[1.0932589E1,3.4883195E-1,1.0057648E1,3.504944E-1,1.1195806E-1,1.4686608E-1,8.64649E-1,3.1322874E-2,1.02067633E3,-1.0999661E-1,3.581874E-1,2.86E-1,-2.3913998E-2,-1.5039826E-2,-2.5259973E-3,-7.1076965E-3,5.3254743E-3,-2.0757295E-2,-3.717041E-3],"split_indices":[10,0,20,20,0,4,4,0,38,0,0,8,0,0,0,0,0,0,0],"split_type":[0,0,0,0,0,0,0,0,0,0,0,0,0,0,0,0,0,0,0],"sum_hessian":[2.4E1,1E0,2.3E1,2.2E1,1E0,1.7E1,5E0,1E0,1.6E1,1E0,4E0,1.3E1,3E0,3E0,1E0,4E0,9E0,2E0,1E0],"tree_param":{"num_deleted":"0","num_feature":"39","num_nodes":"19","size_leaf_vector":"1"}},{"base_weights":[7.3921256E-2,2.9650727E-1,-5.3618215E-3,-3.3178814E-2,9.516435E-2,-1.256022E-3,-1.4784965E-1,3.69759E-2,-2.6639303E-2,-9.349709E-2,-2.8983593E-2,1.13043785E-2,2.2798095E-2,1.7175674E-3,-3.6282435E-2,-1.6362764E-2,-6.849289E-4,-3.121924E-3,5.3183455E-3,-2.832985E-3,2.5756839E-3,-8.2874304E-4,-1.3639478E-2],"categories":[],"categories_nodes":[],"categories_segments":[],"categories_sizes":[],"default_left":[0,0,0,0,0,0,0,0,0,0,0,0,0,0,0,0,0,0,0,0,0,0,0],"id":23,"left_children":[1,-1,3,5,-1,7,9,11,13,-1,15,17,-1,19,21,-1,-1,-1,-1,-1,-1,-1,-1],"loss_changes":[1.8177824E0,0E0,2.2587925E-1,8.4008396E-2,0E0,1.9423593E-2,8.832271E-2,7.1540987E-3,3.343705E-3,0E0,2.6052203E-3,1.0212311E-3,0E0,3.8768922E-4,2.6445743E-3,0E0,0E0,0E0,0E0,0E0,0E0,0E0,0E0],"parents":[2147483647,0,0,2,2,3,3,5,5,6,6,7,7,8,8,10,10,11,11,13,13,14,14],"right_children":[2,-1,4,6,-1,8,10,12,14,-1,16,18,-1,20,22,-1,-1,-1,-1,-1,-1,-1,-1],"split_conditions":[1.0932589E1,2.9650727E-1,1.0057648E1,8.16E0,9.516435E-2,8.196502E-1,1.6780557E-1,-2.758198E-3,1.0186467E3,-9.349709E-2,-2.3913998E-2,3.222619E1,2.2798095E-2,-2.2329737E-2,2.07E0,-1.6362764E-2,-6.849289E-4,-3.121924E-3,5.3183455E-3,-2.832985E-3,2.5756839E-3,-8.2874304E-4,-1.3639478E-2],"split_indices":[10,0,20,7,0,4,1,0,38,0,0,2,0,1,7,0,0,0,0,0,0,0,0],"split_type":[0,0,0,0,0,0,0,0,0,0,0,0,0,0,0,0,0,0,0,0,0,0,0],"sum_hessian":[2.4E1,1E0,2.3E1,2.2E1,1E0,1.8E1,4E0,7E0,1.1E1,1E0,3E0,5E0,2E0,3E0,8E0,1E0,2E0,1E0,4E0,1E0,2E0,2E0,6E0],"tree_param":{"num_deleted":"0","num_feature":"39","num_nodes":"23","size_leaf_vector":"1"}},{"base_weights":[6.340101E-2,2.5203097E-1,-3.9658714E-3,-2.7584592E-2,8.08897E-2,-3.382245E-4,-1.2560387E-1,2.3204729E-2,-8.9513585E-3,-7.9472356E-2,-2.4550915E-2,1.1051554E-2,-1.9873777E-2,-1.3908577E-2,-5.479813E-4,-2.653635E-3,4.752589E-3,3.4160615E-4,-8.101337E-3],"categories":[],"categories_nodes":[],"categories_segments":[],"categories_sizes":[],"default_left":[0,0,0,0,0,0,0,0,0,0,0,0,0,0,0,0,0,0,0],"id":24,"left_children":[1,-1,3,5,-1,7,9,-1,11,-1,13,15,17,-1,-1,-1,-1,-1,-1],"loss_changes":[1.3114318E0,0E0,1.6252664E-1,6.1382912E-2,0E0,1.3405874E-2,6.388166E-2,0E0,4.1522793E-3,0E0,1.8978757E-3,8.0733275E-4,1.8287469E-3,0E0,0E0,0E0,0E0,0E0,0E0],"parents":[2147483647,0,0,2,2,3,3,5,5,6,6,8,8,10,10,11,11,12,12],"right_children":[2,-1,4,6,-1,8,10,-1,12,-1,14,16,18,-1,-1,-1,-1,-1,-1],"split_conditions":[1.0932589E1,2.5203097E-1,1.0057648E1,8.16E0,8.08897E-2,1.4686608E-1,1.6780557E-1,2.3204729E-2,8.196502E-1,-7.9472356E-2,-2.3913998E-2,3.222619E1,1.0186467E3,-1.3908577E-2,-5.479813E-4,-2.653635E-3,4.752589E-3,3.4160615E-4,-8.101337E-3],"split_indices":[10,0,20,7,0,4,1,0,4,0,0,2,38,0,0,0,0,0,0],"split_type":[0,0,0,0,0,0,0,0,0,0,0,0,0,0,0,0,0,0,0],"sum_hessian":[2.4E1,1E0,2.3E1,2.2E1,1E0,1.8E1,4E0,1E0,1.7E1,1E0,3E0,6E0,1.1E1,1E0,2E0,1E0,5E0,3E0,8E0],"tree_param":{"num_deleted":"0","num_feature":"39","num_nodes":"19","size_leaf_vector":"1"}},{"base_weights":[5.4642193E-2,2.1422654E-1,-2.5884171E-3,-2.2630304E-2,6.875625E-2,6.8671315E-4,-1.0670891E-1,1.972402E-2,-6.5803286E-3,-6.755161E-2,-2.0800114E-2,2.0510203E-3,-2.4184862E-2,-1.182232E-2,-4.3849947E-4,-3.934166E-3,2.3735643E-3,-9.15207E-3,1.1137963E-3],"categories":[],"categories_nodes":[],"categories_segments":[],"categories_sizes":[],"default_left":[0,0,0,0,0,0,0,0,0,0,0,0,0,0,0,0,0,0,0],"id":25,"left_children":[1,-1,3,5,-1,7,9,-1,11,-1,13,15,17,-1,-1,-1,-1,-1,-1],"loss_changes":[9.4536126E-1,0E0,1.1667202E-1,4.5163915E-2,0E0,9.415718E-3,4.6201516E-2,0E0,2.7847192E-3,0E0,1.3817688E-3,1.2591877E-3,1.1714764E-3,0E0,0E0,0E0,0E0,0E0,0E0],"parents":[2147483647,0,0,2,2,3,3,5,5,6,6,8,8,10,10,11,11,12,12],"right_children":[2,-1,4,6,-1,8,10,-1,12,-1,14,16,18,-1,-1,-1,-1,-1,-1],"split_conditions":[1.0932589E1,2.1422654E-1,1.0057648E1,8.16E0,6.875625E-2,1.4686608E-1,1.6780557E-1,1.972402E-2,1.4099072E0,-6.755161E-2,-2.3913998E-2,-2.1909738E-1,3.581874E-1,-1.182232E-2,-4.3849947E-4,-3.934166E-3,2.3735643E-3,-9.15207E-3,1.1137963E-3],"split_indices":[10,0,20,7,0,4,1,0,4,0,0,20,0,0,0,0,0,0,0],"split_type":[0,0,0,0,0,0,0,0,0,0,0,0,0,0,0,0,0,0,0],"sum_hessian":[2.4E1,1E0,2.3E1,2.2E1,1E0,1.8E1,4E0,1E0,1.7E1,1E0,3E0,1.2E1,5E0,1E0,2E0,3E0,9E0,4E0,1E0],"tree_param":{"num_deleted":"0","num_feature":"39","num_nodes":"19","size_leaf_vector":"1"}},{"base_weights":[4.678135E-2,1.8209267E-1,-1.8507241E-3,-1.8871142E-2,5.8442835E-2,1.2160133E-3,-9.14281E-2,1.6765418E-2,-4.925844E-3,-1.858677E-2,-5.7419017E-2,1.9661689E-3,-1.9037565E-2,1.5086198E-3,-2.8134847E-2,1.820698E-3,-4.119873E-3,-9.437943E-3,-1.4884473E-3,-2.6116245E-3,-1.0049057E-2],"categories":[],"categories_nodes":[],"categories_segments":[],"categories_sizes":[],"default_left":[0,0,0,0,0,0,0,0,0,0,0,0,0,0,0,0,0,0,0,0,0],"id":26,"left_children":[1,-1,3,5,-1,7,9,-1,11,13,-1,15,17,-1,19,-1,-1,-1,-1,-1,-1],"loss_changes":[6.822085E-1,0E0,8.400999E-2,3.3632826E-2,0E0,6.65486E-3,3.285179E-2,0E0,1.7880779E-3,1.0434133E-3,0E0,9.206823E-4,8.930508E-4,0E0,2.093846E-5,0E0,0E0,0E0,0E0,0E0,0E0],"parents":[2147483647,0,0,2,2,3,3,5,5,6,6,8,8,9,9,11,11,12,12,14,14],"right_children":[2,-1,4,6,-1,8,10,-1,12,14,-1,16,18,-1,20,-1,-1,-1,-1,-1,-1],"split_conditions":[1.0932589E1,1.8209267E-1,1.0057648E1,3.94561E1,5.8442835E-2,1.4686608E-1,-2.3913998E-2,1.6765418E-2,1.02067633E3,2.2546109E-3,-5.7419017E-2,1.4099072E0,1.02081415E3,1.5086198E-3,-6.401917E-2,1.820698E-3,-4.119873E-3,-9.437943E-3,-1.4884473E-3,-2.6116245E-3,-1.0049057E-2],"split_indices":[10,0,20,10,0,4,0,0,38,3,0,4,38,0,0,0,0,0,0,0,0],"split_type":[0,0,0,0,0,0,0,0,0,0,0,0,0,0,0,0,0,0,0,0,0],"sum_hessian":[2.4E1,1E0,2.3E1,2.2E1,1E0,1.8E1,4E0,1E0,1.7E1,3E0,1E0,1.2E1,5E0,1E0,2E0,1E1,2E0,2E0,3E0,1E0,1E0],"tree_param":{"num_deleted":"0","num_feature":"39","num_nodes":"21","size_leaf_vector":"1"}},{"base_weights":[3.9766822E-2,1.5477906E-1,-1.5704082E-3,-1.6037636E-2,4.9676374E-2,1.0844975E-3,-7.789421E-2,3.828807E-2,-5.544633E-3,-4.8806194E-2,-1.6024113E-2,2.9790285E-3,1.4250605E-2,-2.8097475E-4,-1.5147845E-2,-8.541871E-3,-7.15065E-4,-4.463395E-3,1.2378677E-3,-5.9211734E-3,1.1698724E-3],"categories":[],"categories_nodes":[],"categories_segments":[],"categories_sizes":[],"default_left":[0,0,0,0,0,0,0,0,0,0,0,0,0,0,0,0,0,0,0,0,0],"id":27,"left_children":[1,-1,3,5,-1,7,9,11,13,-1,15,-1,-1,17,19,-1,-1,-1,-1,-1,-1],"loss_changes":[4.928921E-1,0E0,6.069525E-2,2.4444154E-2,0E0,4.8982133E-3,2.3623865E-2,3.1216675E-4,8.550604E-4,0E0,6.113673E-4,0E0,0E0,8.3337317E-4,6.0146383E-4,0E0,0E0,0E0,0E0,0E0,0E0],"parents":[2147483647,0,0,2,2,3,3,5,5,6,6,7,7,8,8,10,10,13,13,14,14],"right_children":[2,-1,4,6,-1,8,10,12,14,-1,16,-1,-1,18,20,-1,-1,-1,-1,-1,-1],"split_conditions":[1.0932589E1,1.5477906E-1,1.0057648E1,8.16E0,4.9676374E-2,-9.889798E-1,1.6780557E-1,-1.2991108E-2,1.02067633E3,-4.8806194E-2,-2.3913998E-2,2.9790285E-3,1.4250605E-2,-9.0431947E-1,3.581874E-1,-8.541871E-3,-7.15065E-4,-4.463395E-3,1.2378677E-3,-5.9211734E-3,1.1698724E-3],"split_indices":[10,0,20,7,0,36,1,0,38,0,0,0,0,36,0,0,0,0,0,0,0],"split_type":[0,0,0,0,0,0,0,0,0,0,0,0,0,0,0,0,0,0,0,0,0],"sum_hessian":[2.4E1,1E0,2.3E1,2.2E1,1E0,1.8E1,4E0,2E0,1.6E1,1E0,3E0,1E0,1E0,1.1E1,5E0,1E0,2E0,2E0,9E0,4E0,1E0],"tree_param":{"num_deleted":"0","num_feature":"39","num_nodes":"21","size_leaf_vector":"1"}},{"base_weights":[3.4062557E-2,1.3156243E-1,-1.0632869E-3,-1.334862E-2,4.222491E-2,1.2461013E-3,-6.613884E-2,3.2544862E-2,-4.3505095E-3,-4.1485406E-2,-1.3531208E-2,2.532174E-3,1.2113014E-2,1.2997367E-3,-1.0869503E-2,-7.2607044E-3,-5.720139E-4,3.3777237E-3,-7.7924517E-4,-6.190224E-3,1.2160778E-3],"categories":[],"categories_nodes":[],"categories_segments":[],"categories_sizes":[],"default_left":[0,0,0,0,0,0,0,0,0,0,0,0,0,0,0,0,0,0,0,0,0],"id":28,"left_children":[1,-1,3,5,-1,7,9,11,13,-1,15,-1,-1,17,19,-1,-1,-1,-1,-1,-1],"loss_changes":[3.5565782E-1,0E0,4.3692086E-2,1.7802963E-2,0E0,3.4697591E-3,1.7105948E-2,2.2554048E-4,6.403041E-4,0E0,4.5003952E-4,0E0,0E0,4.173828E-4,1.2493837E-3,0E0,0E0,0E0,0E0,0E0,0E0],"parents":[2147483647,0,0,2,2,3,3,5,5,6,6,7,7,8,8,10,10,13,13,14,14],"right_children":[2,-1,4,6,-1,8,10,12,14,-1,16,-1,-1,18,20,-1,-1,-1,-1,-1,-1],"split_conditions":[1.0932589E1,1.3156243E-1,1.0057648E1,8.16E0,4.222491E-2,-9.889798E-1,1.6780557E-1,-1.2991108E-2,1.0619856E-2,-4.1485406E-2,-2.3913998E-2,2.532174E-3,1.2113014E-2,2.15E0,2.1254866E1,-7.2607044E-3,-5.720139E-4,3.3777237E-3,-7.7924517E-4,-6.190224E-3,1.2160778E-3],"split_indices":[10,0,20,7,0,36,1,0,13,0,0,0,0,7,10,0,0,0,0,0,0],"split_type":[0,0,0,0,0,0,0,0,0,0,0,0,0,0,0,0,0,0,0,0,0],"sum_hessian":[2.4E1,1E0,2.3E1,2.2E1,1E0,1.8E1,4E0,2E0,1.6E1,1E0,3E0,1E0,1E0,9E0,7E0,1E0,2E0,2E0,7E0,4E0,3E0],"tree_param":{"num_deleted":"0","num_feature":"39","num_nodes":"21","size_leaf_vector":"1"}},{"base_weights":[2.9313244E-2,1.1182824E-1,-5.2876835E-4,-1.09549975E-2,3.5891175E-2,1.5179287E-3,-5.6161117E-2,2.7663132E-2,-3.1852208E-3,-3.526268E-2,-1.14302635E-2,2.1523482E-3,1.0296062E-2,6.8290374E-4,-1.0390599E-2,-6.171799E-3,-4.5757295E-4,-1.4898863E-3,2.1479428E-3,-6.071091E-3,-1.2245179E-4],"categories":[],"categories_nodes":[],"categories_segments":[],"categories_sizes":[],"default_left":[0,0,0,0,0,0,0,0,0,0,0,0,0,0,0,0,0,0,0,0,0],"id":29,"left_children":[1,-1,3,5,-1,7,9,11,13,-1,15,-1,-1,17,19,-1,-1,-1,-1,-1,-1],"loss_changes":[2.5642622E-1,0E0,3.137971E-2,1.305386E-2,0E0,2.4244445E-3,1.2384616E-2,1.6295305E-4,4.8090797E-4,0E0,3.3084425E-4,0E0,0E0,4.7462902E-4,5.8148394E-4,0E0,0E0,0E0,0E0,0E0,0E0],"parents":[2147483647,0,0,2,2,3,3,5,5,6,6,7,7,8,8,10,10,13,13,14,14],"right_children":[2,-1,4,6,-1,8,10,12,14,-1,16,-1,-1,18,20,-1,-1,-1,-1,-1,-1],"split_conditions":[1.0932589E1,1.1182824E-1,1.0057648E1,8.16E0,3.5891175E-2,-9.889798E-1,1.6780557E-1,-1.2991108E-2,1.4099072E0,-3.526268E-2,-2.3913998E-2,2.1523482E-3,1.0296062E-2,7.2774E0,2.245E1,-6.171799E-3,-4.5757295E-4,-1.4898863E-3,2.1479428E-3,-6.071091E-3,-1.2245179E-4],"split_indices":[10,0,20,7,0,36,1,0,4,0,0,0,0,37,6,0,0,0,0,0,0],"split_type":[0,0,0,0,0,0,0,0,0,0,0,0,0,0,0,0,0,0,0,0,0],"sum_hessian":[2.4E1,1E0,2.3E1,2.2E1,1E0,1.8E1,4E0,2E0,1.6E1,1E0,3E0,1E0,1E0,1.1E1,5E0,1E0,2E0,6E0,5E0,2E0,3E0],"tree_param":{"num_deleted":"0","num_feature":"39","num_nodes":"21","size_leaf_vector":"1"}},{"base_weights":[2.5029143E-2,9.505406E-2,-3.3188003E-4,-9.189068E-3,3.0507518E-2,1.4266449E-3,-4.7690965E-2,2.0030273E-2,-3.3134276E-3,-2.9973222E-2,-9.658337E-3,2.1776746E-3,8.751653E-3,4.9176216E-3,-5.5911792E-3,-5.245972E-3,-3.6602022E-4,2.2726061E-3,-4.5833588E-4,-3.4046993E-3,2.896136E-4],"categories":[],"categories_nodes":[],"categories_segments":[],"categories_sizes":[],"default_left":[0,0,0,0,0,0,0,0,0,0,0,0,0,0,0,0,0,0,0,0,0],"id":30,"left_children":[1,-1,3,5,-1,7,9,11,13,-1,15,-1,-1,17,19,-1,-1,-1,-1,-1,-1],"loss_changes":[1.8512504E-1,0E0,2.2621866E-2,9.468715E-3,0E0,1.7418372E-3,8.965306E-3,2.5525969E-4,3.2746786E-4,0E0,2.4289225E-4,0E0,0E0,8.009419E-5,5.0172507E-4,0E0,0E0,0E0,0E0,0E0,0E0],"parents":[2147483647,0,0,2,2,3,3,5,5,6,6,7,7,8,8,10,10,13,13,14,14],"right_children":[2,-1,4,6,-1,8,10,12,14,-1,16,-1,-1,18,20,-1,-1,-1,-1,-1,-1],"split_conditions":[1.0932589E1,9.505406E-2,1.0057648E1,8.16E0,3.0507518E-2,2.3779461E-1,1.6780557E-1,-1.2991108E-2,2.15E0,-2.9973222E-2,-2.3913998E-2,2.1776746E-3,8.751653E-3,4.4929394E-3,2.1254866E1,-5.245972E-3,-3.6602022E-4,2.2726061E-3,-4.5833588E-4,-3.4046993E-3,2.896136E-4],"split_indices":[10,0,20,7,0,4,1,0,7,0,0,0,0,0,10,0,0,0,0,0,0],"split_type":[0,0,0,0,0,0,0,0,0,0,0,0,0,0,0,0,0,0,0,0,0],"sum_hessian":[2.4E1,1E0,2.3E1,2.2E1,1E0,1.8E1,4E0,3E0,1.5E1,1E0,3E0,2E0,1E0,3E0,1.2E1,1E0,2E0,2E0,1E0,6E0,6E0],"tree_param":{"num_deleted":"0","num_feature":"39","num_nodes":"21","size_leaf_vector":"1"}},{"base_weights":[2.1504698E-2,8.079586E-2,-4.2566215E-5,-7.56076E-3,2.5931383E-2,1.5056654E-3,-4.050102E-2,7.4389046E-3,-1.1658364E-3,-2.5477411E-2,-8.163929E-3,2.1241168E-3,-6.639208E-3,-4.4591906E-3,-2.9277802E-4,1.9893635E-3,-2.8749957E-4,-4.0658E-3,5.802155E-4],"categories":[],"categories_nodes":[],"categories_segments":[],"categories_sizes":[],"default_left":[0,0,0,0,0,0,0,0,0,0,0,0,0,0,0,0,0,0,0],"id":31,"left_children":[1,-1,3,5,-1,7,9,-1,11,-1,13,15,17,-1,-1,-1,-1,-1,-1],"loss_changes":[1.3350476E-1,0E0,1.6257789E-2,6.929941E-3,0E0,1.2111093E-3,6.489343E-3,0E0,3.3823092E-4,0E0,1.7813343E-4,1.7306955E-4,4.4110764E-4,0E0,0E0,0E0,0E0,0E0,0E0],"parents":[2147483647,0,0,2,2,3,3,5,5,6,6,8,8,10,10,11,11,12,12],"right_children":[2,-1,4,6,-1,8,10,-1,12,-1,14,16,18,-1,-1,-1,-1,-1,-1],"split_conditions":[1.0932589E1,8.079586E-2,1.0057648E1,8.16E0,2.5931383E-2,1.4686608E-1,1.6780557E-1,7.4389046E-3,-1.2343181E-2,-2.5477411E-2,-2.3913998E-2,5.537E1,1.863076E1,-4.4591906E-3,-2.9277802E-4,1.9893635E-3,-2.8749957E-4,-4.0658E-3,5.802155E-4],"split_indices":[10,0,20,7,0,4,1,0,1,0,0,5,10,0,0,0,0,0,0],"split_type":[0,0,0,0,0,0,0,0,0,0,0,0,0,0,0,0,0,0,0],"sum_hessian":[2.4E1,1E0,2.3E1,2.2E1,1E0,1.8E1,4E0,1E0,1.7E1,1E0,3E0,1.1E1,6E0,1E0,2E0,4E0,7E0,3E0,3E0],"tree_param":{"num_deleted":"0","num_feature":"39","num_nodes":"19","size_leaf_vector":"1"}},{"base_weights":[1.833944E-2,6.867657E-2,2.6758527E-5,-6.3609704E-3,2.2041678E-2,1.3515523E-3,-3.439636E-2,6.323069E-3,-9.1523875E-4,-2.1655656E-2,-6.9026947E-3,1.5567961E-3,-6.1187744E-3,-3.7902833E-3,-2.3422243E-4,-4.8679332E-4,1.3541512E-3,-3.7399293E-3,5.1498417E-5],"categories":[],"categories_nodes":[],"categories_segments":[],"categories_sizes":[],"default_left":[0,0,0,0,0,0,0,0,0,0,0,0,0,0,0,0,0,0,0],"id":32,"left_children":[1,-1,3,5,-1,7,9,-1,11,-1,13,15,17,-1,-1,-1,-1,-1,-1],"loss_changes":[9.64021E-2,0E0,1.1726955E-2,5.0196312E-3,0E0,8.688418E-4,4.6965377E-3,0E0,2.4106549E-4,0E0,1.3048983E-4,1.2954691E-4,2.4171715E-4,0E0,0E0,0E0,0E0,0E0,0E0],"parents":[2147483647,0,0,2,2,3,3,5,5,6,6,8,8,10,10,11,11,12,12],"right_children":[2,-1,4,6,-1,8,10,-1,12,-1,14,16,18,-1,-1,-1,-1,-1,-1],"split_conditions":[1.0932589E1,6.867657E-2,1.0057648E1,8.16E0,2.2041678E-2,1.4686608E-1,1.6780557E-1,6.323069E-3,1.4099072E0,-2.1655656E-2,-2.3913998E-2,7.2774E0,2.245E1,-3.7902833E-3,-2.3422243E-4,-4.8679332E-4,1.3541512E-3,-3.7399293E-3,5.1498417E-5],"split_indices":[10,0,20,7,0,4,1,0,4,0,0,37,6,0,0,0,0,0,0],"split_type":[0,0,0,0,0,0,0,0,0,0,0,0,0,0,0,0,0,0,0],"sum_hessian":[2.4E1,1E0,2.3E1,2.2E1,1E0,1.8E1,4E0,1E0,1.7E1,1E0,3E0,1.2E1,5E0,1E0,2E0,6E0,6E0,2E0,3E0],"tree_param":{"num_deleted":"0","num_feature":"39","num_nodes":"19","size_leaf_vector":"1"}},{"base_weights":[1.5579078E-2,5.837517E-2,1.2882248E-5,-5.417111E-3,1.8735409E-2,1.1300636E-3,-2.9212952E-2,1.2670725E-2,-1.8257308E-3,-1.840725E-2,-5.8374405E-3,1.4852178E-3,5.3746086E-3,-3.2919226E-3,1.0187477E-3,-3.221512E-3,-1.8730164E-4,-1.576853E-4,-2.8154114E-3],"categories":[],"categories_nodes":[],"categories_segments":[],"categories_sizes":[],"default_left":[0,0,0,0,0,0,0,0,0,0,0,0,0,0,0,0,0,0,0],"id":33,"left_children":[1,-1,3,5,-1,7,9,11,13,-1,15,-1,-1,17,-1,-1,-1,-1,-1],"loss_changes":[6.96581E-2,0E0,8.4752785E-3,3.6163095E-3,0E0,6.7125796E-4,3.398805E-3,7.326034E-5,1.3367167E-4,0E0,9.549185E-5,0E0,0E0,2.1417564E-4,0E0,0E0,0E0,0E0,0E0],"parents":[2147483647,0,0,2,2,3,3,5,5,6,6,7,7,8,8,10,10,13,13],"right_children":[2,-1,4,6,-1,8,10,12,14,-1,16,-1,-1,18,-1,-1,-1,-1,-1],"split_conditions":[1.0932589E1,5.837517E-2,1.0057648E1,8.16E0,1.8735409E-2,2.3779461E-1,1.6780557E-1,-1.2991108E-2,6.7E0,-1.840725E-2,-2.3913998E-2,1.4852178E-3,5.3746086E-3,3.44E0,1.0187477E-3,-3.221512E-3,-1.8730164E-4,-1.576853E-4,-2.8154114E-3],"split_indices":[10,0,20,7,0,4,1,0,7,0,0,0,0,7,0,0,0,0,0],"split_type":[0,0,0,0,0,0,0,0,0,0,0,0,0,0,0,0,0,0,0],"sum_hessian":[2.4E1,1E0,2.3E1,2.2E1,1E0,1.8E1,4E0,3E0,1.5E1,1E0,3E0,2E0,1E0,1.2E1,3E0,1E0,2E0,9E0,3E0],"tree_param":{"num_deleted":"0","num_feature":"39","num_nodes":"19","size_leaf_vector":"1"}},{"base_weights":[1.3313316E-2,4.9619295E-2,8.4900086E-5,-4.527379E-3,1.5925098E-2,1.0490458E-3,-2.4812317E-2,1.0584465E-2,-1.4003743E-3,-1.5646363E-2,-4.9381256E-3,1.1881748E-3,4.568417E-3,5.8049435E-4,-4.798571E-3,-2.737999E-3,-1.4991761E-4,-1.0286459E-3,5.557299E-4,-2.8614043E-3,-1.3303757E-5],"categories":[],"categories_nodes":[],"categories_segments":[],"categories_sizes":[],"default_left":[0,0,0,0,0,0,0,0,0,0,0,0,0,0,0,0,0,0,0,0,0],"id":34,"left_children":[1,-1,3,5,-1,7,9,11,13,-1,15,-1,-1,17,19,-1,-1,-1,-1,-1,-1],"loss_changes":[5.0281823E-2,0E0,6.1070113E-3,2.62773E-3,0E0,4.5859092E-4,2.4594772E-3,6.272245E-5,1.1048765E-4,0E0,6.980079E-5,0E0,0E0,6.244727E-5,1.3477131E-4,0E0,0E0,0E0,0E0,0E0,0E0],"parents":[2147483647,0,0,2,2,3,3,5,5,6,6,7,7,8,8,10,10,13,13,14,14],"right_children":[2,-1,4,6,-1,8,10,12,14,-1,16,-1,-1,18,20,-1,-1,-1,-1,-1,-1],"split_conditions":[1.0932589E1,4.9619295E-2,1.0057648E1,8.16E0,1.5925098E-2,2.3779461E-1,1.6780557E-1,-1.2991108E-2,2.134E1,-1.5646363E-2,-2.3913998E-2,1.1881748E-3,4.568417E-3,-9.0431947E-1,2.839E1,-2.737999E-3,-1.4991761E-4,-1.0286459E-3,5.557299E-4,-2.8614043E-3,-1.3303757E-5],"split_indices":[10,0,20,7,0,4,1,0,6,0,0,0,0,36,6,0,0,0,0,0,0],"split_type":[0,0,0,0,0,0,0,0,0,0,0,0,0,0,0,0,0,0,0,0,0],"sum_hessian":[2.4E1,1E0,2.3E1,2.2E1,1E0,1.8E1,4E0,3E0,1.5E1,1E0,3E0,2E0,1E0,1E1,5E0,1E0,2E0,2E0,8E0,2E0,3E0],"tree_param":{"num_deleted":"0","num_feature":"39","num_nodes":"21","size_leaf_vector":"1"}},{"base_weights":[1.1296009E-2,4.2176057E-2,5.1104213E-5,-3.8702558E-3,1.3536358E-2,8.6092093E-4,-2.1074677E-2,1.0463679E-2,-8.843259E-4,-1.3299179E-2,-4.178047E-3,8.255013E-4,3.8831546E-3,9.6195465E-4,-4.429499E-3,-2.3271563E-3,-1.1978149E-4,6.5896753E-4,-3.617406E-4,-1.811142E-3,5.413056E-4],"categories":[],"categories_nodes":[],"categories_segments":[],"categories_sizes":[],"default_left":[0,0,0,0,0,0,0,0,0,0,0,0,0,0,0,0,0,0,0,0,0],"id":35,"left_children":[1,-1,3,5,-1,7,9,11,13,-1,15,-1,-1,17,19,-1,-1,-1,-1,-1,-1],"loss_changes":[3.6339395E-2,0E0,4.416296E-3,1.8902783E-3,0E0,3.276778E-4,1.7795183E-3,2.1764048E-5,1.1553251E-4,0E0,5.1001844E-5,0E0,0E0,3.4764453E-5,7.102388E-5,0E0,0E0,0E0,0E0,0E0,0E0],"parents":[2147483647,0,0,2,2,3,3,5,5,6,6,7,7,8,8,10,10,13,13,14,14],"right_children":[2,-1,4,6,-1,8,10,12,14,-1,16,-1,-1,18,20,-1,-1,-1,-1,-1,-1],"split_conditions":[1.0932589E1,4.2176057E-2,1.0057648E1,8.16E0,1.3536358E-2,1.7432494E-1,1.6780557E-1,-2.4876028E-2,1.02067633E3,-1.3299179E-2,-2.3913998E-2,8.255013E-4,3.8831546E-3,1.0619856E-2,3.581874E-1,-2.3271563E-3,-1.1978149E-4,6.5896753E-4,-3.617406E-4,-1.811142E-3,5.413056E-4],"split_indices":[10,0,20,7,0,4,1,0,38,0,0,0,0,13,0,0,0,0,0,0,0],"split_type":[0,0,0,0,0,0,0,0,0,0,0,0,0,0,0,0,0,0,0,0,0],"sum_hessian":[2.4E1,1E0,2.3E1,2.2E1,1E0,1.8E1,4E0,2E0,1.6E1,1E0,3E0,1E0,1E0,1.1E1,5E0,1E0,2E0,7E0,4E0,4E0,1E0],"tree_param":{"num_deleted":"0","num_feature":"39","num_nodes":"21","size_leaf_vector":"1"}},{"base_weights":[9.655532E-3,3.5849765E-2,9.957943E-5,-3.2311315E-3,1.1505891E-2,7.9958054E-4,-1.790161E-2,8.89413E-3,-6.759034E-4,-1.1304474E-2,-3.5362244E-3,7.0167705E-4,3.3006812E-3,7.4382516E-4,-3.40271E-3,-1.9781115E-3,-9.57489E-5,-3.5338983E-4,6.854442E-4,-2.0885468E-3,3.5190584E-5],"categories":[],"categories_nodes":[],"categories_segments":[],"categories_sizes":[],"default_left":[0,0,0,0,0,0,0,0,0,0,0,0,0,0,0,0,0,0,0,0,0],"id":36,"left_children":[1,-1,3,5,-1,7,9,11,13,-1,15,-1,-1,17,19,-1,-1,-1,-1,-1,-1],"loss_changes":[2.6229626E-2,0E0,3.1817867E-3,1.3743608E-3,0E0,2.3293572E-4,1.2874838E-3,1.5724436E-5,6.834355E-5,0E0,3.7239937E-5,0E0,0E0,3.8228936E-5,7.598534E-5,0E0,0E0,0E0,0E0,0E0,0E0],"parents":[2147483647,0,0,2,2,3,3,5,5,6,6,7,7,8,8,10,10,13,13,14,14],"right_children":[2,-1,4,6,-1,8,10,12,14,-1,16,-1,-1,18,20,-1,-1,-1,-1,-1,-1],"split_conditions":[1.0932589E1,3.5849765E-2,1.0057648E1,8.16E0,1.1505891E-2,1.7432494E-1,1.6780557E-1,-2.4876028E-2,1.4099072E0,-1.1304474E-2,-2.3913998E-2,7.0167705E-4,3.3006812E-3,7.2774E0,2.245E1,-1.9781115E-3,-9.57489E-5,-3.5338983E-4,6.854442E-4,-2.0885468E-3,3.5190584E-5],"split_indices":[10,0,20,7,0,4,1,0,4,0,0,0,0,37,6,0,0,0,0,0,0],"split_type":[0,0,0,0,0,0,0,0,0,0,0,0,0,0,0,0,0,0,0,0,0],"sum_hessian":[2.4E1,1E0,2.3E1,2.2E1,1E0,1.8E1,4E0,2E0,1.6E1,1E0,3E0,1E0,1E0,1.1E1,5E0,1E0,2E0,5E0,6E0,2E0,3E0],"tree_param":{"num_deleted":"0","num_feature":"39","num_nodes":"21","size_leaf_vector":"1"}},{"base_weights":[8.209411E-3,3.0472184E-2,8.6974374E-5,-2.7440202E-3,9.779979E-3,6.801094E-4,-1.5206909E-2,7.5600087E-3,-5.7399686E-4,-9.609032E-3,-2.9935837E-3,5.96425E-4,2.805579E-3,7.019084E-4,-3.0301411E-3,-1.6811371E-3,-7.667542E-5,-2.4090195E-4,4.6642247E-4,-2.1080018E-4,-2.2001266E-3],"categories":[],"categories_nodes":[],"categories_segments":[],"categories_sizes":[],"default_left":[0,0,0,0,0,0,0,0,0,0,0,0,0,0,0,0,0,0,0,0,0],"id":37,"left_children":[1,-1,3,5,-1,7,9,11,13,-1,15,-1,-1,17,19,-1,-1,-1,-1,-1,-1],"loss_changes":[1.8949851E-2,0E0,2.2985106E-3,9.918569E-4,0E0,1.682738E-4,9.314512E-4,1.1360942E-5,5.5401608E-5,0E0,2.7154729E-5,0E0,0E0,1.6649763E-5,5.4946107E-5,0E0,0E0,0E0,0E0,0E0,0E0],"parents":[2147483647,0,0,2,2,3,3,5,5,6,6,7,7,8,8,10,10,13,13,14,14],"right_children":[2,-1,4,6,-1,8,10,12,14,-1,16,-1,-1,18,20,-1,-1,-1,-1,-1,-1],"split_conditions":[1.0932589E1,3.0472184E-2,1.0057648E1,8.16E0,9.779979E-3,1.7432494E-1,1.6780557E-1,-2.4876028E-2,1.02067633E3,-9.609032E-3,-2.3913998E-2,5.96425E-4,2.805579E-3,7.2774E0,9.23803E-2,-1.6811371E-3,-7.667542E-5,-2.4090195E-4,4.6642247E-4,-2.1080018E-4,-2.2001266E-3],"split_indices":[10,0,20,7,0,4,1,0,38,0,0,0,0,37,3,0,0,0,0,0,0],"split_type":[0,0,0,0,0,0,0,0,0,0,0,0,0,0,0,0,0,0,0,0,0],"sum_hessian":[2.4E1,1E0,2.3E1,2.2E1,1E0,1.8E1,4E0,2E0,1.6E1,1E0,3E0,1E0,1E0,1.1E1,5E0,1E0,2E0,4E0,7E0,4E0,1E0],"tree_param":{"num_deleted":"0","num_feature":"39","num_nodes":"21","size_leaf_vector":"1"}},{"base_weights":[6.950631E-3,2.5901414E-2,4.54035E-5,-2.3621842E-3,8.312989E-3,5.400114E-4,-1.291809E-2,6.426009E-3,-5.3045945E-4,-8.167649E-3,-2.5348663E-3,5.069621E-4,2.384742E-3,5.410623E-4,-2.5850933E-3,-1.4287949E-3,-6.141663E-5,5.592186E-4,-2.0106958E-4,-1.5832902E-3,2.4175644E-5],"categories":[],"categories_nodes":[],"categories_segments":[],"categories_sizes":[],"default_left":[0,0,0,0,0,0,0,0,0,0,0,0,0,0,0,0,0,0,0,0,0],"id":38,"left_children":[1,-1,3,5,-1,7,9,11,13,-1,15,-1,-1,17,19,-1,-1,-1,-1,-1,-1],"loss_changes":[1.3700783E-2,0E0,1.6639724E-3,7.1158784E-4,0E0,1.2312373E-4,6.7377195E-4,8.208226E-6,3.882564E-5,0E0,1.9789204E-5,0E0,0E0,2.0479854E-5,4.348998E-5,0E0,0E0,0E0,0E0,0E0,0E0],"parents":[2147483647,0,0,2,2,3,3,5,5,6,6,7,7,8,8,10,10,13,13,14,14],"right_children":[2,-1,4,6,-1,8,10,12,14,-1,16,-1,-1,18,20,-1,-1,-1,-1,-1,-1],"split_conditions":[1.0932589E1,2.5901414E-2,1.0057648E1,8.16E0,8.312989E-3,1.7432494E-1,1.6780557E-1,-2.4876028E-2,2.134E1,-8.167649E-3,-2.3913998E-2,5.069621E-4,2.384742E-3,5.537E1,2.839E1,-1.4287949E-3,-6.141663E-5,5.592186E-4,-2.0106958E-4,-1.5832902E-3,2.4175644E-5],"split_indices":[10,0,20,7,0,4,1,0,6,0,0,0,0,5,6,0,0,0,0,0,0],"split_type":[0,0,0,0,0,0,0,0,0,0,0,0,0,0,0,0,0,0,0,0,0],"sum_hessian":[2.4E1,1E0,2.3E1,2.2E1,1E0,1.8E1,4E0,2E0,1.6E1,1E0,3E0,1E0,1E0,1.1E1,5E0,1E0,2E0,5E0,6E0,2E0,3E0],"tree_param":{"num_deleted":"0","num_feature":"39","num_nodes":"21","size_leaf_vector":"1"}},{"base_weights":[5.915435E-3,2.2016145E-2,4.6315985E-5,-1.9997896E-3,7.066012E-3,4.7958535E-4,-1.1021456E-2,2.0270308E-3,-2.4452314E-4,-2.2058897E-3,-6.9425586E-3,7.354135E-4,-2.3269653E-3,4.3091702E-4,-1.1696339E-3,3.4625607E-4,-3.1356813E-4,-1.0308839E-3,4.829407E-4],"categories":[],"categories_nodes":[],"categories_segments":[],"categories_sizes":[],"default_left":[0,0,0,0,0,0,0,0,0,0,0,0,0,0,0,0,0,0,0],"id":39,"left_children":[1,-1,3,5,-1,7,9,-1,11,13,-1,15,17,-1,-1,-1,-1,-1,-1],"loss_changes":[9.8965885E-3,0E0,1.2014519E-3,5.197519E-4,0E0,8.801406E-5,4.8319285E-4,0E0,3.8443188E-5,3.0264084E-5,0E0,1.0900292E-5,3.1734395E-5,0E0,0E0,0E0,0E0,0E0,0E0],"parents":[2147483647,0,0,2,2,3,3,5,5,6,6,8,8,9,9,11,11,12,12],"right_children":[2,-1,4,6,-1,8,10,-1,12,14,-1,16,18,-1,-1,-1,-1,-1,-1],"split_conditions":[1.0932589E1,2.2016145E-2,1.0057648E1,3.94561E1,7.066012E-3,1.4686608E-1,-2.3913998E-2,2.0270308E-3,1.02067633E3,2.2546109E-3,-6.9425586E-3,1.4099072E0,3.581874E-1,4.3091702E-4,-1.1696339E-3,3.4625607E-4,-3.1356813E-4,-1.0308839E-3,4.829407E-4],"split_indices":[10,0,20,10,0,4,0,0,38,3,0,4,0,0,0,0,0,0,0],"split_type":[0,0,0,0,0,0,0,0,0,0,0,0,0,0,0,0,0,0,0],"sum_hessian":[2.4E1,1E0,2.3E1,2.2E1,1E0,1.8E1,4E0,1E0,1.7E1,3E0,1E0,1.2E1,5E0,1E0,2E0,1E1,2E0,4E0,1E0],"tree_param":{"num_deleted":"0","num_feature":"39","num_nodes":"19","size_leaf_vector":"1"}},{"base_weights":[5.0568744E-3,1.871338E-2,6.94166E-5,-1.6684562E-3,6.006074E-3,4.7771182E-4,-9.490204E-3,1.7229761E-3,-1.3388791E-4,-5.901146E-3,-2.0275116E-3,6.509158E-4,-1.8119812E-3,-1.0385513E-3,-1.1863709E-4,-1.3984386E-4,4.2220435E-4,-1.4780045E-3,-6.111145E-5],"categories":[],"categories_nodes":[],"categories_segments":[],"categories_sizes":[],"default_left":[0,0,0,0,0,0,0,0,0,0,0,0,0,0,0,0,0,0,0],"id":40,"left_children":[1,-1,3,5,-1,7,9,-1,11,-1,13,15,17,-1,-1,-1,-1,-1,-1],"loss_changes":[7.1428283E-3,0E0,8.6553104E-4,3.9062966E-4,0E0,6.195663E-5,3.3997942E-4,0E0,2.4884976E-5,0E0,7.994588E-6,1.1640788E-5,2.9052204E-5,0E0,0E0,0E0,0E0,0E0,0E0],"parents":[2147483647,0,0,2,2,3,3,5,5,6,6,8,8,10,10,11,11,12,12],"right_children":[2,-1,4,6,-1,8,10,-1,12,-1,14,16,18,-1,-1,-1,-1,-1,-1],"split_conditions":[1.0932589E1,1.871338E-2,1.0057648E1,8.16E0,6.006074E-3,1.4686608E-1,1.6780557E-1,1.7229761E-3,2.134E1,-5.901146E-3,-2.3913998E-2,3.532291E1,2.245E1,-1.0385513E-3,-1.1863709E-4,-1.3984386E-4,4.2220435E-4,-1.4780045E-3,-6.111145E-5],"split_indices":[10,0,20,7,0,4,1,0,6,0,0,12,6,0,0,0,0,0,0],"split_type":[0,0,0,0,0,0,0,0,0,0,0,0,0,0,0,0,0,0,0],"sum_hessian":[2.4E1,1E0,2.3E1,2.2E1,1E0,1.8E1,4E0,1E0,1.7E1,1E0,3E0,1.2E1,5E0,1E0,2E0,5E0,7E0,1E0,4E0],"tree_param":{"num_deleted":"0","num_feature":"39","num_nodes":"19","size_leaf_vector":"1"}},{"base_weights":[4.2648204E-3,1.5906144E-2,2.4148214E-5,-1.4545519E-3,5.105138E-3,3.5899362E-4,-8.055115E-3,1.4645298E-3,-1.634807E-4,-5.0159455E-3,-1.7089844E-3,4.7760046E-4,-1.5252432E-3,-7.329941E-4,7.41005E-5,-3.7689213E-4,2.7211985E-4,-1.0446549E-3,9.7131735E-5],"categories":[],"categories_nodes":[],"categories_segments":[],"categories_sizes":[],"default_left":[0,0,0,0,0,0,0,0,0,0,0,0,0,0,0,0,0,0,0],"id":41,"left_children":[1,-1,3,5,-1,7,9,-1,11,-1,13,15,17,-1,-1,-1,-1,-1,-1],"loss_changes":[5.167639E-3,0E0,6.278128E-4,2.782114E-4,0E0,4.569569E-5,2.4636276E-4,0E0,1.6442462E-5,0E0,6.3488533E-6,1.0820052E-5,2.2837903E-5,0E0,0E0,0E0,0E0,0E0,0E0],"parents":[2147483647,0,0,2,2,3,3,5,5,6,6,8,8,10,10,11,11,12,12],"right_children":[2,-1,4,6,-1,8,10,-1,12,-1,14,16,18,-1,-1,-1,-1,-1,-1],"split_conditions":[1.0932589E1,1.5906144E-2,1.0057648E1,8.16E0,5.105138E-3,1.4686608E-1,1.6780557E-1,1.4645298E-3,2.134E1,-5.0159455E-3,4.8001368E-2,-9.389415E-5,2.839E1,-7.329941E-4,7.41005E-5,-3.7689213E-4,2.7211985E-4,-1.0446549E-3,9.7131735E-5],"split_indices":[10,0,20,7,0,4,1,0,6,0,0,21,6,0,0,0,0,0,0],"split_type":[0,0,0,0,0,0,0,0,0,0,0,0,0,0,0,0,0,0,0],"sum_hessian":[2.4E1,1E0,2.3E1,2.2E1,1E0,1.8E1,4E0,1E0,1.7E1,1E0,3E0,1.2E1,5E0,2E0,1E0,2E0,1E1,2E0,3E0],"tree_param":{"num_deleted":"0","num_feature":"39","num_nodes":"19","size_leaf_vector":"1"}},{"base_weights":[3.6154683E-3,1.3520051E-2,1.0543241E-5,-1.2467911E-3,4.3393853E-3,3.0091745E-4,-6.8787253E-3,1.2448502E-3,-1.4342056E-4,-1.4925795E-3,-4.2634965E-3,4.205724E-4,-1.3415018E-3,2.6213005E-4,-7.717852E-4,2.0435579E-4,-2.0256043E-4,-4.3029784E-5,-1.0997773E-3],"categories":[],"categories_nodes":[],"categories_segments":[],"categories_sizes":[],"default_left":[0,0,0,0,0,0,0,0,0,0,0,0,0,0,0,0,0,0,0],"id":42,"left_children":[1,-1,3,5,-1,7,9,-1,11,13,-1,15,17,-1,-1,-1,-1,-1,-1],"loss_changes":[3.7352513E-3,0E0,4.5420084E-4,2.0255156E-4,0E0,3.308649E-5,1.7626912E-4,0E0,1.2726969E-5,1.24708395E-5,0E0,4.1723933E-6,1.6183098E-5,0E0,0E0,0E0,0E0,0E0,0E0],"parents":[2147483647,0,0,2,2,3,3,5,5,6,6,8,8,9,9,11,11,12,12],"right_children":[2,-1,4,6,-1,8,10,-1,12,14,-1,16,18,-1,-1,-1,-1,-1,-1],"split_conditions":[1.0932589E1,1.3520051E-2,1.0057648E1,3.94561E1,4.3393853E-3,1.4686608E-1,-2.3913998E-2,1.2448502E-3,1.02067633E3,2.2546109E-3,-4.2634965E-3,1.4099072E0,9.23803E-2,2.6213005E-4,-7.717852E-4,2.0435579E-4,-2.0256043E-4,-4.3029784E-5,-1.0997773E-3],"split_indices":[10,0,20,10,0,4,0,0,38,3,0,4,3,0,0,0,0,0,0],"split_type":[0,0,0,0,0,0,0,0,0,0,0,0,0,0,0,0,0,0,0],"sum_hessian":[2.4E1,1E0,2.3E1,2.2E1,1E0,1.8E1,4E0,1E0,1.7E1,3E0,1E0,1.2E1,5E0,1E0,2E0,1E1,2E0,4E0,1E0],"tree_param":{"num_deleted":"0","num_feature":"39","num_nodes":"19","size_leaf_vector":"1"}},{"base_weights":[3.0583795E-3,1.1492157E-2,-6.453915E-6,-1.0758656E-3,3.6885024E-3,2.3666592E-4,-5.8483123E-3,2.8465195E-3,-2.3781799E-4,-3.6237717E-3,-1.270771E-3,2.2281111E-4,1.0581227E-3,-6.0581183E-4,3.328845E-4,-6.574631E-4,-6.9999696E-5,-1.13935475E-5,-8.0256246E-4],"categories":[],"categories_nodes":[],"categories_segments":[],"categories_sizes":[],"default_left":[0,0,0,0,0,0,0,0,0,0,0,0,0,0,0,0,0,0,0],"id":43,"left_children":[1,-1,3,5,-1,7,9,11,13,-1,15,-1,-1,17,-1,-1,-1,-1,-1],"loss_changes":[2.7010404E-3,0E0,3.2895565E-4,1.454558E-4,0E0,2.420529E-5,1.2726168E-4,1.6757203E-6,9.101617E-6,0E0,3.3096221E-6,0E0,0E0,1.634941E-5,0E0,0E0,0E0,0E0,0E0],"parents":[2147483647,0,0,2,2,3,3,5,5,6,6,7,7,8,8,10,10,13,13],"right_children":[2,-1,4,6,-1,8,10,12,14,-1,16,-1,-1,18,-1,-1,-1,-1,-1],"split_conditions":[1.0932589E1,1.1492157E-2,1.0057648E1,8.16E0,3.6885024E-3,1.7432494E-1,1.6780557E-1,-2.4876028E-2,6.7E0,-3.6237717E-3,-2.3913998E-2,2.2281111E-4,1.0581227E-3,4.1E0,3.328845E-4,-6.574631E-4,-6.9999696E-5,-1.13935475E-5,-8.0256246E-4],"split_indices":[10,0,20,7,0,4,1,0,7,0,0,0,0,7,0,0,0,0,0],"split_type":[0,0,0,0,0,0,0,0,0,0,0,0,0,0,0,0,0,0,0],"sum_hessian":[2.4E1,1E0,2.3E1,2.2E1,1E0,1.8E1,4E0,2E0,1.6E1,1E0,3E0,1E0,1E0,1.3E1,3E0,1E0,2E0,1.1E1,2E0],"tree_param":{"num_deleted":"0","num_feature":"39","num_nodes":"19","size_leaf_vector":"1"}},{"base_weights":[2.6060238E-3,9.768677E-3,1.0868183E-6,-9.076346E-4,3.135252E-3,2.0761744E-4,-4.9640657E-3,8.994043E-4,-1.13960945E-4,-3.0801774E-3,-1.0714531E-3,3.654901E-4,-4.6163323E-4,-5.590439E-4,-5.5885317E-5,4.8146783E-5,-5.2139285E-4],"categories":[],"categories_nodes":[],"categories_segments":[],"categories_sizes":[],"default_left":[0,0,0,0,0,0,0,0,0,0,0,0,0,0,0,0,0],"id":44,"left_children":[1,-1,3,5,-1,7,9,-1,11,-1,13,-1,15,-1,-1,-1,-1],"loss_changes":[1.950817E-3,0E0,2.3738749E-4,1.0508132E-4,0E0,1.7390952E-5,9.221546E-5,0E0,8.899834E-6,0E0,2.4571714E-6,0E0,1.2189551E-5,0E0,0E0,0E0,0E0],"parents":[2147483647,0,0,2,2,3,3,5,5,6,6,8,8,10,10,12,12],"right_children":[2,-1,4,6,-1,8,10,-1,12,-1,14,-1,16,-1,-1,-1,-1],"split_conditions":[1.0932589E1,9.768677E-3,1.0057648E1,8.16E0,3.135252E-3,1.4686608E-1,1.6780557E-1,8.994043E-4,1.9817E0,-3.0801774E-3,-2.3913998E-2,3.654901E-4,1.02067633E3,-5.590439E-4,-5.5885317E-5,4.8146783E-5,-5.2139285E-4],"split_indices":[10,0,20,7,0,4,1,0,37,0,0,0,38,0,0,0,0],"split_type":[0,0,0,0,0,0,0,0,0,0,0,0,0,0,0,0,0],"sum_hessian":[2.4E1,1E0,2.3E1,2.2E1,1E0,1.8E1,4E0,1E0,1.7E1,1E0,3E0,3E0,1.4E1,1E0,2E0,1E1,4E0],"tree_param":{"num_deleted":"0","num_feature":"39","num_nodes":"17","size_leaf_vector":"1"}},{"base_weights":[2.2244086E-3,8.303833E-3,1.0472019E-5,-7.6152815E-4,2.6649714E-3,1.871228E-4,-4.214096E-3,7.6449366E-4,-8.562728E-5,-2.6184083E-3,-9.036064E-4,3.774677E-4,-7.1167946E-4,-3.9558412E-4,5.121231E-5,-4.2243675E-5,2.498509E-4,-4.0683747E-4,2.4433137E-4],"categories":[],"categories_nodes":[],"categories_segments":[],"categories_sizes":[],"default_left":[0,0,0,0,0,0,0,0,0,0,0,0,0,0,0,0,0,0,0],"id":45,"left_children":[1,-1,3,5,-1,7,9,-1,11,-1,13,15,17,-1,-1,-1,-1,-1,-1],"loss_changes":[1.4086061E-3,0E0,1.7115947E-4,7.6120035E-5,0E0,1.2454482E-5,6.682991E-5,0E0,5.4872253E-6,0E0,2.0084904E-6,2.7133665E-6,8.9724745E-6,0E0,0E0,0E0,0E0,0E0,0E0],"parents":[2147483647,0,0,2,2,3,3,5,5,6,6,8,8,10,10,11,11,12,12],"right_children":[2,-1,4,6,-1,8,10,-1,12,-1,14,16,18,-1,-1,-1,-1,-1,-1],"split_conditions":[1.0932589E1,8.303833E-3,1.0057648E1,8.16E0,2.6649714E-3,1.4686608E-1,1.6780557E-1,7.6449366E-4,4.4929394E-3,-2.6184083E-3,4.8001368E-2,-7.250112E-2,3.3233327E-1,-3.9558412E-4,5.121231E-5,-4.2243675E-5,2.498509E-4,-4.0683747E-4,2.4433137E-4],"split_indices":[10,0,20,7,0,4,1,0,0,0,0,20,1,0,0,0,0,0,0],"split_type":[0,0,0,0,0,0,0,0,0,0,0,0,0,0,0,0,0,0,0],"sum_hessian":[2.4E1,1E0,2.3E1,2.2E1,1E0,1.8E1,4E0,1E0,1.7E1,1E0,3E0,1E1,7E0,2E0,1E0,5E0,5E0,5E0,2E0],"tree_param":{"num_deleted":"0","num_feature":"39","num_nodes":"19","size_leaf_vector":"1"}},{"base_weights":[1.9100206E-3,7.058716E-3,2.8850414E-5,-6.264793E-4,2.265215E-3,1.8674319E-4,-3.5914287E-3,1.2373088E-3,-2.7683802E-4,-7.794928E-4,-2.2258759E-3,7.731244E-5,6.393021E-4,4.1039786E-4,-7.042355E-4,9.708703E-5,-3.765218E-4,-1.04904175E-4,2.633572E-4,-6.887913E-5,-6.752014E-4],"categories":[],"categories_nodes":[],"categories_segments":[],"categories_sizes":[],"default_left":[0,0,0,0,0,0,0,0,0,0,0,0,0,0,0,0,0,0,0,0,0],"id":46,"left_children":[1,-1,3,5,-1,7,9,11,13,15,-1,-1,-1,17,19,-1,-1,-1,-1,-1,-1],"loss_changes":[1.0160482E-3,0E0,1.2303362E-4,5.6127436E-5,0E0,9.595962E-6,4.8039154E-5,4.7036265E-6,4.401137E-6,2.5046506E-6,0E0,0E0,0E0,2.4388041E-6,6.0892326E-6,0E0,0E0,0E0,0E0,0E0,0E0],"parents":[2147483647,0,0,2,2,3,3,5,5,6,6,7,7,8,8,9,9,13,13,14,14],"right_children":[2,-1,4,6,-1,8,10,12,14,16,-1,-1,-1,18,20,-1,-1,-1,-1,-1,-1],"split_conditions":[1.0932589E1,7.058716E-3,1.0057648E1,3.94561E1,2.265215E-3,8.196502E-1,-2.3913998E-2,-2.758198E-3,2.1186507E0,2.2546109E-3,-2.2258759E-3,7.731244E-5,6.393021E-4,-9.627611E-1,1.0162477E-1,9.708703E-5,-3.765218E-4,-1.04904175E-4,2.633572E-4,-6.887913E-5,-6.752014E-4],"split_indices":[10,0,20,10,0,4,0,0,36,3,0,0,0,36,0,0,0,0,0,0,0],"split_type":[0,0,0,0,0,0,0,0,0,0,0,0,0,0,0,0,0,0,0,0,0],"sum_hessian":[2.4E1,1E0,2.3E1,2.2E1,1E0,1.8E1,4E0,5E0,1.3E1,3E0,1E0,3E0,2E0,5E0,8E0,1E0,2E0,2E0,3E0,7E0,1E0],"tree_param":{"num_deleted":"0","num_feature":"39","num_nodes":"21","size_leaf_vector":"1"}},{"base_weights":[1.6150073E-3,6.0001374E-3,1.5594469E-5,-5.4183434E-4,1.9254686E-3,1.3737235E-4,-3.0144528E-3,5.5392424E-4,-6.0152965E-5,-6.1521865E-4,-1.8917085E-3,1.03728795E-4,-4.1946172E-4,8.252487E-5,-3.0110407E-4,-3.7593843E-4,1.0355115E-4],"categories":[],"categories_nodes":[],"categories_segments":[],"categories_sizes":[],"default_left":[0,0,0,0,0,0,0,0,0,0,0,0,0,0,0,0,0],"id":47,"left_children":[1,-1,3,5,-1,7,9,-1,11,13,-1,-1,15,-1,-1,-1,-1],"loss_changes":[7.348362E-4,0E0,8.9133915E-5,3.9040737E-5,0E0,6.525069E-6,3.5602916E-5,0E0,2.770317E-6,1.6594869E-6,0E0,0E0,6.807024E-6,0E0,0E0,0E0,0E0],"parents":[2147483647,0,0,2,2,3,3,5,5,6,6,8,8,9,9,12,12],"right_children":[2,-1,4,6,-1,8,10,-1,12,14,-1,-1,16,-1,-1,-1,-1],"split_conditions":[1.0932589E1,6.0001374E-3,1.0057648E1,3.94561E1,1.9254686E-3,1.4686608E-1,-2.3913998E-2,5.5392424E-4,1.0619856E-2,2.2546109E-3,-1.8917085E-3,1.03728795E-4,2.1254866E1,8.252487E-5,-3.0110407E-4,-3.7593843E-4,1.0355115E-4],"split_indices":[10,0,20,10,0,4,0,0,13,3,0,0,10,0,0,0,0],"split_type":[0,0,0,0,0,0,0,0,0,0,0,0,0,0,0,0,0],"sum_hessian":[2.4E1,1E0,2.3E1,2.2E1,1E0,1.8E1,4E0,1E0,1.7E1,3E0,1E0,8E0,9E0,1E0,2E0,4E0,5E0],"tree_param":{"num_deleted":"0","num_feature":"39","num_nodes":"17","size_leaf_vector":"1"}},{"base_weights":[1.379115E-3,5.100632E-3,1.9736004E-5,-4.5379667E-4,1.6366482E-3,1.3399991E-4,-2.5966645E-3,4.7083563E-4,-3.29392E-5,-1.607895E-3,-1.6980171E-4,1.8428349E-4,-6.345749E-4,-1.5789359E-6,1.9783975E-4,2.0670892E-5,-5.17273E-4],"categories":[],"categories_nodes":[],"categories_segments":[],"categories_sizes":[],"default_left":[0,0,0,0,0,0,0,0,0,0,0,0,0,0,0,0,0],"id":48,"left_children":[1,-1,3,5,-1,7,9,-1,11,-1,-1,13,15,-1,-1,-1,-1],"loss_changes":[5.306036E-4,0E0,6.42519E-5,2.9318071E-5,0E0,4.6047253E-6,2.5019806E-5,0E0,2.4693422E-6,0E0,0E0,1.2644396E-6,3.9515926E-6,0E0,0E0,0E0,0E0],"parents":[2147483647,0,0,2,2,3,3,5,5,6,6,8,8,11,11,12,12],"right_children":[2,-1,4,6,-1,8,10,-1,12,-1,-1,14,16,-1,-1,-1,-1],"split_conditions":[1.0932589E1,5.100632E-3,1.0057648E1,8.16E0,1.6366482E-3,1.4686608E-1,1.6780557E-1,4.7083563E-4,1.1298968E-1,-1.607895E-3,-1.6980171E-4,2.0786341E-2,9.328861E-2,-1.5789359E-6,1.9783975E-4,2.0670892E-5,-5.17273E-4],"split_indices":[10,0,20,7,0,4,1,0,3,0,0,3,0,0,0,0,0],"split_type":[0,0,0,0,0,0,0,0,0,0,0,0,0,0,0,0,0],"sum_hessian":[2.4E1,1E0,2.3E1,2.2E1,1E0,1.8E1,4E0,1E0,1.7E1,1E0,3E0,1.3E1,4E0,1E1,3E0,3E0,1E0],"tree_param":{"num_deleted":"0","num_feature":"39","num_nodes":"17","size_leaf_vector":"1"}},{"base_weights":[1.1705373E-3,4.335022E-3,1.5136953E-5,-3.874433E-4,1.3911724E-3,1.0339016E-4,-2.1751218E-3,6.691846E-4,-2.0922147E-4,-4.4152793E-4,-1.3664246E-3,3.7886357E-4,5.373939E-5,8.2492836E-5,-5.4621696E-4,1.5268104E-5,-2.8781893E-4,-6.171635E-5,-4.3945314E-4],"categories":[],"categories_nodes":[],"categories_segments":[],"categories_sizes":[],"default_left":[0,0,0,0,0,0,0,0,0,0,0,0,0,0,0,0,0,0,0],"id":49,"left_children":[1,-1,3,5,-1,7,9,11,13,15,-1,-1,-1,-1,17,-1,-1,-1,-1],"loss_changes":[3.8336078E-4,0E0,4.6455098E-5,2.040629E-5,0E0,3.5006124E-6,1.8615481E-5,1.8103708E-6,2.2714378E-6,1.0688657E-6,0E0,0E0,0E0,0E0,2.200959E-6,0E0,0E0,0E0,0E0],"parents":[2147483647,0,0,2,2,3,3,5,5,6,6,7,7,8,8,9,9,14,14],"right_children":[2,-1,4,6,-1,8,10,12,14,16,-1,-1,-1,-1,18,-1,-1,-1,-1],"split_conditions":[1.0932589E1,4.335022E-3,1.0057648E1,3.94561E1,1.3911724E-3,8.7588155E-1,-2.3913998E-2,-2.0733984E-5,2.1186507E0,-2.4876028E-2,-1.3664246E-3,3.7886357E-4,5.373939E-5,8.2492836E-5,9.328861E-2,1.5268104E-5,-2.8781893E-4,-6.171635E-5,-4.3945314E-4],"split_indices":[10,0,20,10,0,4,0,21,36,0,0,0,0,0,0,0,0,0,0],"split_type":[0,0,0,0,0,0,0,0,0,0,0,0,0,0,0,0,0,0,0],"sum_hessian":[2.4E1,1E0,2.3E1,2.2E1,1E0,1.8E1,4E0,6E0,1.2E1,3E0,1E0,2E0,4E0,5E0,7E0,2E0,1E0,6E0,1E0],"tree_param":{"num_deleted":"0","num_feature":"39","num_nodes":"19","size_leaf_vector":"1"}},{"base_weights":[9.831444E-4,3.6849978E-3,4.9827094E-7,-3.422223E-4,1.1824608E-3,7.280395E-5,-1.8508777E-3,3.433807E-4,-5.0329418E-5,-1.13291484E-4,-1.1615753E-3,-2.0954854E-4,1.21665005E-4,-1.0215744E-5,-3.7364961E-4],"categories":[],"categories_nodes":[],"categories_segments":[],"categories_sizes":[],"default_left":[0,0,0,0,0,0,0,0,0,0,0,0,0,0,0],"id":50,"left_children":[1,-1,3,5,-1,7,9,-1,11,-1,-1,13,-1,-1,-1],"loss_changes":[2.7759583E-4,0E0,3.376507E-5,1.4535779E-5,0E0,2.5651161E-6,1.3425195E-5,0E0,1.3915075E-6,0E0,0E0,2.5028598E-6,0E0,0E0,0E0],"parents":[2147483647,0,0,2,2,3,3,5,5,6,6,8,8,11,11],"right_children":[2,-1,4,6,-1,8,10,-1,12,-1,-1,14,-1,-1,-1],"split_conditions":[1.0932589E1,3.6849978E-3,1.0057648E1,3.94561E1,1.1824608E-3,1.4686608E-1,-2.3913998E-2,3.433807E-4,2.478427E-2,-1.13291484E-4,-1.1615753E-3,7.1155645E-2,1.21665005E-4,-1.0215744E-5,-3.7364961E-4],"split_indices":[10,0,20,10,0,4,0,0,21,0,0,0,0,0,0],"split_type":[0,0,0,0,0,0,0,0,0,0,0,0,0,0,0],"sum_hessian":[2.4E1,1E0,2.3E1,2.2E1,1E0,1.8E1,4E0,1E0,1.7E1,3E0,1E0,1.3E1,4E0,1.2E1,1E0],"tree_param":{"num_deleted":"0","num_feature":"39","num_nodes":"15","size_leaf_vector":"1"}},{"base_weights":[8.3522673E-4,3.132248E-3,-4.1010328E-8,-2.9136956E-4,1.0050774E-3,7.0520095E-5,-1.6082764E-3,2.5130666E-4,-2.0703257E-5,-9.876252E-4,-1.0929108E-4],"categories":[],"categories_nodes":[],"categories_segments":[],"categories_sizes":[],"default_left":[0,0,0,0,0,0,0,0,0,0,0],"id":51,"left_children":[1,-1,3,5,-1,7,9,-1,-1,-1,-1],"loss_changes":[2.0058162E-4,0E0,2.4401068E-5,1.107464E-5,0E0,2.0916416E-6,9.273735E-6,0E0,0E0,0E0,0E0],"parents":[2147483647,0,0,2,2,3,3,5,5,6,6],"right_children":[2,-1,4,6,-1,8,10,-1,-1,-1,-1],"split_conditions":[1.0932589E1,3.132248E-3,1.0057648E1,8.16E0,1.0050774E-3,1.7432494E-1,1.6780557E-1,2.5130666E-4,-2.0703257E-5,-9.876252E-4,-1.0929108E-4],"split_indices":[10,0,20,7,0,4,1,0,0,0,0],"split_type":[0,0,0,0,0,0,0,0,0,0,0],"sum_hessian":[2.4E1,1E0,2.3E1,2.2E1,1E0,1.8E1,4E0,2E0,1.6E1,1E0,3E0],"tree_param":{"num_deleted":"0","num_feature":"39","num_nodes":"11","size_leaf_vector":"1"}},{"base_weights":[7.150571E-4,2.661896E-3,5.435611E-6,-2.4195167E-4,8.543015E-4,6.951483E-5,-1.377134E-3,1.6666633E-4,-9.713268E-5,1.1811407E-5,-7.0037844E-4,-2.2064833E-4,1.4114381E-4,-1.925862E-5,-3.1471252E-4],"categories":[],"categories_nodes":[],"categories_segments":[],"categories_sizes":[],"default_left":[0,0,0,0,0,0,0,0,0,0,0,0,0,0,0],"id":52,"left_children":[1,-1,3,5,-1,7,9,-1,11,-1,-1,13,-1,-1,-1],"loss_changes":[1.446778E-4,0E0,1.756419E-5,8.22787E-6,0E0,1.592911E-6,6.873158E-6,0E0,1.1554449E-6,0E0,0E0,1.617516E-6,0E0,0E0,0E0],"parents":[2147483647,0,0,2,2,3,3,5,5,6,6,8,8,11,11],"right_children":[2,-1,4,6,-1,8,10,-1,12,-1,-1,14,-1,-1,-1],"split_conditions":[1.0932589E1,2.661896E-3,1.0057648E1,3.94561E1,8.543015E-4,4.7041294E-1,-2.4876028E-2,1.6666633E-4,3.4154353E-1,1.1811407E-5,-7.0037844E-4,9.328861E-2,1.4114381E-4,-1.925862E-5,-3.1471252E-4],"split_indices":[10,0,20,10,0,9,0,0,1,0,0,0,0,0,0],"split_type":[0,0,0,0,0,0,0,0,0,0,0,0,0,0,0],"sum_hessian":[2.4E1,1E0,2.3E1,2.2E1,1E0,1.8E1,4E0,4E0,1.4E1,2E0,2E0,1.2E1,2E0,1.1E1,1E0],"tree_param":{"num_deleted":"0","num_feature":"39","num_nodes":"15","size_leaf_vector":"1"}},{"base_weights":[6.127146E-4,2.262497E-3,9.773019E-6,-2.0027385E-4,7.2612765E-4,-1.2574652E-3,2.1178126E-5,-1.35604305E-5,-7.3413854E-4,9.353793E-5,-2.4494258E-4,-1.6460079E-4,6.8778994E-5],"categories":[],"categories_nodes":[],"categories_segments":[],"categories_sizes":[],"default_left":[0,0,0,0,0,0,0,0,0,0,0,0,0],"id":53,"left_children":[1,-1,3,5,-1,7,9,-1,-1,-1,11,-1,-1],"loss_changes":[1.04369974E-4,0E0,1.2637148E-5,5.4113243E-6,0E0,5.658128E-6,1.6231446E-6,0E0,0E0,0E0,1.7101086E-6,0E0,0E0],"parents":[2147483647,0,0,2,2,3,3,5,5,6,6,10,10],"right_children":[2,-1,4,6,-1,8,10,-1,-1,-1,12,-1,-1],"split_conditions":[1.0932589E1,2.262497E-3,1.0057648E1,2.2717088E2,7.2612765E-4,-6.401917E-2,1.0619856E-2,-1.35604305E-5,-7.3413854E-4,9.353793E-5,6.858712E1,-1.6460079E-4,6.8778994E-5],"split_indices":[10,0,20,38,0,0,13,0,0,0,2,0,0],"split_type":[0,0,0,0,0,0,0,0,0,0,0,0,0],"sum_hessian":[2.4E1,1E0,2.3E1,2.2E1,1E0,3E0,1.9E1,2E0,1E0,9E0,1E1,6E0,4E0],"tree_param":{"num_deleted":"0","num_feature":"39","num_nodes":"13","size_leaf_vector":"1"}},{"base_weights":[5.179328E-4,1.9226075E-3,5.455748E-6,-2.1939717E-4,4.957676E-4,2.0961737E-5,-1.2168884E-3,-3.0517578E-5,-5.7792664E-4],"categories":[],"categories_nodes":[],"categories_segments":[],"categories_sizes":[],"default_left":[0,0,0,0,0,0,0,0,0],"id":54,"left_children":[1,-1,3,5,-1,-1,7,-1,-1],"loss_changes":[7.5437005E-5,0E0,9.251109E-6,6.4329934E-6,0E0,0E0,3.760263E-6,0E0,0E0],"parents":[2147483647,0,0,2,2,3,3,6,6],"right_children":[2,-1,4,6,-1,-1,8,-1,-1],"split_conditions":[1.0932589E1,1.9226075E-3,9.4389886E-1,3.504944E-1,4.957676E-4,2.0961737E-5,5.2131988E-2,-3.0517578E-5,-5.7792664E-4],"split_indices":[10,0,9,20,0,0,1,0,0],"split_type":[0,0,0,0,0,0,0,0,0],"sum_hessian":[2.4E1,1E0,2.3E1,2.1E1,2E0,1.7E1,4E0,2E0,2E0],"tree_param":{"num_deleted":"0","num_feature":"39","num_nodes":"9","size_leaf_vector":"1"}},{"base_weights":[4.359197E-4,1.6342164E-3,1.3405467E-7,-1.5719565E-4,5.428076E-4,2.939443E-5,-8.347988E-4,2.1200268E-4,-1.42476165E-5,-4.41134E-5,-5.378723E-4],"categories":[],"categories_nodes":[],"categories_segments":[],"categories_sizes":[],"default_left":[0,0,0,0,0,0,0,0,0,0,0],"id":55,"left_children":[1,-1,3,5,-1,7,9,-1,-1,-1,-1],"loss_changes":[5.4597414E-5,0E0,7.1158975E-6,2.932521E-6,0E0,1.022963E-6,3.0310794E-6,0E0,0E0,0E0,0E0],"parents":[2147483647,0,0,2,2,3,3,5,5,6,6],"right_children":[2,-1,4,6,-1,8,10,-1,-1,-1,-1],"split_conditions":[1.0932589E1,1.6342164E-3,1.0057648E1,3.94561E1,5.428076E-4,1.4686608E-1,-2.3913998E-2,2.1200268E-4,-1.42476165E-5,-4.41134E-5,-5.378723E-4],"split_indices":[10,0,20,10,0,4,0,0,0,0,0],"split_type":[0,0,0,0,0,0,0,0,0,0,0],"sum_hessian":[2.4E1,1E0,2.3E1,2.2E1,1E0,1.8E1,4E0,1E0,1.7E1,3E0,1E0],"tree_param":{"num_deleted":"0","num_feature":"39","num_nodes":"11","size_leaf_vector":"1"}},{"base_weights":[3.7698584E-4,1.3893128E-3,6.7733813E-6,-1.2667458E-4,4.614115E-4,5.0683193E-5,-4.645261E-4,-4.571915E-4,-6.185532E-5],"categories":[],"categories_nodes":[],"categories_segments":[],"categories_sizes":[],"default_left":[0,0,0,0,0,0,0,0,0],"id":56,"left_children":[1,-1,3,5,-1,-1,7,-1,-1],"loss_changes":[3.9341252E-5,0E0,5.0990907E-6,2.3756077E-6,0E0,0E0,2.6964694E-6,0E0,0E0],"parents":[2147483647,0,0,2,2,3,3,6,6],"right_children":[2,-1,4,6,-1,-1,8,-1,-1],"split_conditions":[1.0932589E1,1.3893128E-3,1.0057648E1,-1.2343181E-2,4.614115E-4,5.0683193E-5,2.8021015E1,-4.571915E-4,-6.185532E-5],"split_indices":[10,0,20,1,0,0,11,0,0],"split_type":[0,0,0,0,0,0,0,0,0],"sum_hessian":[2.4E1,1E0,2.3E1,2.2E1,1E0,1.2E1,1E1,1E0,9E0],"tree_param":{"num_deleted":"0","num_feature":"39","num_nodes":"9","size_leaf_vector":"1"}},{"base_weights":[3.190091E-4,1.1810303E-3,4.2371844E-6,-1.09252425E-4,3.9217473E-4,-6.9589075E-4,4.061359E-6,-1.9338355E-5,-3.8852694E-4],"categories":[],"categories_nodes":[],"categories_segments":[],"categories_sizes":[],"default_left":[0,0,0,0,0,0,0,0,0],"id":57,"left_children":[1,-1,3,5,-1,7,-1,-1,-1],"loss_changes":[2.8452538E-5,0E0,3.6918993E-6,1.6661911E-6,0E0,1.4299249E-6,0E0,0E0,0E0],"parents":[2147483647,0,0,2,2,3,3,5,5],"right_children":[2,-1,4,6,-1,8,-1,-1,-1],"split_conditions":[1.0932589E1,1.1810303E-3,1.0057648E1,2.2717088E2,3.9217473E-4,-6.401917E-2,4.061359E-6,-1.9338355E-5,-3.8852694E-4],"split_indices":[10,0,20,38,0,0,0,0,0],"split_type":[0,0,0,0,0,0,0,0,0],"sum_hessian":[2.4E1,1E0,2.3E1,2.2E1,1E0,3E0,1.9E1,2E0,1E0],"tree_param":{"num_deleted":"0","num_feature":"39","num_nodes":"9","size_leaf_vector":"1"}},{"base_weights":[2.7019985E-4,1.0036469E-3,2.6673733E-6,-9.384874E-5,3.333807E-4,1.3393191E-5,-4.936854E-4,-3.1700137E-4,1.5592575E-5],"categories":[],"categories_nodes":[],"categories_segments":[],"categories_sizes":[],"default_left":[0,0,0,0,0,0,0,0,0],"id":58,"left_children":[1,-1,3,5,-1,-1,7,-1,-1],"loss_changes":[2.0559572E-5,0E0,2.6722412E-6,1.2956526E-6,0E0,0E0,1.8981158E-6,0E0,0E0],"parents":[2147483647,0,0,2,2,3,3,6,6],"right_children":[2,-1,4,6,-1,-1,8,-1,-1],"split_conditions":[1.0932589E1,1.0036469E-3,1.0057648E1,3.504944E-1,3.333807E-4,1.3393191E-5,2.245E1,-3.1700137E-4,1.5592575E-5],"split_indices":[10,0,20,20,0,0,6,0,0],"split_type":[0,0,0,0,0,0,0,0,0],"sum_hessian":[2.4E1,1E0,2.3E1,2.2E1,1E0,1.7E1,5E0,2E0,3E0],"tree_param":{"num_deleted":"0","num_feature":"39","num_nodes":"9","size_leaf_vector":"1"}},{"base_weights":[2.3068949E-4,8.525849E-4,3.472435E-6,-1.0037913E-4,2.2916794E-4,9.479312E-6,-1.6662599E-4],"categories":[],"categories_nodes":[],"categories_segments":[],"categories_sizes":[],"default_left":[0,0,0,0,0,0,0],"id":59,"left_children":[1,-1,3,5,-1,-1,-1],"loss_changes":[1.4823202E-5,0E0,1.97198E-6,1.3387565E-6,0E0,0E0,0E0],"parents":[2147483647,0,0,2,2,3,3],"right_children":[2,-1,4,6,-1,-1,-1],"split_conditions":[1.0932589E1,8.525849E-4,9.4389886E-1,3.504944E-1,2.2916794E-4,9.479312E-6,-1.6662599E-4],"split_indices":[10,0,9,20,0,0,0],"split_type":[0,0,0,0,0,0,0],"sum_hessian":[2.4E1,1E0,2.3E1,2.1E1,2E0,1.7E1,4E0],"tree_param":{"num_deleted":"0","num_feature":"39","num_nodes":"7","size_leaf_vector":"1"}},{"base_weights":[1.9886745E-4,1.713872E-3,-2.5688207E-5,5.4931643E-5,6.4892776E-4],"categories":[],"categories_nodes":[],"categories_segments":[],"categories_sizes":[],"default_left":[0,0,0,0,0],"id":60,"left_children":[1,3,-1,-1,-1],"loss_changes":[1.0922027E-5,2.3545317E-6,0E0,0E0,0E0],"parents":[2147483647,0,0,1,1],"right_children":[2,4,-1,-1,-1],"split_conditions":[1.2476177E1,-6.6099293E-3,-2.5688207E-5,5.4931643E-5,6.4892776E-4],"split_indices":[10,0,0,0,0],"split_type":[0,0,0,0,0],"sum_hessian":[2.4E1,3E0,2.1E1,1E0,2E0],"tree_param":{"num_deleted":"0","num_feature":"39","num_nodes":"5","size_leaf_vector":"1"}},{"base_weights":[1.6644479E-4,6.2713627E-4,-8.2452124E-7,3.215589E-5,-1.2981087E-4],"categories":[],"categories_nodes":[],"categories_segments":[],"categories_sizes":[],"default_left":[0,0,0,0,0],"id":61,"left_children":[1,-1,3,-1,-1],"loss_changes":[8.0474165E-6,0E0,1.1659207E-6,0E0,0E0],"parents":[2147483647,0,0,2,2],"right_children":[2,-1,4,-1,-1],"split_conditions":[1.0932589E1,6.2713627E-4,3.94561E1,3.215589E-5,-1.2981087E-4],"split_indices":[10,0,10,0,0],"split_type":[0,0,0,0,0],"sum_hessian":[2.4E1,1E0,2.3E1,1.9E1,4E0],"tree_param":{"num_deleted":"0","num_feature":"39","num_nodes":"5","size_leaf_vector":"1"}},{"base_weights":[1.3805785E-4,5.332947E-4,-1.2981473E-6],"categories":[],"categories_nodes":[],"categories_segments":[],"categories_sizes":[],"default_left":[0,0,0],"id":62,"left_children":[1,-1,-1],"loss_changes":[5.8440214E-6,0E0,0E0],"parents":[2147483647,0,0],"right_children":[2,-1,-1],"split_conditions":[1.0932589E1,5.332947E-4,-1.2981473E-6],"split_indices":[10,0,0],"split_type":[0,0,0],"sum_hessian":[2.4E1,1E0,2.3E1],"tree_param":{"num_deleted":"0","num_feature":"39","num_nodes":"3","size_leaf_vector":"1"}},{"base_weights":[1.1763743E-4,3.2114983E-4,-1.8287208E-5],"categories":[],"categories_nodes":[],"categories_segments":[],"categories_sizes":[],"default_left":[0,0,0],"id":63,"left_children":[1,-1,-1],"loss_changes":[4.3196596E-6,0E0,0E0],"parents":[2147483647,0,0],"right_children":[2,-1,-1],"split_conditions":[1.2476177E1,3.2114983E-4,-1.8287208E-5],"split_indices":[10,0,0],"split_type":[0,0,0],"sum_hessian":[2.4E1,3E0,2.1E1],"tree_param":{"num_deleted":"0","num_feature":"39","num_nodes":"3","size_leaf_vector":"1"}},{"base_weights":[9.494041E-5,4.0512087E-4,-4.0911927E-6],"categories":[],"categories_nodes":[],"categories_segments":[],"categories_sizes":[],"default_left":[0,0,0],"id":64,"left_children":[1,-1,-1],"loss_changes":[3.4262969E-6,0E0,0E0],"parents":[2147483647,0,0],"right_children":[2,-1,-1],"split_conditions":[1.0932589E1,4.0512087E-4,-4.0911927E-6],"split_indices":[10,0,0],"split_type":[0,0,0],"sum_hessian":[2.4E1,1E0,2.3E1],"tree_param":{"num_deleted":"0","num_feature":"39","num_nodes":"3","size_leaf_vector":"1"}},{"base_weights":[8.236062E-5,3.4446717E-4,-2.9679038E-6],"categories":[],"categories_nodes":[],"categories_segments":[],"categories_sizes":[],"default_left":[0,0,0],"id":65,"left_children":[1,-1,-1],"loss_changes":[2.4696033E-6,0E0,0E0],"parents":[2147483647,0,0],"right_children":[2,-1,-1],"split_conditions":[1.0932589E1,3.4446717E-4,-2.9679038E-6],"split_indices":[10,0,0],"split_type":[0,0,0],"sum_hessian":[2.4E1,1E0,2.3E1],"tree_param":{"num_deleted":"0","num_feature":"39","num_nodes":"3","size_leaf_vector":"1"}},{"base_weights":[7.185864E-5,2.9296876E-4,-1.9582392E-6],"categories":[],"categories_nodes":[],"categories_segments":[],"categories_sizes":[],"default_left":[0,0,0],"id":66,"left_children":[1,-1,-1],"loss_changes":[1.7792795E-6,0E0,0E0],"parents":[2147483647,0,0],"right_children":[2,-1,-1],"split_conditions":[1.0932589E1,2.9296876E-4,-1.9582392E-6],"split_indices":[10,0,0],"split_type":[0,0,0],"sum_hessian":[2.4E1,1E0,2.3E1],"tree_param":{"num_deleted":"0","num_feature":"39","num_nodes":"3","size_leaf_vector":"1"}},{"base_weights":[6.2637395E-5,1.4226437E-4,-6.396762E-5,1.4860599E-4,-4.6090205E-5],"categories":[],"categories_nodes":[],"categories_segments":[],"categories_sizes":[],"default_left":[0,0,0,0,0],"id":67,"left_children":[1,-1,3,-1,-1],"loss_changes":[1.3330277E-6,0E0,1.0791489E-6,0E0,0E0],"parents":[2147483647,0,0,2,2],"right_children":[2,-1,4,-1,-1],"split_conditions":[1.4321708E1,1.4226437E-4,1.7432494E-1,1.4860599E-4,-4.6090205E-5],"split_indices":[10,0,4,0,0],"split_type":[0,0,0,0,0],"sum_hessian":[2.4E1,5E0,1.9E1,2E0,1.7E1],"tree_param":{"num_deleted":"0","num_feature":"39","num_nodes":"5","size_leaf_vector":"1"}},{"base_weights":[5.3394077E-5,2.2773743E-4,-2.2924705E-6],"categories":[],"categories_nodes":[],"categories_segments":[],"categories_sizes":[],"default_left":[0,0,0],"id":68,"left_children":[1,-1,-1],"loss_changes":[1.0826691E-6,0E0,0E0],"parents":[2147483647,0,0],"right_children":[2,-1,-1],"split_conditions":[1.0932589E1,2.2773743E-4,-2.2924705E-6],"split_indices":[10,0,0],"split_type":[0,0,0],"sum_hessian":[2.4E1,1E0,2.3E1],"tree_param":{"num_deleted":"0","num_feature":"39","num_nodes":"3","size_leaf_vector":"1"}},{"base_weights":[4.6713252E-5],"categories":[],"categories_nodes":[],"categories_segments":[],"categories_sizes":[],"default_left":[0],"id":69,"left_children":[-1],"loss_changes":[0E0],"parents":[2147483647],"right_children":[-1],"split_conditions":[1.4013976E-5],"split_indices":[0],"split_type":[0],"sum_hessian":[2.4E1],"tree_param":{"num_deleted":"0","num_feature":"39","num_nodes":"1","size_leaf_vector":"1"}},{"base_weights":[3.2991415E-5],"categories":[],"categories_nodes":[],"categories_segments":[],"categories_sizes":[],"default_left":[0],"id":70,"left_children":[-1],"loss_changes":[0E0],"parents":[2147483647],"right_children":[-1],"split_conditions":[9.897425E-6],"split_indices":[0],"split_type":[0],"sum_hessian":[2.4E1],"tree_param":{"num_deleted":"0","num_feature":"39","num_nodes":"1","size_leaf_vector":"1"}},{"base_weights":[2.3196786E-5],"categories":[],"categories_nodes":[],"categories_segments":[],"categories_sizes":[],"default_left":[0],"id":71,"left_children":[-1],"loss_changes":[0E0],"parents":[2147483647],"right_children":[-1],"split_conditions":[6.959036E-6],"split_indices":[0],"split_type":[0],"sum_hessian":[2.4E1],"tree_param":{"num_deleted":"0","num_feature":"39","num_nodes":"1","size_leaf_vector":"1"}},{"base_weights":[1.6091899E-5],"categories":[],"categories_nodes":[],"categories_segments":[],"categories_sizes":[],"default_left":[0],"id":72,"left_children":[-1],"loss_changes":[0E0],"parents":[2147483647],"right_children":[-1],"split_conditions":[4.8275697E-6],"split_indices":[0],"split_type":[0],"sum_hessian":[2.4E1],"tree_param":{"num_deleted":"0","num_feature":"39","num_nodes":"1","size_leaf_vector":"1"}},{"base_weights":[1.1426079E-5],"categories":[],"categories_nodes":[],"categories_segments":[],"categories_sizes":[],"default_left":[0],"id":73,"left_children":[-1],"loss_changes":[0E0],"parents":[2147483647],"right_children":[-1],"split_conditions":[3.427824E-6],"split_indices":[0],"split_type":[0],"sum_hessian":[2.4E1],"tree_param":{"num_deleted":"0","num_feature":"39","num_nodes":"1","size_leaf_vector":"1"}},{"base_weights":[8.026185E-6],"categories":[],"categories_nodes":[],"categories_segments":[],"categories_sizes":[],"default_left":[0],"id":74,"left_children":[-1],"loss_changes":[0E0],"parents":[2147483647],"right_children":[-1],"split_conditions":[2.4078556E-6],"split_indices":[0],"split_type":[0],"sum_hessian":[2.4E1],"tree_param":{"num_deleted":"0","num_feature":"39","num_nodes":"1","size_leaf_vector":"1"}},{"base_weights":[5.4854304E-6],"categories":[],"categories_nodes":[],"categories_segments":[],"categories_sizes":[],"default_left":[0],"id":75,"left_children":[-1],"loss_changes":[0E0],"parents":[2147483647],"right_children":[-1],"split_conditions":[1.6456291E-6],"split_indices":[0],"split_type":[0],"sum_hessian":[2.4E1],"tree_param":{"num_deleted":"0","num_feature":"39","num_nodes":"1","size_leaf_vector":"1"}},{"base_weights":[4.4212647E-6],"categories":[],"categories_nodes":[],"categories_segments":[],"categories_sizes":[],"default_left":[0],"id":76,"left_children":[-1],"loss_changes":[0E0],"parents":[2147483647],"right_children":[-1],"split_conditions":[1.3263794E-6],"split_indices":[0],"split_type":[0],"sum_hessian":[2.4E1],"tree_param":{"num_deleted":"0","num_feature":"39","num_nodes":"1","size_leaf_vector":"1"}},{"base_weights":[3.474729E-6],"categories":[],"categories_nodes":[],"categories_segments":[],"categories_sizes":[],"default_left":[0],"id":77,"left_children":[-1],"loss_changes":[0E0],"parents":[2147483647],"right_children":[-1],"split_conditions":[1.0424187E-6],"split_indices":[0],"split_type":[0],"sum_hessian":[2.4E1],"tree_param":{"num_deleted":"0","num_feature":"39","num_nodes":"1","size_leaf_vector":"1"}},{"base_weights":[2.6140904E-6],"categories":[],"categories_nodes":[],"categories_segments":[],"categories_sizes":[],"default_left":[0],"id":78,"left_children":[-1],"loss_changes":[0E0],"parents":[2147483647],"right_children":[-1],"split_conditions":[7.8422715E-7],"split_indices":[0],"split_type":[0],"sum_hessian":[2.4E1],"tree_param":{"num_deleted":"0","num_feature":"39","num_nodes":"1","size_leaf_vector":"1"}},{"base_weights":[2.347653E-6],"categories":[],"categories_nodes":[],"categories_segments":[],"categories_sizes":[],"default_left":[0],"id":79,"left_children":[-1],"loss_changes":[0E0],"parents":[2147483647],"right_children":[-1],"split_conditions":[7.042959E-7],"split_indices":[0],"split_type":[0],"sum_hessian":[2.4E1],"tree_param":{"num_deleted":"0","num_feature":"39","num_nodes":"1","size_leaf_vector":"1"}},{"base_weights":[2.1206902E-6],"categories":[],"categories_nodes":[],"categories_segments":[],"categories_sizes":[],"default_left":[0],"id":80,"left_children":[-1],"loss_changes":[0E0],"parents":[2147483647],"right_children":[-1],"split_conditions":[6.3620706E-7],"split_indices":[0],"split_type":[0],"sum_hessian":[2.4E1],"tree_param":{"num_deleted":"0","num_feature":"39","num_nodes":"1","size_leaf_vector":"1"}},{"base_weights":[1.911394E-6],"categories":[],"categories_nodes":[],"categories_segments":[],"categories_sizes":[],"default_left":[0],"id":81,"left_children":[-1],"loss_changes":[0E0],"parents":[2147483647],"right_children":[-1],"split_conditions":[5.734182E-7],"split_indices":[0],"split_type":[0],"sum_hessian":[2.4E1],"tree_param":{"num_deleted":"0","num_feature":"39","num_nodes":"1","size_leaf_vector":"1"}},{"base_weights":[1.7150195E-6],"categories":[],"categories_nodes":[],"categories_segments":[],"categories_sizes":[],"default_left":[0],"id":82,"left_children":[-1],"loss_changes":[0E0],"parents":[2147483647],"right_children":[-1],"split_conditions":[5.1450587E-7],"split_indices":[0],"split_type":[0],"sum_hessian":[2.4E1],"tree_param":{"num_deleted":"0","num_feature":"39","num_nodes":"1","size_leaf_vector":"1"}},{"base_weights":[1.5346823E-6],"categories":[],"categories_nodes":[],"categories_segments":[],"categories_sizes":[],"default_left":[0],"id":83,"left_children":[-1],"loss_changes":[0E0],"parents":[2147483647],"right_children":[-1],"split_conditions":[4.604047E-7],"split_indices":[0],"split_type":[0],"sum_hessian":[2.4E1],"tree_param":{"num_deleted":"0","num_feature":"39","num_nodes":"1","size_leaf_vector":"1"}},{"base_weights":[1.4036737E-6],"categories":[],"categories_nodes":[],"categories_segments":[],"categories_sizes":[],"default_left":[0],"id":84,"left_children":[-1],"loss_changes":[0E0],"parents":[2147483647],"right_children":[-1],"split_conditions":[4.211021E-7],"split_indices":[0],"split_type":[0],"sum_hessian":[2.4E1],"tree_param":{"num_deleted":"0","num_feature":"39","num_nodes":"1","size_leaf_vector":"1"}},{"base_weights":[1.2816226E-6],"categories":[],"categories_nodes":[],"categories_segments":[],"categories_sizes":[],"default_left":[0],"id":85,"left_children":[-1],"loss_changes":[0E0],"parents":[2147483647],"right_children":[-1],"split_conditions":[3.844868E-7],"split_indices":[0],"split_type":[0],"sum_hessian":[2.4E1],"tree_param":{"num_deleted":"0","num_feature":"39","num_nodes":"1","size_leaf_vector":"1"}},{"base_weights":[1.1723355E-6],"categories":[],"categories_nodes":[],"categories_segments":[],"categories_sizes":[],"default_left":[0],"id":86,"left_children":[-1],"loss_changes":[0E0],"parents":[2147483647],"right_children":[-1],"split_conditions":[3.5170066E-7],"split_indices":[0],"split_type":[0],"sum_hessian":[2.4E1],"tree_param":{"num_deleted":"0","num_feature":"39","num_nodes":"1","size_leaf_vector":"1"}},{"base_weights":[1.0682037E-6],"categories":[],"categories_nodes":[],"categories_segments":[],"categories_sizes":[],"default_left":[0],"id":87,"left_children":[-1],"loss_changes":[0E0],"parents":[2147483647],"right_children":[-1],"split_conditions":[3.204611E-7],"split_indices":[0],"split_type":[0],"sum_hessian":[2.4E1],"tree_param":{"num_deleted":"0","num_feature":"39","num_nodes":"1","size_leaf_vector":"1"}},{"base_weights":[9.713403E-7],"categories":[],"categories_nodes":[],"categories_segments":[],"categories_sizes":[],"default_left":[0],"id":88,"left_children":[-1],"loss_changes":[0E0],"parents":[2147483647],"right_children":[-1],"split_conditions":[2.914021E-7],"split_indices":[0],"split_type":[0],"sum_hessian":[2.4E1],"tree_param":{"num_deleted":"0","num_feature":"39","num_nodes":"1","size_leaf_vector":"1"}},{"base_weights":[8.8395376E-7],"categories":[],"categories_nodes":[],"categories_segments":[],"categories_sizes":[],"default_left":[0],"id":89,"left_children":[-1],"loss_changes":[0E0],"parents":[2147483647],"right_children":[-1],"split_conditions":[2.6518615E-7],"split_indices":[0],"split_type":[0],"sum_hessian":[2.4E1],"tree_param":{"num_deleted":"0","num_feature":"39","num_nodes":"1","size_leaf_vector":"1"}},{"base_weights":[8.0328317E-7],"categories":[],"categories_nodes":[],"categories_segments":[],"categories_sizes":[],"default_left":[0],"id":90,"left_children":[-1],"loss_changes":[0E0],"parents":[2147483647],"right_children":[-1],"split_conditions":[2.4098497E-7],"split_indices":[0],"split_type":[0],"sum_hessian":[2.4E1],"tree_param":{"num_deleted":"0","num_feature":"39","num_nodes":"1","size_leaf_vector":"1"}},{"base_weights":[7.2663534E-7],"categories":[],"categories_nodes":[],"categories_segments":[],"categories_sizes":[],"default_left":[0],"id":91,"left_children":[-1],"loss_changes":[0E0],"parents":[2147483647],"right_children":[-1],"split_conditions":[2.179906E-7],"split_indices":[0],"split_type":[0],"sum_hessian":[2.4E1],"tree_param":{"num_deleted":"0","num_feature":"39","num_nodes":"1","size_leaf_vector":"1"}},{"base_weights":[6.7239046E-7],"categories":[],"categories_nodes":[],"categories_segments":[],"categories_sizes":[],"default_left":[0],"id":92,"left_children":[-1],"loss_changes":[0E0],"parents":[2147483647],"right_children":[-1],"split_conditions":[2.0171714E-7],"split_indices":[0],"split_type":[0],"sum_hessian":[2.4E1],"tree_param":{"num_deleted":"0","num_feature":"39","num_nodes":"1","size_leaf_vector":"1"}},{"base_weights":[6.2317355E-7],"categories":[],"categories_nodes":[],"categories_segments":[],"categories_sizes":[],"default_left":[0],"id":93,"left_children":[-1],"loss_changes":[0E0],"parents":[2147483647],"right_children":[-1],"split_conditions":[1.8695208E-7],"split_indices":[0],"split_type":[0],"sum_hessian":[2.4E1],"tree_param":{"num_deleted":"0","num_feature":"39","num_nodes":"1","size_leaf_vector":"1"}},{"base_weights":[5.763286E-7],"categories":[],"categories_nodes":[],"categories_segments":[],"categories_sizes":[],"default_left":[0],"id":94,"left_children":[-1],"loss_changes":[0E0],"parents":[2147483647],"right_children":[-1],"split_conditions":[1.7289858E-7],"split_indices":[0],"split_type":[0],"sum_hessian":[2.4E1],"tree_param":{"num_deleted":"0","num_feature":"39","num_nodes":"1","size_leaf_vector":"1"}},{"base_weights":[5.3656987E-7],"categories":[],"categories_nodes":[],"categories_segments":[],"categories_sizes":[],"default_left":[0],"id":95,"left_children":[-1],"loss_changes":[0E0],"parents":[2147483647],"right_children":[-1],"split_conditions":[1.6097097E-7],"split_indices":[0],"split_type":[0],"sum_hessian":[2.4E1],"tree_param":{"num_deleted":"0","num_feature":"39","num_nodes":"1","size_leaf_vector":"1"}},{"base_weights":[4.988082E-7],"categories":[],"categories_nodes":[],"categories_segments":[],"categories_sizes":[],"default_left":[0],"id":96,"left_children":[-1],"loss_changes":[0E0],"parents":[2147483647],"right_children":[-1],"split_conditions":[1.4964247E-7],"split_indices":[0],"split_type":[0],"sum_hessian":[2.4E1],"tree_param":{"num_deleted":"0","num_feature":"39","num_nodes":"1","size_leaf_vector":"1"}},{"base_weights":[4.629948E-7],"categories":[],"categories_nodes":[],"categories_segments":[],"categories_sizes":[],"default_left":[0],"id":97,"left_children":[-1],"loss_changes":[0E0],"parents":[2147483647],"right_children":[-1],"split_conditions":[1.3889844E-7],"split_indices":[0],"split_type":[0],"sum_hessian":[2.4E1],"tree_param":{"num_deleted":"0","num_feature":"39","num_nodes":"1","size_leaf_vector":"1"}},{"base_weights":[4.3146895E-7],"categories":[],"categories_nodes":[],"categories_segments":[],"categories_sizes":[],"default_left":[0],"id":98,"left_children":[-1],"loss_changes":[0E0],"parents":[2147483647],"right_children":[-1],"split_conditions":[1.2944069E-7],"split_indices":[0],"split_type":[0],"sum_hessian":[2.4E1],"tree_param":{"num_deleted":"0","num_feature":"39","num_nodes":"1","size_leaf_vector":"1"}},{"base_weights":[4.0099664E-7],"categories":[],"categories_nodes":[],"categories_segments":[],"categories_sizes":[],"default_left":[0],"id":99,"left_children":[-1],"loss_changes":[0E0],"parents":[2147483647],"right_children":[-1],"split_conditions":[1.2029899E-7],"split_indices":[0],"split_type":[0],"sum_hessian":[2.4E1],"tree_param":{"num_deleted":"0","num_feature":"39","num_nodes":"1","size_leaf_vector":"1"}}]},"name":"gbtree"},"learner_model_param":{"base_score":"[-1.861629E1]","boost_from_average":"1","num_class":"0","num_feature":"39","num_target":"1"},"objective":{"name":"reg:squarederror","reg_loss_param":{"scale_pos_weight":"1"}}},"version":[3,1,1]}